3312 128
390 0.187322 -0.063346 -0.035798 0.276447 -0.561794 0.121915 0.125032 -0.207239 0.381407 -0.062489 -0.375445 -0.187953 -0.006562 0.089598 0.306536 -0.224333 0.271878 0.115745 0.114212 0.279254 -0.218839 0.143949 0.177358 0.331176 -0.233350 0.193310 0.196335 -0.326174 0.072645 0.099182 0.183813 0.429718 -0.000023 -0.350454 -0.168103 -0.050396 0.157299 0.085667 0.078903 0.146645 0.151235 0.013354 0.234454 0.491409 0.081262 -0.028865 -0.076969 0.294701 -0.360699 0.063484 -0.291684 0.147809 0.178884 0.278217 0.365880 -0.234096 0.078818 -0.015410 0.012855 -0.254375 0.435784 0.237641 -0.173121 0.672464 -0.003796 -0.318023 -0.057306 0.152577 0.236284 0.053484 0.057125 0.104720 -0.028103 0.143960 0.161717 -0.052574 0.019880 0.237754 -0.469581 0.042041 0.075013 0.059846 -0.511044 -0.376405 -0.231925 -0.349604 -0.127070 0.406274 0.236654 -0.054570 -0.006089 -0.231524 0.131476 -0.100630 -0.196885 -0.081451 0.042117 -0.163719 -0.064712 -0.225843 0.544542 0.102725 0.019666 -0.433496 0.329168 0.208818 0.011924 -0.178555 0.072176 0.237748 0.349186 0.382283 -0.215675 0.290720 0.564950 0.240521 -0.184635 0.049527 -0.361233 -0.254658 0.068541 0.436120 -0.260700 -0.380774 0.064472 -0.458031 -0.039580 -0.227686
847 0.073083 0.101268 -0.195306 0.068532 -0.119269 0.019883 0.175585 -0.064628 0.948745 -0.100621 0.743821 0.438395 -0.012937 -0.011028 0.355540 -0.225444 -0.431318 -0.394036 -0.546856 -0.043778 0.438834 -0.257720 0.016595 0.238859 -0.059768 -0.038835 0.294434 -0.010758 -0.484474 -0.196141 0.046157 -0.363295 -0.240775 0.187910 0.265262 -0.036370 0.175656 -0.253078 0.371389 0.168730 0.041062 0.153144 0.880030 0.312575 0.097584 0.024025 0.021391 -0.000291 -0.416903 0.385437 0.365247 -0.040574 0.135719 -0.243411 0.053608 -0.085849 -0.212443 0.284026 -0.161131 -0.301357 -0.101069 -0.058965 -0.067588 -0.423170 0.332389 -0.065120 0.150549 0.036981 -0.029890 0.122751 -0.073783 0.383931 0.296040 -0.082859 0.197871 0.447473 0.020186 0.300665 0.048321 0.095177 0.475354 0.225894 -0.120219 0.157017 0.391628 -0.289109 -0.426530 -0.176293 0.282330 0.136677 0.088181 -0.550155 0.091205 -0.343592 -0.579560 0.305434 -0.149415 0.085536 -0.121656 0.220897 0.396537 -0.122112 -0.585613 0.172026 0.160058 0.358573 0.242996 -0.418305 0.051185 0.324834 -0.090297 -0.231507 0.364184 -0.305614 0.055246 0.060421 -0.275694 0.100442 0.334868 0.101969 0.471467 0.044234 -0.108383 0.166995 -0.200337 0.238087 -0.165600 -0.045060
1918 -0.340999 0.087953 -0.017804 0.461808 -0.218276 -0.655681 -0.303325 -0.194519 -0.163567 -0.204105 -0.451570 -0.029761 -0.140859 -0.748842 -0.023820 -0.286207 0.016745 -0.403064 0.551951 0.393452 -0.152046 0.158278 0.034222 -0.135197 -0.694559 0.296790 0.650363 0.271956 -0.012246 -0.159795 0.206204 -0.233658 -0.550803 0.140720 -0.380585 -0.311996 -0.352012 0.075887 -0.190908 0.456416 0.160157 0.241743 0.518621 -0.284328 0.187633 -0.197064 -0.581835 0.613300 -0.141540 0.220819 0.405298 -0.008114 -0.329814 0.136277 1.259846 0.064160 0.212736 -0.217757 0.267386 -0.131812 -0.148813 0.364639 0.102025 -0.473177 0.642075 -0.179152 0.691449 -0.607565 0.002571 -1.035731 -0.243291 0.747605 0.156710 -0.134070 0.693710 -0.287237 -0.121931 -0.198700 -0.653904 -0.479377 -0.595342 -0.267713 0.597871 -0.482442 0.102037 -0.385416 -0.372149 -0.034839 0.291102 -0.403508 -0.128167 -0.563309 0.313962 0.124119 -0.348304 -0.141984 -0.231505 -0.005067 -0.144361 0.237574 0.121396 0.341925 -0.252542 0.703852 0.023597 0.416564 -0.276589 -0.093305 -0.078351 0.220647 0.271104 0.048757 0.529072 -1.068236 -0.203638 0.054673 -0.241680 0.169505 -0.094444 -0.016098 -0.283292 -0.314983 -0.344024 -0.192973 -0.188054 -0.464405 0.148647 -0.624541
643 -0.066751 0.046278 0.027154 -0.165096 -0.480994 0.068626 0.165950 -0.303075 -0.216144 -0.177929 0.195584 -0.097745 0.064270 -0.175739 0.327224 -0.487527 -0.065558 -0.191368 -0.005277 0.094887 0.093079 -0.092570 -0.197796 0.109573 0.908239 0.335481 0.532367 -0.284836 -0.033498 -0.194200 -0.332597 -0.300150 -0.214483 0.055930 0.378350 0.132000 -0.297321 -0.161161 0.236710 0.170174 -0.213091 -0.301217 0.251336 -0.287926 -0.019859 -0.599116 0.413265 -0.100855 -0.468142 0.601850 -0.078876 0.228951 -0.030900 -0.080943 0.016444 -0.097440 -0.078408 0.557739 -0.468868 -0.161074 -0.048682 0.297338 -0.138343 0.100552 0.280065 0.591093 0.113024 0.199714 -0.224992 0.020058 0.253161 0.533444 -0.018796 -0.293387 0.230431 0.397706 0.148405 0.416090 0.603793 -0.404238 0.181102 0.136456 -0.477093 -0.045497 0.488083 0.110352 0.155009 -0.353245 0.299420 -0.421697 0.592979 -1.035317 0.417578 -0.193553 -0.624682 -0.253343 -0.116255 0.491092 0.008071 0.233634 0.825025 0.136938 -0.135438 0.038436 0.004975 -0.430637 -0.107707 -0.226651 -0.269247 0.027235 0.239503 0.003655 -0.378410 -0.366661 -0.015691 0.424316 -0.097331 -0.001435 0.186815 0.099084 0.133943 -0.084613 -0.290846 -0.386191 -0.635699 -0.133173 -0.081793 0.038311
471 -0.266484 -0.141715 -0.570652 0.174921 -0.692158 -0.019498 0.128288 -0.224468 0.174408 -0.289037 -0.568350 -0.104053 -0.342675 0.167380 0.066873 0.283585 -0.369428 -0.309189 0.291957 0.304468 0.372978 0.058635 -0.095932 0.222632 -0.202203 0.089489 0.201232 0.327632 -0.119954 0.311162 -0.319594 -0.038794 -0.366712 -0.342306 -0.110705 -0.062473 -0.206606 -0.138495 0.369726 -0.451899 0.187858 -0.109973 0.093620 -0.055605 0.085282 0.080664 -0.002985 0.263569 -0.414584 0.148091 -0.759514 0.426918 -0.024429 -0.061346 0.128772 -0.424883 0.163696 -0.512245 0.256372 -0.383413 0.176485 0.466602 0.010418 0.094774 0.237588 -0.245287 0.035607 -0.450185 -0.115364 0.089818 0.109799 -0.002937 -0.004110 0.224368 0.034744 0.445304 -0.293946 0.368617 0.171014 0.054474 -0.455778 -0.285157 -0.275031 -0.233962 0.200666 -0.207767 -0.405895 0.112148 -0.053004 -0.144011 0.536380 0.336771 0.387823 0.074562 -0.057873 -0.054466 -0.238022 0.175050 -0.359486 -0.195338 0.402927 0.158055 -0.163061 -0.135805 0.075147 0.406664 0.059915 -0.325238 -0.040766 -0.345124 0.481759 0.348604 0.058101 0.234404 0.061944 -0.225194 -0.240579 -0.068006 -0.246826 -0.288528 -0.151361 0.066304 0.291544 -0.252725 -0.108671 -0.195536 0.039437 0.336283
661 0.044585 0.262238 -0.165025 -0.371083 -0.070459 -0.140439 0.168003 -0.364407 0.452594 -0.748506 0.231716 0.277172 0.190437 -0.050050 0.164616 -0.185599 -0.373602 -0.228941 0.182313 0.045562 0.374777 0.129539 -0.290425 -0.405944 0.353442 0.275215 0.108518 -0.450364 0.222713 -0.101786 0.119820 -0.087233 -0.126503 0.090519 0.252572 0.091050 -0.027164 -0.019393 0.665285 0.406944 -0.172629 -0.377229 -0.045489 0.500713 0.359372 -0.475842 -0.072926 0.278419 -0.517821 0.448184 0.189697 -0.008967 -0.110127 -0.198451 0.034234 -0.083003 0.277240 0.196285 -0.638433 -0.155860 -0.494903 0.463689 -0.640091 -0.193754 0.631623 0.209897 -0.236611 0.205980 -0.181358 0.097663 0.111428 0.693544 -0.080609 0.028908 0.500438 0.482491 0.039891 0.075497 -0.193735 -0.053845 0.869284 -0.402144 -0.512853 -0.060157 0.803330 -0.200456 0.190896 -0.424200 0.440553 -0.598015 0.104735 -0.438864 0.374680 -0.292279 -0.269741 0.157453 -0.150938 0.218873 0.113856 -0.128862 0.543844 0.386417 -0.646830 0.029924 0.068686 -0.403664 0.029592 -0.185844 -0.415552 0.389130 0.628738 0.231234 -0.243473 -0.375838 0.015139 0.724334 -0.651977 -0.387384 0.354784 0.459873 0.166822 0.160479 0.098760 -0.172894 -0.658827 0.148000 -0.209467 0.249905
439 0.128501 -0.410449 0.111255 0.471837 -0.504878 0.153835 -0.085579 -0.176867 0.251359 -0.377340 -0.367823 -0.257892 0.032837 0.323895 0.310626 -0.077002 0.076924 0.113490 0.136936 0.212656 0.261709 0.389604 0.345593 0.274934 -0.774523 0.403396 0.719220 -0.097734 -0.124853 0.327365 0.212963 0.238619 0.228199 -0.056817 -0.160052 0.034218 0.015255 -0.115767 0.238596 0.111682 0.228944 -0.092012 0.331936 0.142332 0.273643 0.320695 0.150362 0.317339 -0.381134 0.014021 -0.306149 0.238083 0.030767 -0.129472 0.172634 -0.171677 0.201890 -0.439921 0.354486 -0.132312 0.395072 0.198985 -0.520009 0.446949 0.105465 -0.012169 -0.022509 -0.092574 -0.152656 0.016990 -0.016608 0.109687 0.004428 0.258231 0.315077 -0.116781 -0.419078 0.203077 -0.385013 -0.055258 0.266781 0.184807 -0.591747 -0.117918 -0.422221 -0.736484 0.026026 0.423222 0.329888 -0.139185 0.088531 -0.120920 0.269782 0.058301 -0.302831 -0.144111 -0.220013 0.035898 0.136977 0.064335 0.398502 0.036710 0.477148 -0.362838 0.160856 0.213871 -0.151562 -0.000900 -0.241278 -0.016709 0.141260 -0.064698 -0.609069 0.130683 0.569455 -0.174120 -0.494754 -0.053124 -0.230585 0.023345 -0.182749 0.586992 0.006956 -0.122152 -0.239858 0.184794 -0.282423 -0.073243
364 0.391931 -0.395636 0.209539 0.562802 -0.506985 0.047628 -0.079365 -0.253447 0.174811 -0.155523 -0.124471 -0.623179 0.179667 0.249606 0.306086 -0.120048 -0.025796 0.090190 -0.063911 0.147753 -0.084265 -0.044438 0.176145 0.389149 -0.462639 0.274184 0.533243 -0.179261 0.091817 0.660392 0.071692 0.279979 0.193003 -0.193247 -0.125015 0.019880 0.030266 0.124319 0.479694 0.241538 0.266112 -0.180902 0.231815 0.131170 0.207379 0.310790 -0.198163 0.100686 -0.444757 0.009277 -0.390938 0.418895 -0.225922 -0.078061 0.410572 -0.206734 0.338370 -0.440752 -0.135125 -0.210093 -0.034621 0.206891 -0.002962 0.634013 0.217416 -0.210112 -0.075623 0.140560 -0.146262 -0.277317 -0.059149 0.345127 0.198375 0.241270 0.098615 -0.113177 -0.063322 0.133494 -0.468564 -0.213878 0.044860 -0.056768 -0.814736 -0.234615 -0.438782 -0.571460 -0.178070 0.499501 0.170803 -0.093432 0.559772 0.109865 0.275941 0.093889 -0.219516 0.139876 -0.421590 -0.156434 0.136836 -0.020643 0.570113 0.204354 0.136356 -0.294422 0.104319 0.313637 0.159413 -0.240197 -0.531302 -0.233536 0.157300 0.261722 -0.297549 0.312721 0.409324 0.034259 -0.401639 0.191967 -0.258759 -0.190384 -0.189012 0.259879 -0.053220 -0.196247 0.256568 -0.063436 -0.176013 -0.269535
1406 -0.292057 -0.213196 -0.311624 0.758717 -0.692487 0.762375 0.552053 0.162871 -0.034275 -0.311173 -0.730608 0.450164 -0.379973 -0.294901 -0.172081 -0.237238 -0.260316 0.359598 -0.375327 -0.153298 0.132597 -0.374236 -0.230054 -0.054612 0.246359 0.181182 0.071744 0.800927 0.081084 0.545158 0.039512 0.429359 0.164905 -0.611776 0.254402 -0.100941 0.458569 0.200504 0.243279 0.169415 0.323984 -0.224676 0.080603 0.548438 0.014121 0.579776 -0.013469 0.569066 -0.175450 -0.182085 0.654526 0.053061 0.517357 -0.048832 0.008397 0.392364 -0.433071 -0.296710 0.742736 -0.902642 0.030069 -0.556262 0.618960 0.207013 0.566776 -0.005420 -0.142905 0.216466 0.125975 -0.547965 0.064780 0.152278 -0.024806 -0.539745 -0.061460 -0.075967 -0.041641 0.508732 -0.239916 -0.205553 0.851975 -0.565935 -0.294403 0.131309 -0.057143 0.017663 0.334470 -0.020566 -0.195019 -0.226686 -0.264168 -0.045040 0.378385 -0.149217 -0.825521 -1.119266 -0.440617 0.138204 -0.402832 0.163647 0.888059 0.326898 -1.147469 0.188714 0.191574 0.606572 0.107404 0.012179 -0.056036 -0.608038 0.221895 -0.455676 0.067325 -0.117011 -0.431714 0.104997 -0.240882 0.287719 0.241313 -0.572013 -0.629957 0.236421 0.207543 -0.204241 -0.672710 0.140386 -0.046327 -0.211976
291 0.432059 -0.242271 -0.055760 0.300538 -0.876270 -0.194515 -0.130422 0.176689 0.246121 0.211794 -0.221510 -0.374045 -0.413444 0.216225 0.034218 -0.103670 -0.089642 -0.108170 0.007036 0.198844 -0.241210 0.141733 0.367925 0.435570 -0.201033 -0.085505 0.508792 -0.549656 0.061172 0.194779 -0.184347 0.522549 -0.308434 -0.174860 -0.306521 0.052224 0.088696 0.225881 0.654778 0.012496 0.303537 0.216027 0.186638 0.339407 0.063210 0.117332 -0.275195 0.232017 -0.155748 -0.121298 -0.074852 0.182173 -0.170022 -0.015656 -0.069012 -0.025286 0.202694 -0.146320 -0.301471 -0.210096 0.150034 0.322668 -0.070698 0.520085 0.183774 -0.148468 -0.422199 0.135184 0.237452 -0.299829 0.210835 0.359679 0.463057 0.234977 0.073906 0.024358 -0.048848 0.297666 -0.134936 -0.007703 0.234306 0.043801 0.026088 -0.527782 -0.612423 -0.226156 -0.278185 0.376003 0.169015 -0.082536 0.511584 0.214706 0.265851 0.010173 -0.444574 -0.481869 -0.021863 0.119547 -0.163738 -0.122991 0.373299 -0.007910 0.071746 -0.092384 -0.110069 0.236817 -0.561154 -0.321192 -0.185205 -0.301002 0.317367 0.091362 -0.018279 -0.065206 0.549123 -0.010295 -0.098208 0.101584 -0.559959 -0.004670 0.454674 0.503991 0.065020 -0.151817 -0.406375 -0.129242 -0.014476 -0.483087
488 -0.528009 -0.200055 -0.266316 0.362420 -0.346886 -0.349435 0.666255 0.102083 -0.557821 0.564523 -0.233297 -0.049212 -0.572468 0.370673 0.717471 -0.248801 -0.090342 0.282920 0.017304 -0.267328 0.129206 -0.144043 0.000609 0.153452 0.358215 0.621282 0.246035 -0.230825 0.317326 0.574677 -0.584101 -0.349293 0.073698 -0.342056 0.732728 0.048306 0.293525 -0.153996 0.512172 0.434157 -0.400010 -0.174923 0.859583 -0.152049 0.450712 0.009163 0.181800 0.054306 -0.275088 0.307326 -0.870196 0.041288 1.235561 0.092191 0.197417 0.130027 -0.664617 0.318551 -0.270238 -0.536911 0.378523 0.065897 -0.393838 -0.385962 0.248301 -0.022963 -0.397684 0.520354 -0.483354 -0.132498 0.005897 0.352345 -0.124861 -0.138329 0.145053 -0.456193 0.053738 0.417639 0.705407 -0.416299 0.344233 0.178540 -0.206349 -0.701373 0.177384 0.032587 -0.192277 -0.587171 0.275822 -0.619766 0.207004 -0.612603 -0.193694 -0.168373 -1.018077 -0.051882 -0.044696 0.373841 -0.212292 -0.204787 0.751752 0.079846 -0.661211 -0.382138 -0.215056 -0.284657 0.093074 -0.082024 0.022927 0.200687 0.043702 -0.073391 0.092981 -0.519359 -0.372563 0.437297 -0.847723 0.159197 0.070794 -0.239128 -0.535999 -0.414383 0.314508 0.396172 -0.831629 0.420076 -0.267751 -0.021749
699 0.380001 -0.410020 -0.088929 0.179916 -0.597120 0.114754 -0.438135 -0.453290 -0.061329 0.043353 -0.548073 -0.562455 0.027288 0.169639 0.126568 -0.321107 -0.100891 -0.076193 0.083960 0.443133 -0.025819 0.070150 0.116865 0.492758 -0.566675 0.034011 0.727177 0.109508 -0.065641 0.210767 0.108395 0.143840 0.021689 -0.128235 0.080950 -0.195230 0.093206 -0.113354 0.184414 0.055653 0.077573 -0.056754 0.453013 0.586868 0.067561 0.173400 -0.343205 0.662962 0.136410 0.326268 -0.520736 0.524301 -0.045396 0.490392 -0.127683 -0.442921 -0.066863 -0.063023 -0.180910 -0.102799 0.212659 0.110187 -0.215810 0.586390 0.192269 -0.498415 -0.004549 -0.096748 0.430562 0.252359 0.407309 0.091750 -0.130455 0.094059 0.257364 -0.309783 -0.108735 0.157582 -0.018705 -0.257975 0.201314 -0.178540 -0.474793 -0.060241 -0.346332 -0.487142 0.186390 0.176423 0.246624 -0.156746 0.369261 -0.099754 -0.086440 0.187927 -0.126841 -0.224043 0.087184 0.173540 -0.245652 0.206054 0.273118 -0.026666 -0.033008 0.107534 0.341490 0.259159 0.135547 -0.363317 0.044574 0.177645 -0.102667 0.224841 -0.326125 -0.027676 0.528418 0.209640 -0.649902 -0.230779 -0.313507 -0.303174 0.160326 0.278490 -0.023567 -0.277726 0.034111 -0.214192 0.128291 -0.302055
905 -0.276487 -0.078418 -0.360199 0.539245 -0.263082 0.117072 -0.211561 -0.122814 0.147166 0.373887 -0.113448 -0.425428 -0.111855 -0.474022 0.147410 -0.024233 -0.349187 0.137013 0.381882 0.810898 0.097756 0.141910 0.259089 -0.128519 -0.346070 0.045138 0.378843 -0.197872 0.372453 -0.021826 -0.062176 -0.277219 0.508123 -0.271845 -0.192353 -0.509830 0.239141 0.106757 0.127474 -0.257628 0.175588 -0.065435 0.175143 0.361547 -0.131329 -0.063161 0.045371 0.414098 -0.321042 -0.187870 -0.593167 0.369804 0.006428 0.039117 -0.164456 -0.409308 -0.092293 0.186436 0.028478 -0.018363 0.105161 -0.034540 0.300458 0.017950 0.370600 -0.156464 -0.257667 0.257149 -0.000650 0.164402 0.002228 -0.051169 0.060177 -0.035620 0.258997 0.281844 -0.598785 1.058560 -0.325309 -0.090725 -0.172157 -0.438088 -0.239760 -0.155763 -0.119791 -0.107960 -0.112537 0.233544 0.360463 -0.203582 0.329084 0.214054 0.209017 -0.126986 -0.277454 0.077116 -0.396817 0.045473 -0.599306 0.004140 0.033924 -0.150337 -0.142950 -0.090679 0.172264 0.373232 -0.308107 -0.663805 -0.099466 -0.208138 0.676005 0.379335 -0.102100 0.100320 -0.078464 -0.303363 -0.119450 0.153673 0.229733 0.360309 -0.146475 0.721008 0.267846 -0.370644 -0.448934 -0.166186 -0.025220 -0.159288
2049 -0.215671 0.066499 -0.130393 0.032102 -0.462267 -0.000403 -0.117068 0.409723 -0.078670 0.115890 -0.267117 -0.103808 0.228751 -0.955507 -0.045390 0.379383 0.000002 -0.381740 0.378123 -0.085826 0.617135 -0.219043 0.078868 -0.804573 -0.232920 -0.000278 0.382246 0.293369 0.024656 -0.326771 0.218604 -0.010511 -0.242120 0.571635 -0.634304 -0.772891 -0.033273 0.154891 0.713417 0.446140 -0.031906 -0.727970 0.141751 0.018641 0.178420 0.529390 -0.357061 0.595944 0.255388 -0.260881 0.261341 -0.260877 0.130888 0.022734 1.295505 0.066793 -0.296199 -0.043815 0.216840 -0.116158 -0.562970 0.064919 0.214934 -0.132007 0.316991 -0.199661 0.410553 -0.225266 0.337533 -0.631398 -0.095783 -0.095895 0.243732 0.623019 0.160089 -0.420287 -0.253183 0.572280 -0.120546 -0.536243 0.005048 -0.176989 -0.364719 -0.733967 0.376415 -0.578044 -0.711823 -0.268922 0.666563 -0.129516 0.144280 -0.514508 0.792257 -0.541495 -0.187204 -0.068687 0.035363 -0.071043 -0.034885 0.041389 0.234080 0.126870 0.135531 0.594402 -0.277632 -0.044129 -0.121794 0.161679 -0.042985 -0.167451 0.317482 0.054266 -0.121928 -0.535738 -0.231670 0.438522 -0.190703 -0.081644 -0.054857 -0.231308 -0.552441 -0.209370 -0.291671 0.386398 -0.179334 -0.172175 0.354340 -0.532655
1236 -0.149398 0.198217 -0.323547 -0.303644 -0.627189 0.701503 -0.094865 -0.216464 0.403265 -0.416994 0.009297 -0.448417 -0.109372 -0.067394 -0.055472 -0.214149 0.030763 0.507859 0.288853 0.263936 -0.239026 -0.329362 0.057260 0.336771 0.235899 0.629151 -0.004885 0.258484 -0.236577 0.356074 0.008073 -0.088690 -0.488861 -0.145169 -0.840305 -0.310948 0.710809 -0.803506 -0.656309 0.310497 0.268167 -0.067086 0.226141 0.328242 0.052040 -0.088555 -0.483163 -0.150473 -0.668726 0.239330 -0.005214 -0.127730 0.483440 0.350428 0.162204 -0.569890 -0.275490 0.493995 0.020134 -0.041865 -0.352696 0.026069 -0.223677 0.556090 0.116201 0.027419 0.123171 0.080078 -0.020901 -0.723380 -0.012767 0.408367 0.238228 0.147223 -0.168087 0.381935 -0.407599 0.215466 0.058282 -0.329231 0.174795 -0.672177 -0.340882 -0.575357 -0.165321 0.247066 -0.243099 0.183662 -0.278700 -0.621152 -1.181182 -0.086567 0.761352 -0.012928 -0.254658 -0.455058 -0.076683 0.191374 -0.450363 0.112842 0.333813 0.502846 -0.100668 -0.062045 -0.140359 0.147260 -0.242784 -0.596513 -0.629383 0.000835 0.074555 -0.104754 0.294330 -0.090069 0.122688 -0.115509 -0.279393 -0.438765 0.034105 0.007914 0.341567 0.015604 -0.362126 -0.167556 -0.053081 0.492500 -0.315841 -0.120077
697 0.181740 -0.300600 -0.071086 0.414927 -0.444705 -0.055357 -0.436627 -0.405625 0.307265 -0.024798 -0.416741 -0.368444 -0.074725 -0.376161 0.060006 -0.102645 0.126226 0.272089 0.520399 0.326464 0.163435 0.179515 0.018614 0.566825 -0.452323 0.016174 0.381161 -0.069065 0.007598 0.223446 0.057337 -0.162987 -0.148196 -0.278824 0.088464 -0.039104 -0.143710 -0.176050 -0.125246 -0.266037 0.090554 -0.085377 0.377477 0.542229 0.051498 0.168248 -0.367922 0.435117 -0.018463 -0.028606 -0.578277 0.286520 -0.015957 0.114719 -0.303462 -0.091398 -0.067546 -0.185204 -0.075917 -0.360660 0.194938 0.323016 -0.020178 0.175037 0.077517 0.153936 -0.263457 0.049096 0.365352 0.144796 0.405911 -0.105317 0.011029 0.050378 0.187867 0.382426 -0.386866 0.186089 -0.377283 -0.032600 0.034808 -0.171640 -0.211928 0.099490 -0.261551 -0.199083 -0.427693 0.316412 0.374111 -0.008460 0.521159 0.243518 0.298568 -0.427404 -0.461003 -0.098966 -0.084787 0.079888 -0.253935 0.304094 0.476470 0.103357 0.313695 -0.465052 0.237887 0.360611 0.356237 -0.061906 -0.282114 -0.283435 0.251358 0.116297 0.006692 -0.152218 0.295191 -0.064234 -0.400825 -0.291123 -0.063789 -0.002411 -0.230494 0.177384 -0.054775 -0.300307 0.055088 -0.210886 -0.265343 -0.217713
732 -0.017844 -0.184255 -0.601779 0.258802 -0.883076 -0.124138 0.093514 -0.353829 0.079301 0.182358 -0.121265 0.061647 -0.080702 -0.123486 0.500810 -0.428090 -0.355658 -0.072470 0.572175 0.188358 0.004183 0.006244 -0.171314 -0.045710 -0.013799 -0.057593 0.361681 0.196629 0.272937 -0.052653 -0.214924 0.125063 0.280440 -0.082973 0.182705 -0.346734 0.092253 0.196812 -0.095493 -0.371297 -0.024026 -0.165953 0.133706 -0.027265 0.098400 -0.099781 0.060988 -0.024112 -0.025569 -0.349105 -0.172933 0.446214 0.378774 0.006901 0.218284 -0.090291 0.027051 -0.559737 0.416211 0.034043 -0.094755 -0.016029 -0.061510 0.226016 0.119049 -0.271063 -0.067016 -0.282052 -0.156325 0.284157 0.199491 -0.174349 0.183135 0.220571 -0.070061 0.342815 0.137163 0.303266 -0.066312 0.044685 -0.420080 -0.502340 -0.255882 -0.295401 -0.042978 -0.234175 -0.144880 0.306083 0.268758 -0.170234 0.219232 0.278275 0.637862 -0.440201 -0.576594 -0.251383 0.033510 -0.137830 -0.402206 -0.212348 -0.137586 -0.234470 -0.041326 0.290538 -0.357875 0.578077 -0.177521 -0.447783 0.075353 -0.049020 0.956881 -0.119170 0.537715 -0.328094 0.119040 -0.211559 -0.390276 -0.115555 0.296470 -0.043202 -0.129693 0.170017 0.539272 -0.698678 -0.356296 -0.291480 -0.273777 0.250206
2955 -0.022974 0.092760 -1.110269 0.474562 -0.176821 0.669452 -0.381818 -0.060451 -0.292010 0.075960 -0.430440 -0.707957 -0.394251 0.072927 -0.106501 -0.358792 0.319993 -0.000047 0.379790 -0.822938 0.008312 0.263735 0.639939 0.428059 0.298920 0.598451 1.446688 0.416858 -0.179232 0.429222 -0.171249 0.769380 -0.879945 0.329680 0.527281 0.742391 0.117533 0.382111 0.400181 0.324811 0.214872 -0.272213 -1.197515 0.719228 0.704616 -0.094097 0.227367 0.264531 -0.173017 0.289272 0.532102 -0.880216 0.086887 -0.256834 0.300227 -0.332919 0.559368 -0.234858 -0.558509 -0.702572 -0.417157 0.000231 -0.712131 -0.316658 1.016498 -0.979899 0.634097 0.693793 -0.339088 0.095864 0.299824 0.226495 0.830196 0.663474 0.604203 0.872086 0.409654 0.952201 -0.347940 -0.388267 -0.325817 -0.326266 -0.107460 0.579504 0.824151 -0.286526 -0.179664 -0.804678 0.900310 -0.660158 -0.033339 -0.138999 -0.312091 -0.667374 -0.597461 -0.616141 -0.531698 -0.178001 0.272264 0.555803 0.614366 -0.456171 0.044980 0.362735 -0.424828 0.467240 0.294956 -0.546074 0.134216 0.199945 0.388747 -0.060562 0.196981 0.473595 -0.721623 -1.049613 -0.775125 -0.775328 -0.108047 -0.102865 -0.881053 0.018865 0.357358 0.480596 -0.603151 -0.152046 0.339928 0.237504
659 -0.265178 0.155626 -0.067418 0.215532 0.166750 -0.240073 -0.196871 -0.105909 0.427078 -0.130629 0.498693 0.774909 -0.529676 0.229788 0.486475 -0.012004 -0.107433 -0.401009 -0.616311 -0.071557 0.386269 0.040535 -0.084769 0.261799 -0.012397 0.445903 0.098809 0.425267 0.311623 0.529124 -0.165299 -0.416236 -0.528146 0.067913 0.449341 -0.206152 0.480619 -0.211590 0.770131 0.274410 -0.049930 0.516256 0.443807 0.331055 -0.205697 -0.147277 -0.483289 0.044695 -0.129979 0.141373 0.184941 0.221987 -0.053866 0.347083 0.404010 -0.100775 -0.160802 -0.031524 -0.096114 -0.100184 -0.410380 0.225578 -0.233794 -0.571253 0.484679 0.373314 -0.130121 -0.080838 -0.125322 0.104769 0.196836 0.388389 0.214091 -0.068271 0.197800 0.234915 -0.133250 0.062823 -0.064269 0.312482 0.695377 0.106497 -0.760538 -0.033093 0.184533 -0.510125 0.010742 -0.007681 0.353347 -0.348266 -0.102035 -0.744646 0.070435 -0.518399 0.183918 0.181229 -0.251767 0.130581 0.307213 0.438443 -0.044921 -0.101899 -0.416754 0.087976 -0.101891 0.237093 0.443240 -0.484427 -1.024263 -0.188428 0.093295 -0.008962 -0.005257 -0.010287 0.217056 0.098618 -0.160137 -0.356683 0.076267 0.249712 0.137952 -0.256036 -0.476128 -0.206712 -0.792374 -0.007360 0.117444 0.345069
814 0.005527 0.184255 0.159348 0.329601 -0.646209 -0.248030 0.183326 -0.159691 0.344353 0.243779 0.413626 0.077565 0.064268 0.089881 -0.075271 0.006552 -0.124584 -0.190057 -0.353252 -0.108917 0.504141 -0.247970 -0.066552 0.433690 0.569560 -0.129994 0.140873 -0.019386 0.238248 -0.136744 -0.326546 -0.001486 -0.471690 0.197082 0.203379 0.386108 -0.434649 -0.581290 0.067372 -0.042465 -0.354070 -0.266740 0.468879 -0.098940 -0.028443 -0.334227 0.456104 0.104991 -0.375689 0.337116 0.156875 0.241857 0.129738 0.128037 0.163253 0.052481 -0.404656 0.605145 -0.329149 0.083329 0.242423 0.326306 0.077584 -0.186894 0.293623 0.123890 0.330509 -0.020456 -0.028841 0.055935 -0.190314 0.377252 -0.294978 -0.084453 0.510821 0.341506 0.447457 0.729298 0.430780 -0.007421 0.226117 0.224140 -0.194057 0.205094 0.479334 -0.370542 -0.170553 -0.293276 0.484520 -0.221535 0.503743 -0.751818 0.637236 -0.153045 -1.205775 0.085831 -0.578388 0.668825 -0.028268 0.142481 0.261847 0.036916 -0.474043 0.344244 0.210717 -0.183646 0.085659 -0.720069 -0.105477 0.079995 0.152395 -0.191437 -0.214974 -0.125413 -0.012778 0.203538 -0.136461 -0.306080 0.331825 0.112705 0.191548 -0.299669 -0.606635 0.140613 -0.653965 0.208508 -0.330880 0.388830
1101 0.084330 0.112648 -0.043057 -0.601286 0.378317 -0.021997 0.838372 0.546898 -0.261753 0.640125 0.644237 -0.395725 -0.196560 -1.479837 0.294380 0.031026 -0.465237 0.368184 -0.043431 0.825654 0.007489 -0.228892 0.091676 0.232776 0.323622 0.125083 0.466428 0.372757 -0.654178 0.335289 0.345629 0.253615 0.106718 0.485054 0.225815 -0.411435 -0.403335 -0.861624 1.330299 0.926785 0.561724 -0.666887 0.418567 0.648371 0.512370 0.051083 0.147617 0.199069 0.053942 -0.058745 0.307534 0.704625 0.275467 0.373035 0.572412 -0.156331 -0.245351 0.445940 0.458310 -0.363281 -0.248305 0.101483 -0.465158 0.180586 0.271327 -0.372735 0.039194 -0.547006 -0.108159 -0.323508 0.449180 -0.528084 0.605101 -0.138319 0.285756 0.108408 -0.206499 -0.479383 0.835612 0.103462 0.374986 -0.647656 -0.772997 0.789145 -0.709756 -0.661109 -0.540945 0.442103 -0.061834 -0.003559 0.065223 -0.575658 0.902382 -0.284866 -0.791863 -0.430214 0.322158 -0.265957 -0.314639 -0.269937 -0.167503 0.191360 -0.056675 -0.326895 0.018079 -0.335771 -0.882721 -1.408606 -0.235781 0.115633 0.336611 -0.269859 0.529624 -0.739181 -0.310756 -0.453315 -0.222057 0.100693 -0.563047 -0.207924 -0.506585 0.816824 0.155200 0.326050 -0.183927 -0.084024 0.032807 0.182552
822 0.213993 0.510651 0.300084 -0.086798 -0.539183 -0.325969 0.007279 -0.181734 -0.147866 -0.396924 0.411963 0.285492 -0.158539 0.345046 0.404739 -0.391047 -0.321093 -0.134329 0.664647 0.025533 0.313873 -0.208665 -0.515018 0.583943 0.248784 -0.665714 0.224374 -0.056683 0.087014 0.471969 -0.024920 0.093269 -0.519415 0.151620 0.035949 -0.515476 0.701672 0.006316 0.892840 0.080347 0.176441 0.143863 0.784895 0.010762 -0.474524 0.053482 -0.651658 0.568138 -0.280007 0.124422 0.429610 -0.258051 0.041626 -0.186413 0.230169 0.219144 -0.247476 0.475895 0.005307 -0.952737 -0.498740 0.103701 0.389747 -0.020641 0.388449 0.042056 -0.135495 0.156287 -0.122618 -0.013437 -0.262476 0.120511 0.200387 -0.337498 0.273048 0.096270 0.098000 0.100343 0.060367 0.613369 0.595814 0.338308 0.522961 0.089248 0.290076 -0.606620 0.354095 -0.466545 0.231078 -0.318478 -0.183148 -0.476807 0.525123 -1.006036 -0.409218 0.445712 0.186867 0.086037 0.250246 0.084133 0.456742 -0.266737 -0.229970 -0.041266 -0.103497 0.360671 0.275462 -0.806637 0.222429 -0.164014 0.498343 -0.515783 -0.197989 -0.119444 0.281525 -0.836027 0.107140 0.007700 -0.320705 0.048375 0.191400 -0.049787 0.021502 0.362435 -0.052174 -0.398353 -0.087422 -0.140753
868 -0.000020 -0.020851 -0.036379 0.204570 -0.538194 0.245491 0.333339 1.016740 -0.808259 -0.020199 0.479063 -0.406198 -0.693339 0.510472 -0.162226 -0.185718 0.122680 0.079995 -0.179006 0.753666 0.384830 -0.444572 0.149096 0.342738 0.405250 -0.023539 -0.411011 0.291573 -0.480868 -0.189722 0.549582 -0.745381 -0.257218 0.012841 -0.472735 0.288013 0.408470 -0.135348 0.381101 -0.272250 -0.179622 0.549087 -0.124376 -0.278096 -0.319076 -0.202115 -0.358203 0.058973 -0.883250 0.061652 0.340229 -0.019073 0.386309 -0.178339 0.205968 -0.471999 0.450444 -0.039331 -0.099231 -0.313402 0.079971 0.544998 0.026989 0.514716 0.381194 0.332909 -0.110645 -0.249832 0.251739 -0.830186 0.751645 0.129022 -0.087048 0.285269 0.136710 0.212237 -0.242361 0.638839 -0.440340 0.560162 -0.073438 0.082421 -0.654022 -0.088018 -0.048492 -0.076351 0.081353 -0.549445 1.084667 -1.076250 0.343658 0.278990 0.222312 -0.025094 -0.480795 0.363341 0.204322 0.123972 0.045152 0.304598 0.081270 -0.326908 -0.483139 0.660603 0.094729 0.609971 0.063910 -0.088763 -0.390673 0.170384 0.017889 0.085226 0.128551 -0.324660 -0.246977 0.533320 -1.270911 0.239570 0.205015 0.816115 -0.769030 0.092782 -0.356285 -0.019786 -0.079325 -0.080879 -0.187149 -0.805467
631 -0.299767 0.241785 0.287143 0.369898 -0.031896 -0.216761 0.285469 -0.016654 -0.004840 0.420035 0.297352 0.500982 -0.205561 -0.016785 0.773176 0.417945 0.242025 -0.225091 -0.540412 0.161245 0.335687 0.177973 -0.346794 0.364332 -0.096076 0.259176 0.546640 0.632852 0.303067 0.352165 -0.017402 0.128885 -0.144507 -0.223666 0.319230 -0.308856 0.709609 0.101399 0.722049 0.342882 -0.056067 0.593111 0.382499 0.060308 -0.395938 -0.245310 -0.285120 -0.163641 -0.471933 0.147195 0.425939 0.189687 0.192285 -0.038431 0.312230 -0.264555 0.011831 0.005377 -0.260357 -0.323262 -0.641093 0.162661 -0.392020 -0.344692 0.263125 0.274970 -0.169374 -0.214899 0.010240 0.111616 0.021135 0.419873 0.661158 -0.333403 0.061689 -0.111503 -0.254670 -0.166926 0.081703 0.129945 0.543875 0.593456 -0.482998 -0.239813 0.305733 -0.746692 -0.036405 -0.267629 0.593267 -0.098905 -0.058744 -0.536193 0.145107 -0.774524 0.262405 0.207944 0.052625 0.546509 0.177957 0.188149 0.090991 -0.131912 -0.659951 -0.186786 0.130293 0.601224 0.521914 -0.427456 -0.869905 0.295618 -0.105761 0.003585 -0.076711 0.409719 0.099184 0.110604 0.048146 -0.375673 0.236161 -0.057906 0.124577 -0.129275 -0.135747 -0.025178 -0.671671 0.427944 -0.031153 0.257139
986 -0.372460 0.182058 0.229361 0.404081 0.051057 -0.213086 -0.415598 0.135686 0.243140 -0.074087 0.345408 0.592076 -0.710937 0.135866 0.324288 0.050185 0.219595 -0.632104 -0.766324 -0.204411 0.447242 -0.202365 -0.337029 0.613049 0.252398 0.221365 0.344723 0.168332 0.011597 -0.063165 -0.171432 -0.106851 -0.011749 0.055705 -0.021920 -0.354588 0.327632 -0.397853 0.794868 -0.207869 -0.042289 0.626974 0.659162 0.102807 -0.004673 -0.124904 -0.236312 0.201541 0.052243 0.269720 0.132585 0.316921 -0.094728 0.314373 0.517394 -0.200280 -0.168706 -0.246471 0.136308 -0.066080 -0.597127 0.641215 -0.573461 -0.390217 -0.031655 -0.035177 -0.119351 0.214465 0.186933 -0.116164 0.102465 0.685151 0.236930 -0.481189 0.027944 0.216687 0.064683 0.634760 -0.130630 0.084160 0.452914 -0.077124 -0.977725 0.039675 0.223377 -0.835052 -0.268410 -0.230827 -0.036000 -0.558557 0.156589 -0.759278 -0.016612 -0.499889 -0.117122 -0.124025 0.437093 0.018937 0.111055 0.333715 -0.040477 -0.242957 -0.658664 0.200328 -0.172395 0.413459 0.553015 -0.286560 -0.725411 -0.032688 0.062062 -0.348788 0.146433 0.099016 -0.177832 0.267405 0.107094 -0.412970 0.194439 0.020312 0.163419 -0.162338 -0.248769 -0.285157 -0.424369 0.367413 0.294476 0.615234
753 0.128522 1.096589 0.472674 -0.165892 -0.112772 0.413879 -0.176326 0.395553 0.008266 0.006150 0.060667 0.104801 -0.194287 -0.434691 0.136169 0.286973 -0.250764 -0.749998 0.126203 0.532780 0.630674 0.045200 0.106707 -0.248282 -0.312114 0.324661 -0.342867 -0.517367 -0.308470 0.258712 -0.418018 0.002234 -0.203142 -0.046300 -0.414384 -0.348825 0.075144 -0.588891 0.641373 -0.033473 0.468438 -0.099375 0.657048 0.007041 -0.058808 0.078391 -0.183133 0.426767 0.156779 -0.093454 0.492610 0.431331 0.560746 -0.233744 0.809498 0.343070 -0.320606 0.299816 -0.201704 -0.258214 -0.051879 0.286876 0.169589 -0.222940 -0.140663 -0.332831 0.433770 0.319228 -0.354931 0.751076 0.075619 -0.042105 0.309409 -0.520097 -0.139183 0.052822 0.685921 0.170038 -0.005717 -0.272281 0.261641 0.211593 -0.293663 -0.519334 0.380362 -0.501406 0.069743 -0.392044 0.523089 0.065717 0.040510 -0.677020 0.408659 -0.591742 -0.375246 -0.429354 0.374956 -0.503980 0.199612 0.125333 0.176320 0.051699 -0.344449 0.774307 0.183676 0.967559 0.162493 -0.149915 -0.285680 -0.645255 0.190578 0.169577 0.140379 0.067601 -0.271811 0.864751 -0.607982 -0.275990 -0.303634 -0.206160 -0.518147 -0.231370 -0.566565 0.314159 0.166542 0.694208 -0.058724 0.131028
263 -0.319027 -0.050449 0.216621 0.388578 -0.551995 0.139572 -0.570029 -0.198220 -0.172140 -0.374734 -0.208014 -0.219596 -0.065375 0.000607 0.509441 -0.080546 -0.222649 -0.371101 0.034904 0.688249 0.151099 0.009141 0.130915 0.377260 0.183862 0.140006 0.364919 0.057662 -0.009071 0.362998 -0.085607 0.065234 -0.447294 -0.317662 0.253708 0.367374 0.015124 0.161710 0.149180 -0.444195 0.094495 -0.352642 -0.044702 0.404060 -0.105117 -0.048477 0.346045 0.563301 -0.657525 0.039602 -0.064956 0.903855 0.169816 0.362740 -0.210466 -0.450078 0.201083 0.066334 0.011337 0.507612 -0.189496 0.234988 -0.066483 -0.089428 0.028859 0.264232 -0.184742 -0.029060 -0.051497 0.003782 -0.048187 0.089751 0.221344 0.056878 0.139844 0.100053 -0.175437 0.582701 0.464426 -0.025918 -0.234823 -0.541530 0.145691 -0.503160 0.120879 0.466850 -0.294531 -0.071290 0.115528 -0.115064 0.358403 -0.239576 0.615255 0.018841 -0.362847 0.401014 -0.100026 -0.107037 -0.474770 0.270162 0.887779 0.061109 0.352746 -0.297719 0.433261 0.364456 -0.003466 -0.722165 -0.049335 0.158749 0.246139 0.287021 -0.485018 -0.396900 -0.146069 -0.024113 0.428776 0.448067 -0.098485 0.564080 -0.202876 0.500014 -0.070635 -0.654840 -0.381125 -0.181587 0.344639 0.057926
1731 -0.388936 -0.171137 -0.578573 0.912846 -0.440276 0.850922 0.831099 0.177502 -0.019658 -0.269097 -0.836567 0.224640 -0.523034 -0.249652 -0.251707 -0.130039 -0.587921 0.136988 -0.265996 0.051162 0.279371 -0.481042 -0.219546 -0.146528 0.188926 0.303456 0.347236 0.950992 -0.107619 0.848249 -0.183964 0.594018 -0.114689 -0.687474 0.245809 -0.094169 0.299078 -0.232063 0.607960 0.324094 0.580435 -0.390994 0.108138 0.685708 0.188482 0.464963 -0.111545 0.401711 -0.298457 -0.139491 0.616488 -0.258559 0.596958 0.040693 0.098916 0.628516 -0.447419 -0.473723 0.874869 -1.081113 0.024953 -0.485019 0.843701 0.335544 0.595564 0.214666 -0.123795 0.002548 -0.131611 -1.096444 0.080629 -0.019517 0.091159 -0.256706 0.089161 -0.120424 -0.212128 0.435499 0.188320 -0.034372 1.129327 -0.472031 -0.136522 0.100090 -0.059673 -0.135251 0.470012 -0.297890 0.035839 -0.089009 -0.448478 0.006286 0.339084 -0.093343 -0.716874 -0.813716 -0.559694 0.171375 -0.456358 0.523179 1.033985 0.187571 -1.105053 0.171343 0.388538 0.449211 -0.050233 -0.279902 -0.075250 -0.585532 -0.058818 -0.484380 -0.159506 -0.292858 -0.292577 0.077091 -0.242487 0.205416 -0.189261 -0.562104 -0.609723 0.233325 -0.148072 -0.386333 -0.404888 -0.068084 -0.058974 -0.004255
673 0.441762 0.035865 -0.349116 0.615938 -0.373128 0.334175 -0.114136 -0.197728 0.237294 0.228965 -0.213020 -0.256545 -0.347409 -0.124513 0.009308 0.200984 -0.404253 -0.213386 0.332860 0.813859 -0.432089 -0.256857 0.541189 -0.185630 -0.077235 0.025638 0.433731 0.053149 0.379514 0.035616 0.056496 -0.070082 0.102195 -0.258887 0.034558 -0.076430 0.304878 -0.094189 0.279664 -0.172470 0.076357 -0.406857 0.243266 0.011492 -0.104990 0.102852 -0.140199 0.367753 -0.492788 -0.049641 -0.020466 0.502067 -0.232456 -0.125204 0.243074 -0.415921 0.155940 -0.105122 -0.155167 0.051540 0.304621 0.431988 -0.217152 0.250056 0.224071 -0.428906 -0.301670 0.506609 0.022533 -0.056186 -0.007575 -0.195352 0.008169 0.011950 -0.114330 0.215727 -0.093743 0.478830 -0.447990 -0.123778 0.225285 0.138909 -0.752971 -0.140061 -0.536549 -0.520127 -0.484781 0.499098 0.396096 -0.358921 0.509592 0.086458 0.016396 0.304270 -0.200046 -0.063009 -0.195959 0.430331 -0.125106 -0.135869 0.398846 -0.251956 0.161327 -0.528299 -0.101667 0.580347 -0.106949 -0.341722 -0.315965 -0.000183 0.634225 0.696739 -0.348097 -0.182336 0.132069 -0.033765 -0.151806 0.345678 0.097554 -0.018280 0.294838 0.384242 -0.013001 0.004596 -0.088100 -0.320830 0.128642 -0.020973
616 0.493988 -0.414840 0.396735 0.088761 -0.762555 -0.033298 -0.045917 -0.546453 0.253189 0.011063 -0.305110 -0.512038 -0.137327 -0.122938 -0.037803 -0.059167 -0.292721 -0.021187 0.063201 0.357388 0.084005 0.088870 0.495961 0.402431 -0.365667 -0.047219 0.112624 -0.223388 -0.189974 -0.032363 0.490104 0.203199 -0.504900 -0.418825 -0.098196 0.120217 -0.073954 -0.420725 0.008963 0.367123 0.200717 -0.196418 0.561025 0.750396 -0.174216 -0.005612 -0.555810 0.244177 0.499183 0.543110 -0.268737 0.104629 -0.183041 0.479767 0.100502 -0.394315 0.065483 0.314807 -0.150529 0.030234 0.106243 0.253122 -0.050712 0.145117 0.226155 -0.361659 -0.334783 0.028943 0.333794 -0.129257 0.532521 0.153549 0.313997 -0.012204 -0.172002 -0.222021 -0.089059 0.345797 -0.347118 -0.099678 0.203618 0.061125 -0.360378 -0.694478 -0.411254 -0.470269 -0.269049 0.246881 0.295239 0.022848 0.541307 0.146900 0.193403 -0.014415 -0.186913 -0.035298 -0.348701 0.144688 -0.185633 0.017421 0.116581 -0.209952 0.592738 -0.179071 0.227887 0.282974 -0.018534 -0.174483 -0.262426 -0.118513 0.209395 0.177147 0.108517 -0.014018 0.081633 -0.164452 -0.542658 -0.078110 0.083547 -0.186169 -0.560008 0.306985 0.686693 -0.098873 -0.306273 -0.101907 0.242692 -0.037422
780 0.090289 -0.145636 -0.440800 0.151951 -0.883906 -0.045642 0.031225 -0.047120 -0.063389 0.065886 -0.307602 -0.201600 -0.167104 -0.065715 0.448307 0.012061 -0.537318 0.025919 0.714638 0.365758 0.470021 -0.310877 0.117018 -0.276889 -0.164402 0.117010 0.642461 0.000628 -0.249102 -0.555389 -0.243904 0.300998 0.008450 -0.701153 -0.118095 -0.366182 0.002632 -0.339331 0.431868 -0.188140 -0.128046 -0.096443 0.235648 -0.043308 0.171234 0.146524 0.135523 0.061320 -0.550286 0.027190 -0.116482 0.383126 -0.264996 -0.043261 -0.076670 -0.336026 0.030293 -0.311293 0.355569 -0.682034 0.132910 0.113483 0.277885 -0.132122 -0.097325 -0.267693 0.216744 -0.385081 -0.282393 0.127027 0.295400 0.283340 -0.008879 0.210075 0.169161 -0.030191 -0.066778 0.206253 -0.030832 -0.170651 -0.582355 -0.429555 -0.168041 -0.068257 -0.579215 -0.019733 -0.357879 -0.148057 0.224486 -0.316275 0.314743 -0.272270 0.103230 0.335765 0.024515 -0.039250 -0.169283 0.074794 -0.090931 0.010879 0.484282 0.082993 -0.261442 0.261838 -0.705133 0.456870 -0.096570 -0.144660 -0.418334 -0.477458 0.597010 0.174611 0.157987 -0.241938 0.027826 -0.269416 -0.047397 0.003782 -0.084162 -0.257665 -0.101371 -0.002466 0.305001 -0.731766 0.083985 -0.084282 0.468573 -0.003670
354 0.246136 0.531203 0.412251 -0.667462 -0.494301 0.073711 0.132618 0.052221 -0.639390 -0.379578 -0.143191 -0.091798 -0.629527 0.789185 0.446722 -0.230619 -0.357322 0.870804 0.093753 0.020622 0.359727 0.121021 0.195202 0.543067 -0.253397 -0.288974 -0.205404 0.740322 0.035641 0.623293 -0.497642 0.155733 0.172009 -0.001019 -0.317225 -0.637362 -0.458088 0.031741 -0.119255 0.835381 -0.230120 -1.360071 0.885628 0.761582 -0.261664 -0.032233 0.102367 -0.087750 -0.132289 0.807937 0.106350 -0.435389 0.643056 -0.198106 0.365260 -0.694318 -0.011801 0.100408 0.450195 -0.096112 -0.512879 0.413398 0.325904 -0.795206 1.022082 0.034814 0.454590 -0.040016 -0.101243 -0.270545 -0.193099 -0.040626 0.136549 -0.159247 -0.121610 0.042753 -0.230903 0.335640 -0.108759 0.566005 0.467162 -0.878059 -1.175224 0.175466 0.026419 -0.379811 -0.122341 -0.607235 0.427001 -0.588846 0.045050 0.225440 -0.072167 -0.619424 -0.187479 -0.188255 0.063745 0.158369 0.435238 0.606208 -0.016830 0.414129 -0.512788 0.137274 -0.013863 -0.020375 -0.277921 -0.147155 -0.476660 -0.137077 0.788895 0.235651 -0.205442 -0.087949 0.146877 -0.536619 0.117167 0.263144 0.378234 -0.149310 0.811026 0.205626 -0.820814 0.125722 0.116400 0.005577 -0.578360 0.251812
691 -0.407797 0.056257 0.061239 0.213157 -0.012520 0.024168 0.220250 0.100634 0.160473 -0.175081 0.233765 0.266862 -0.391656 0.429442 0.561720 0.507220 0.072513 -0.044110 -0.351495 -0.364774 0.262595 -0.673563 -0.473336 0.538781 0.062326 0.086659 0.750845 0.105696 0.136060 0.019831 -0.283604 -0.043389 -0.500677 -0.056541 0.121152 -0.038541 -0.269778 -0.524501 0.573460 -0.180173 -0.165712 0.073285 0.589897 0.291527 0.292982 -0.213008 -0.153801 0.156057 0.029798 0.282693 -0.224929 -0.043342 0.088758 -0.404451 0.382813 -0.038433 -0.083645 0.082641 0.180763 -0.304249 -0.033256 0.344673 -0.249168 -0.187478 0.091854 -0.023911 0.042479 0.296442 -0.120934 0.186383 0.158495 0.551982 -0.258340 -0.041391 -0.277618 -0.350489 0.520655 0.736694 -0.320666 0.389484 0.458182 -0.480905 -0.217818 0.157515 0.193045 -0.047780 0.270817 -0.267729 0.961070 -0.568809 0.547423 -0.488292 0.650375 -0.599144 -0.328281 -0.421192 -0.289351 0.116048 -0.329874 0.538656 0.108176 -0.979657 -0.205929 -0.157941 0.248427 0.227870 0.109714 -0.189559 -0.483021 0.023414 -0.374610 0.057389 0.146462 -0.009316 -0.597970 0.357478 0.007990 -0.217759 -0.133604 0.069398 0.596307 -0.079360 -0.641746 0.290495 -0.392088 0.118645 0.004233 0.348888
31 -0.169140 -0.251016 -0.723176 0.020250 -0.678104 0.034544 -0.316677 -0.511591 -0.105485 -0.062679 -0.359716 -0.327901 0.176566 -0.296826 0.243957 -0.009264 -0.333142 0.180021 0.415888 0.382942 0.073487 -0.031327 -0.124343 -0.586551 -0.471150 -0.022671 0.098861 0.281257 -0.227478 -0.015688 0.032583 0.129563 -0.286047 0.004368 0.026304 -0.057083 -0.256978 -0.050930 0.431601 -0.413906 0.427133 0.216012 0.140160 0.162952 0.313692 0.325207 0.014119 -0.162573 -0.697989 -0.019232 -0.688652 0.390248 0.439645 0.225193 0.384311 -0.114002 0.370292 -0.158813 0.402771 -0.458462 0.103288 0.620658 0.335187 -0.065415 0.407780 -0.093171 0.285478 -0.139672 -0.345575 0.022256 0.151072 0.009035 -0.278390 0.017244 0.138649 -0.154287 0.497857 0.226125 -0.021701 0.174900 -0.154096 -0.257263 -0.231990 -0.262578 0.195046 -0.299963 -0.521440 -0.248817 0.027225 -0.303265 0.284187 0.017318 0.506962 0.212659 -0.014301 -0.165184 0.037940 0.062477 -0.313323 -0.025991 -0.300448 -0.323398 -0.501921 -0.159053 0.036220 0.564321 -0.295303 -0.233431 -0.273521 -0.197640 0.709357 -0.071998 0.038215 0.004399 0.531876 -0.238594 -0.478646 -0.113888 -0.457455 0.077094 -0.002793 0.159543 0.506578 -0.384932 -0.208052 -0.219257 -0.014662 0.761064
0 -0.302900 -0.055769 -0.261772 0.226360 -0.503843 0.156341 -0.064268 0.569218 -0.485555 -0.070244 0.562767 -0.097161 0.210139 0.440566 0.495774 0.221066 0.099633 0.120966 0.031616 0.024243 0.357599 -0.838571 0.133517 0.291481 0.133020 -0.036697 0.432712 -0.014608 -0.110788 0.001316 -0.635277 0.465379 -0.709062 -0.355897 -0.079111 0.495099 0.350763 -0.213483 0.658822 -0.422104 0.593199 -0.512569 0.704652 0.164013 0.270128 -0.106377 0.010065 0.413390 -0.280120 0.402534 -0.293827 -0.018673 0.481096 -0.535128 -0.088787 -0.551658 0.176173 -0.048508 0.016978 -0.481098 -0.256364 0.171036 -0.221700 -0.565872 0.014343 0.141188 -0.276504 -0.375728 -0.201161 -0.212117 0.239751 0.158458 -0.218462 -0.004197 0.283341 -0.153550 0.362913 0.566251 -0.313172 0.539743 0.216228 -0.459369 0.033907 -0.148555 -0.071273 0.437858 0.143354 0.079019 0.833810 -0.180158 0.654580 -0.064326 0.532295 -0.414120 -0.489501 -0.232049 0.246638 0.082389 0.197193 0.612912 -0.126192 -0.432196 -0.065719 -0.038380 -0.077890 0.119545 -0.032835 -0.276985 -0.002598 0.048864 -0.510313 0.064563 -0.204715 0.133166 -0.443800 0.582490 -0.146481 -0.082089 -0.116058 0.066807 0.098757 -0.240062 -0.552941 0.530975 -0.718588 0.140098 -0.452571 -0.198836
698 0.240127 -0.288093 -0.114797 0.125289 -0.627496 0.120646 -0.399738 0.142237 0.044566 -0.166199 -0.283283 -0.660353 -0.069239 -0.358181 0.295869 -0.079980 -0.009974 0.229473 0.238329 0.084250 0.053183 -0.157297 0.114318 0.627500 -0.652571 -0.012388 0.209057 -0.176751 -0.106278 0.209432 0.517031 0.354291 -0.052224 -0.398524 0.003771 0.083678 -0.280663 -0.385085 -0.296898 0.057583 0.051630 -0.059554 0.447826 0.445672 0.159647 0.181693 -0.413795 0.559032 -0.020013 0.385201 -0.673607 0.147818 0.080590 0.246442 0.151903 -0.097778 -0.129599 -0.003567 -0.474459 -0.343630 0.334908 0.302696 -0.119668 0.308785 0.293006 -0.229490 -0.490985 -0.108582 0.202265 0.117940 0.174816 0.334309 0.023920 -0.012886 0.282355 -0.144231 -0.053617 0.310811 -0.421353 -0.035092 0.294570 0.242336 -0.228682 -0.508915 -0.369940 -0.059906 -0.100191 0.512998 0.447886 -0.113478 0.381382 0.037035 0.458601 -0.212481 -0.176900 0.271251 -0.141944 0.302866 0.089178 0.338867 0.338632 0.214261 0.124936 -0.221313 0.626066 0.315951 -0.080289 -0.231022 -0.011530 -0.252594 0.411388 -0.012732 0.066672 0.463672 0.241527 0.128429 -0.472314 -0.318632 -0.122007 -0.398395 -0.337943 0.354665 0.193171 -0.577234 0.034283 -0.290275 0.111042 -0.155146
634 -0.137920 0.208460 -0.562411 -0.263716 -0.946249 0.219436 0.055040 -0.474809 -0.307117 0.899102 0.206801 0.247757 -0.587011 -0.054533 0.426381 0.390217 -0.345278 -1.207948 -0.256067 0.130720 -0.206944 -0.427367 -0.706600 0.173064 0.215783 -0.062480 0.830866 0.792244 0.362910 0.338529 0.674138 -0.441922 -0.189306 -0.156104 0.343961 -0.155393 0.381140 0.845125 -0.159632 1.209628 0.191089 -0.524647 -0.215761 0.182200 0.557805 0.772637 -0.268097 -0.649157 -0.248636 -0.097195 0.254683 0.261409 -0.126605 -0.519717 0.096249 0.077957 -0.518905 -0.029802 0.446876 0.230576 -0.119557 0.868493 -0.160156 0.467891 -0.342689 -0.240653 -0.141802 -1.035354 0.151482 0.833521 -0.107036 -0.107177 0.176181 0.044135 0.376243 -0.056406 0.131476 0.606188 -0.660852 -0.406246 -0.543206 -1.175943 -0.366117 -0.353549 0.051006 -0.129376 0.162267 0.258978 0.569779 -0.134667 0.093240 0.088524 0.243886 0.249357 -0.899190 0.215741 -0.385940 -0.366088 -0.322900 0.620889 -0.057515 0.026976 -0.449679 -0.462953 0.850814 0.934129 -0.039471 -0.603060 0.353928 -0.680920 0.959180 -0.176001 0.090447 -0.191472 0.780371 -0.103095 0.028409 -0.897781 0.251477 -0.073479 -0.990168 0.202062 0.186248 -0.585041 -1.193682 -0.378159 0.551533 0.771142
2050 -0.106433 0.325395 0.052384 0.306427 -0.430948 0.259689 0.104264 0.298935 0.416280 0.219847 -0.114447 -0.058254 0.117299 -0.722367 -0.357055 0.568965 -0.067525 -0.281735 0.325655 -0.025647 0.875967 -0.316863 -0.200081 -0.373918 -0.112465 0.065600 0.104913 -0.124595 -0.023952 -0.351023 0.025740 -0.210434 0.010075 0.289844 -0.831927 -0.874114 0.282113 0.188223 1.048261 0.268687 -0.300134 -0.215895 0.105731 -0.081366 0.140721 0.236050 -0.452278 0.988763 0.278041 -0.571138 0.230636 -0.224873 0.463376 0.013637 0.868986 0.117624 -0.096130 -0.240846 -0.150949 -0.357814 -0.683220 -0.143381 0.012916 0.218282 0.300594 -0.196056 0.235711 -0.241194 0.193772 -0.472950 0.020859 -0.310889 0.558753 -0.195442 -0.025935 -0.445344 0.014973 0.390568 -0.000039 -0.726881 0.147788 -0.131618 -0.567921 -0.500797 0.117013 -0.080555 -0.314623 -0.563580 0.662822 -0.375662 0.361572 -0.352456 0.764780 -0.145835 -0.362354 0.094414 0.260262 -0.157513 0.382123 0.343359 0.455889 0.065087 -0.022175 0.137226 0.057767 -0.382031 -0.001669 0.116198 0.312965 -0.148717 0.459974 0.224105 -0.252477 -0.527646 0.043539 0.156996 -0.752277 -0.060206 0.056461 0.049008 -0.064312 -0.086101 -0.287076 0.001961 0.434311 0.228798 0.295326 0.402484
516 0.155894 -0.817155 0.204852 0.324625 -0.855723 -0.098601 -0.280757 -0.079026 0.012098 0.112282 -0.182359 -0.427232 -0.215534 0.316132 0.194746 -0.165160 -0.334252 -0.378135 0.158783 0.098108 -0.207342 -0.011557 0.240548 0.244290 -0.253027 0.466022 0.402928 -0.027780 0.106851 0.305888 0.086121 0.056389 -0.059316 -0.290957 -0.150189 0.402396 0.193633 -0.136289 0.041247 -0.124452 0.381687 0.161351 0.068560 0.393107 0.406953 0.525094 -0.092863 0.291549 -0.087664 -0.082371 -0.422298 0.275303 -0.016895 0.033729 0.083901 -0.332557 0.087146 -0.306671 0.339987 -0.007170 0.071683 0.154648 -0.440197 0.280593 -0.081311 -0.448958 0.091431 -0.011797 0.028238 0.047423 0.139228 0.094043 0.027705 0.031006 0.334137 -0.141309 -0.308656 0.044271 -0.073918 -0.210855 0.327365 0.035189 -0.784634 -0.316571 -0.244716 -0.306562 0.048289 0.285953 0.287051 -0.237453 0.189721 -0.333724 0.266793 -0.148869 -0.317770 -0.080675 -0.345632 0.151119 0.651919 -0.007975 0.387342 0.144199 0.234182 0.130223 0.071864 0.274214 -0.297938 -0.305504 -0.049291 -0.137275 0.283398 0.177119 -0.562886 0.284321 0.350336 0.017270 -0.536469 0.252959 -0.126656 -0.284860 0.304541 0.604196 0.011623 -0.189104 0.211546 -0.258520 -0.001989 -0.263783
1460 -0.133169 -0.307706 -0.512786 0.558392 -1.058121 -0.824948 -0.239347 -0.199710 0.217964 0.183549 -0.556441 -0.351110 -0.621124 -0.050193 -0.079330 0.254488 -0.245149 0.158372 0.319645 -0.179554 0.495214 0.331603 0.131071 0.356043 0.105436 -0.658498 0.899233 -0.343486 -0.798980 0.199445 0.322490 0.273324 0.091422 -0.372414 0.088646 -1.038335 0.225043 -0.174003 -0.196977 -0.058245 0.732297 -0.078395 0.510216 1.122617 0.548925 -0.241051 -0.372985 0.441260 -0.097288 0.227613 -0.250695 0.650931 -0.464539 0.386742 0.288109 -0.830365 0.245976 0.236318 -0.528916 0.229142 0.311557 -0.121616 -0.458347 -0.526800 0.084425 -0.117214 0.663915 -0.318198 0.353652 0.480868 0.026327 -0.178693 0.045762 -0.474554 0.159178 -0.049225 0.084856 -0.358381 -0.089248 -0.063350 0.202094 -0.404921 0.211673 -0.443702 -0.659898 -0.564247 0.097463 -0.502365 0.047595 -0.257488 -0.194477 0.181513 0.476595 -0.322818 -0.553473 0.497117 -0.289729 0.184313 -0.231511 -0.110467 0.966298 -0.197480 0.085143 -0.249211 -0.470190 -0.156874 -0.287753 -0.193340 0.241047 -0.158299 0.015331 0.328018 0.140673 0.265545 -0.113851 0.319073 -0.650823 -0.381506 0.516004 0.112002 -0.430188 -0.146313 -0.334280 -0.532607 -0.747910 0.021930 0.282033 0.095561
1004 -0.088772 -0.776267 -0.141724 0.329147 -0.986343 0.181710 -0.075165 0.151367 0.195944 0.443745 -0.321630 -0.560052 -0.349229 -0.162574 -0.100418 -0.305202 -0.217323 0.151737 -0.177690 0.466219 0.131190 0.058352 0.075564 0.356106 -0.234299 0.169070 0.516441 0.133590 0.267357 0.625318 0.001253 -0.135000 -0.112403 -0.100003 -0.009107 0.160404 0.142302 -0.080997 0.182390 0.013202 0.438934 -0.181708 0.162964 0.211336 -0.116395 -0.149463 -0.063391 0.142976 -0.186672 -0.343602 -0.772359 0.401940 0.091978 0.154988 0.155852 -0.346603 0.385472 -0.546635 0.313323 0.058260 0.334322 0.547157 -0.338622 0.170000 0.123533 -0.121558 0.028254 -0.274280 -0.003477 0.119746 0.518740 0.154661 0.516133 -0.015423 0.111034 0.105668 0.352696 -0.011821 -0.113244 -0.007461 0.375558 0.152096 -0.278200 -0.166733 -0.089641 -0.075645 -0.370224 0.324690 0.028409 -0.424249 0.505556 -0.379945 0.375575 -0.282270 -0.023760 0.196707 -0.241602 0.268360 0.490122 -0.654948 0.417507 0.138192 0.389963 -0.284424 0.236845 0.282087 -0.471300 -0.181072 -0.107970 0.371761 0.469351 -0.000851 -0.734595 0.026002 -0.148641 -0.247807 -0.367646 0.033452 -0.022843 -0.295256 0.124758 0.215152 -0.033424 -0.291564 0.044672 0.177432 0.060616 -0.015269
979 -0.363141 0.408752 0.060701 -0.060229 0.133508 -0.404818 -0.068916 -0.058486 0.226590 -0.034464 0.493774 0.380805 -0.156043 0.548597 0.736455 0.168509 -0.102621 -0.245147 -0.418724 0.003851 0.094406 -0.002670 -0.260669 0.334649 0.067463 0.124357 0.381638 0.447327 0.121233 0.232766 0.044197 -0.029607 -0.324448 0.127548 -0.142596 -0.233541 0.199495 -0.070742 0.795882 0.378361 -0.160776 0.913723 0.796728 0.241062 -0.646911 0.047285 -0.132635 0.187238 -0.362189 0.363956 0.163591 0.324367 0.221034 0.076011 0.442753 -0.060861 -0.279914 -0.156607 -0.175332 -0.446319 -0.230507 0.157443 -0.149219 -0.378255 0.119629 0.341708 -0.047603 -0.182072 -0.175315 0.142103 0.173139 0.487681 0.487509 -0.307962 0.289245 0.244047 0.074486 0.514245 -0.257389 0.239409 0.829026 0.658027 -0.338292 -0.062689 0.094902 -0.429666 0.078663 0.283233 0.322050 -0.400714 0.009349 -0.592227 0.296540 -0.921227 0.169235 0.093805 -0.032954 0.269352 0.456481 0.489779 0.362546 -0.299225 -0.740622 0.115327 -0.339290 0.149492 0.604489 -0.593874 -0.386973 -0.154661 -0.161118 0.052621 -0.060719 -0.233817 0.060730 0.098399 0.206862 -0.483329 0.277107 0.231630 -0.171698 -0.254615 -0.112444 -0.305217 -0.726271 0.198572 0.178240 0.444704
876 0.362499 -0.132143 -0.858370 0.488133 -1.283707 -0.214738 -0.410944 -0.208375 -0.202978 -0.152635 -0.449733 -0.227743 0.076961 0.376320 0.613512 -0.342842 0.291664 -0.068181 0.635242 0.625625 0.276579 0.096154 0.138335 0.287112 -0.127652 0.084774 0.271311 0.058115 -0.064811 -0.133360 0.054691 0.239307 0.184407 0.335675 0.043954 -0.642445 0.418953 -0.210490 0.208165 -0.119082 0.436407 -0.330902 -0.432371 0.056235 0.558777 -0.408641 -0.005152 0.078668 -0.298634 -0.577131 -0.065182 0.166085 0.357000 0.501665 0.524879 0.138567 -0.136428 -0.652089 -0.131695 0.035147 0.075299 -0.148867 0.487128 0.542525 0.531219 -0.190882 0.063697 -0.187139 -0.538819 0.567801 0.111494 0.260570 0.290589 -0.449622 -0.332224 -0.117238 -0.273303 0.344490 0.314598 0.067597 -0.058226 -0.175469 -0.273530 -0.087395 0.414241 -0.463319 -0.721611 0.222354 0.037920 -0.314442 0.010096 0.021610 0.590150 -0.443358 -0.325162 -0.560571 -0.293117 -0.180745 -0.035298 0.010802 -0.137207 0.045022 -0.223768 0.057736 0.068897 0.393184 -0.184199 -0.338439 -0.150732 0.313003 0.401662 -0.202184 0.390896 -0.353144 -0.361026 -0.036518 -0.753992 -0.283406 0.275015 0.055022 -0.199956 0.367827 0.884567 -0.575090 -0.342474 -0.616137 -0.239743 0.631732
1150 0.227467 0.065683 -0.437607 0.031776 -0.625581 0.254436 0.231360 -0.054623 0.072080 -0.577734 -0.413953 -0.517374 -0.161803 -0.204568 -0.444598 -0.229554 0.059595 0.268577 0.699588 0.295645 -0.297795 -0.141447 -0.261953 0.736991 0.155887 0.200595 0.163936 0.162437 0.030270 0.461165 -0.550123 0.139570 -0.178048 0.262026 -0.792258 0.003154 0.601976 -0.616728 -0.582559 0.531235 -0.099204 0.091326 0.706117 0.080189 0.003922 -0.090618 -0.393549 0.136734 -0.722018 0.364636 0.604640 -0.156529 0.520413 0.387938 -0.165280 -0.741070 -0.271509 0.083089 -0.100535 -0.205286 -0.395231 -0.177577 0.041999 0.350072 0.368911 0.044946 0.444696 -0.201214 -0.270114 -0.566353 -0.637587 0.329529 0.471706 -0.262891 -0.149403 0.932116 -0.088954 -0.015269 0.010621 -0.144236 0.518422 -0.493613 -0.410526 -0.696213 -0.191521 0.128047 -0.150236 -0.064686 0.213909 -0.182494 -1.246305 -0.169994 0.773805 -0.200085 0.055181 -0.402934 0.036611 0.022757 -0.407808 0.354248 0.241154 0.600472 -0.115118 0.118408 -0.020625 0.240592 -0.292235 -0.623084 -0.257162 0.551299 0.121313 0.201734 -0.030730 0.090351 0.354137 -0.122274 -0.041436 -0.598499 0.277409 0.278938 -0.471266 0.050537 -0.274401 0.071465 0.189020 0.593279 -0.480893 0.057518
295 -0.201375 0.166835 -0.920516 -0.090852 -1.197352 -0.068237 -0.151787 -0.666188 0.194236 0.652949 -0.100842 0.111273 0.041106 -0.103296 0.423093 -0.376355 -0.530629 -0.872570 0.222061 0.174825 -0.039010 -0.503365 -0.151377 0.425950 0.175169 0.104854 0.509098 0.333660 0.162028 0.036817 0.295973 -0.099112 -0.130926 -0.176712 0.291035 -0.402973 0.257102 0.684806 -0.350007 0.530929 -0.101453 0.026733 -0.163489 -0.037022 0.027967 0.634920 -0.076662 -0.351310 -0.225264 0.022400 -0.243225 0.573988 0.202196 -0.203439 0.061503 0.120345 -0.082438 -0.316199 0.297514 -0.071390 -0.212090 0.709577 -0.128906 0.130531 -0.152488 -0.291690 -0.082810 -0.916985 0.186166 0.496792 -0.024534 0.102780 -0.278422 0.213227 0.079095 -0.224919 0.327707 0.740285 -0.427385 -0.214185 -0.264264 -0.720131 -0.024452 -0.395011 -0.163384 -0.102835 0.023017 0.131308 0.042452 0.018105 0.250459 0.110038 0.388608 -0.107997 -0.608743 -0.125921 0.165025 -0.599118 -0.314034 0.227279 -0.112210 0.055056 -0.549347 -0.561128 0.562544 0.697496 -0.067041 -0.630752 -0.033165 -0.543452 1.005295 -0.320822 0.106563 -0.257683 0.248413 -0.231848 -0.243638 -0.155905 0.275875 -0.030096 -0.477873 0.151367 0.400105 -0.278006 -0.681014 -0.086723 0.319544 0.467168
416 0.226930 0.688155 0.776542 -0.421020 -0.502381 0.114993 0.145463 0.044032 -0.487201 -0.633497 0.277467 0.266980 -0.215068 0.464930 0.514117 -0.279603 -0.012159 0.187551 0.254934 -0.240351 0.347785 -0.040207 0.000497 0.567948 0.103091 -0.160857 0.505372 0.485633 0.071195 0.535950 -0.250458 -0.105330 -0.210137 0.256183 0.138928 -0.627963 0.463857 0.038187 0.528764 -0.018809 0.291730 -0.076844 0.787526 0.195339 -0.230376 -0.068232 -0.160359 0.237060 -0.382934 0.218313 0.001976 -0.068475 0.173728 0.194772 -0.109660 -0.082916 0.061780 0.166556 -0.041096 -0.467949 -0.690210 0.019089 0.478566 -0.351912 0.762806 0.082547 0.021849 0.144072 0.218797 0.222716 0.518354 0.438721 -0.124522 -0.154242 -0.076649 -0.226897 -0.115009 0.194076 -0.400421 0.539145 0.762462 0.324549 0.030591 0.306459 0.230550 -0.221911 0.185550 -0.510416 0.118832 -0.442982 -0.426569 -0.601540 0.297495 -0.790759 -0.432633 0.333374 0.221150 0.296941 0.100945 0.164990 -0.061172 -0.235317 -0.042761 -0.119387 -0.121794 0.534890 0.066286 -0.539455 -0.710352 -0.197107 0.960075 -0.140187 -0.021808 -0.170199 -0.038144 -0.608235 0.367253 0.160415 0.051908 -0.095714 0.532924 -0.326931 -0.870713 0.339304 0.013784 0.123005 -0.049610 0.141133
848 0.177052 0.178550 -0.227414 -0.038246 -0.367449 -0.421019 -0.286308 0.300630 0.606566 0.005784 0.531563 0.282445 -0.154523 0.027126 0.167705 -0.208804 -0.021697 -0.115101 -0.284712 0.214984 0.630613 -0.158734 0.026925 0.440965 0.638646 -0.192078 0.371673 0.325342 0.108682 -0.388281 -0.379740 -0.441980 -0.242618 -0.243499 0.139709 0.342275 -0.344221 -0.470922 0.349152 0.344775 -0.117981 0.201316 0.292758 0.011338 -0.560341 -0.122190 0.182065 -0.021336 -0.350425 -0.005942 0.233282 -0.122796 0.461131 -0.173921 0.089687 -0.400620 -0.174949 0.375001 -0.531599 -0.154505 0.159158 0.681805 0.307368 -0.285088 0.615905 0.408089 0.383025 -0.126400 0.092384 0.455049 -0.145918 -0.072324 -0.143794 -0.132767 0.073974 0.215369 0.014760 0.260614 -0.064536 -0.187558 0.512890 0.212210 -0.451495 -0.190349 0.454866 -0.573654 -0.556460 0.033699 0.376987 -0.190433 0.042360 -0.564410 0.617513 -0.002655 -0.775831 0.579915 -0.301466 -0.074961 0.009843 0.720029 0.228242 -0.088539 -0.707710 0.543723 0.242209 -0.217299 0.272494 -0.563319 0.083933 0.154952 -0.147527 0.164197 0.241047 -0.066596 0.043639 0.179562 0.013437 -0.156461 -0.175221 0.029673 0.217222 -0.031823 -0.094086 0.013131 -0.541797 0.699845 -0.285820 0.107125
2832 -0.329308 -0.034930 -0.256921 -0.238546 -0.371247 -0.198350 -0.344963 -0.995515 -0.094475 -0.012516 0.334313 0.283842 -0.553502 0.181297 1.000904 -0.270248 0.127925 0.800367 0.305626 -0.335419 -0.136358 -0.107081 0.339076 1.379978 -0.222507 -0.393442 0.757981 -0.248096 -1.170020 1.155791 -0.200663 0.113012 0.510739 -0.348785 -0.961301 -0.807483 -0.610701 -0.768258 0.534922 1.728571 1.353000 -0.068961 -0.275132 1.096291 -0.402395 1.240312 -1.131130 -0.058459 0.377960 -0.035170 -0.291774 0.876584 -0.343690 -0.592494 -0.163583 0.073413 -0.214481 -0.504688 -0.860827 -0.837950 -0.438293 -0.247556 0.256710 0.673260 0.345190 -0.926515 -0.308432 0.366042 -1.058090 -0.317696 0.040846 0.096351 -1.131568 -0.774276 -0.049887 -0.203935 -0.369798 0.470582 -0.474084 -0.113905 0.692841 0.230737 -0.278025 0.075092 0.379401 -0.211335 -0.276788 0.067625 1.211523 -0.947811 -0.757602 -1.455578 0.154017 1.108930 -1.410041 0.459302 -0.043352 -0.152735 0.312091 -0.144092 0.320460 0.177512 0.781336 -0.135696 -0.219558 -0.112706 0.118650 -0.440197 0.673571 0.592570 -0.400246 0.306292 0.451099 -0.739637 0.502989 -0.460824 -0.414493 0.070685 -0.228198 -0.043994 0.470292 -0.016770 -0.688102 -0.067180 -0.818848 0.830949 0.563830 0.665873
2996 0.090898 -0.498387 -0.913846 0.480553 -0.989033 0.455549 -0.106823 -0.500170 -0.897255 -0.425514 0.019600 -0.062573 -0.888843 -0.131810 -0.027178 -0.281465 -0.008389 -0.041776 -0.159619 -0.339466 0.357779 0.484660 -0.299860 0.311390 0.620763 0.168523 0.714448 0.659056 -1.947089 0.753828 0.502030 0.262482 0.995784 0.246897 -0.335165 0.427631 0.352677 0.076571 1.306325 -0.134360 -0.352144 -0.257175 -0.362898 0.066083 0.335853 -0.095054 0.176925 0.043782 -0.245049 0.514596 0.383604 -0.246435 0.254330 -0.292622 -0.110456 -0.331947 -0.754900 0.500382 0.445692 -0.013204 -0.078171 0.155918 0.256719 -0.120995 0.417809 -1.147510 -1.263288 0.126137 -1.212480 -0.290057 -0.095711 0.190566 -0.706830 -0.237220 -0.091995 1.237487 -0.709431 0.216280 -0.064706 0.547175 0.977911 -0.806622 -1.435044 0.038241 -0.233360 -0.654719 -0.935876 -1.071880 0.830706 -1.344262 -0.426689 -0.211910 1.289930 -0.321975 -0.445665 0.131889 0.673570 -0.366484 0.940853 -1.089086 0.091971 0.556346 -0.371333 0.745526 0.185774 0.766287 0.056331 -0.426679 -1.002863 -0.854224 -0.440056 0.264564 -0.493023 -0.253026 -0.254160 0.163927 -0.008986 -0.933006 -0.133552 0.834313 -0.458323 0.107696 -0.047268 -0.108653 0.640871 0.724539 0.042991 -0.946718
1386 0.220055 0.266979 0.151817 0.362922 -0.481069 0.051973 0.174435 0.739482 0.036030 -0.080194 0.369618 0.009867 -0.758078 -0.072535 0.043868 -0.490806 -0.140088 0.401151 0.532478 0.694946 0.697832 -0.088098 0.094163 0.521628 0.939219 0.462710 0.390526 -0.400614 -1.269248 0.251764 -0.005692 -0.898688 -0.434531 0.230843 -0.283634 0.441999 0.301888 -0.154953 0.318822 -0.215161 0.326380 -0.146864 0.206778 -0.041681 -0.213103 -0.170411 0.004042 -0.394174 -1.080219 -0.197277 0.699582 0.559964 -0.399941 0.977336 -0.049592 -0.297504 0.307121 -0.421599 0.348909 -0.153938 -0.090623 0.470551 -0.246016 1.150898 0.497123 0.084456 0.351704 0.037096 0.428611 -0.192617 -0.411368 -0.198667 -0.402383 0.334558 -0.263638 0.251896 -0.073212 0.852317 -0.642588 0.397396 0.209166 -0.058779 -0.186192 -0.284045 0.691825 0.143635 -0.207613 -0.740910 0.629506 -1.123681 -0.647315 0.130545 0.127394 0.111004 -0.750677 -0.848740 0.245928 0.245229 -0.300720 -0.702809 0.170825 -0.384812 -0.381409 0.644446 0.782918 1.193957 -0.364413 -0.812656 -0.619636 0.329553 -0.446643 -0.440884 0.544478 0.246269 -0.605621 -0.070595 -1.038017 -0.069348 -0.193031 0.548146 -0.530667 -0.347450 0.358239 0.135997 0.326717 -0.158845 0.918146 -1.229525
202 -0.184237 0.566285 0.058087 -0.035799 -0.356576 0.190387 0.411325 -0.009186 0.555304 -0.099371 0.216548 -0.092968 -0.068476 0.249925 0.433892 0.123989 -0.493792 -0.647610 -0.066788 -0.008572 0.058649 -0.100624 0.690706 -0.436339 -0.118984 0.249213 0.900621 0.299141 -0.435969 -0.038333 0.273988 -0.318988 -0.163779 -0.059839 0.478179 -0.558198 -0.015658 0.233785 0.422367 0.445989 0.378487 0.175115 0.741541 0.182729 0.105262 0.483207 -0.182836 0.124021 -0.441880 -0.016240 0.703322 -0.076086 0.402226 -0.297280 0.320751 -0.685817 -0.274443 0.123705 -0.601137 0.231475 -0.286644 -0.066825 -0.175476 -0.156228 0.192202 0.038735 0.100091 -0.093690 -0.244610 0.303013 0.041106 0.267798 -0.038718 -0.754465 0.441436 0.816030 -0.002615 0.444274 0.017830 0.524111 0.748472 -0.307283 0.043181 0.734084 0.493119 -0.155231 0.157221 -0.610748 0.137101 0.215843 0.619274 -1.050252 0.114091 -0.192031 -0.540269 -0.284849 0.004343 -0.074732 0.032119 0.005862 0.157693 -0.008567 -0.147123 0.289628 -0.112394 0.376395 0.673333 -0.664885 0.223103 -0.004914 0.032725 -0.186957 0.561431 -0.079259 0.499129 0.163000 -0.311764 -0.345418 -0.491753 -0.029990 0.162380 0.000568 0.025142 1.168348 0.070461 0.278900 -0.022967 -0.152317
389 0.332526 0.208017 0.719878 0.373884 -0.060094 0.005328 0.484289 0.217938 0.004567 0.037621 0.228181 0.235173 -0.335677 -0.012678 0.515203 -0.430389 -0.329683 -0.576478 0.548176 0.433549 0.656776 -0.178608 -0.501480 0.105291 -0.371785 0.133134 0.142122 -0.540649 0.679145 0.156207 0.168090 -0.155111 -0.680556 0.684706 0.106346 -0.354138 -0.186779 -0.006441 0.567523 0.201180 0.283282 0.473560 0.649298 0.853588 -0.333865 0.027645 -0.398985 0.356937 -0.131574 -0.071578 0.497758 0.001724 0.406355 -0.320818 0.612423 -0.155347 -0.268084 0.080302 -0.681044 0.259827 -0.312139 0.003014 0.444770 -0.059093 -0.304954 0.420848 0.174110 -0.263238 -0.455497 -0.049475 -0.611148 0.166508 -0.290830 -0.521312 -0.049131 0.378176 -0.007576 0.790569 -0.029840 0.020856 0.694608 -0.505865 -0.508886 0.384071 -0.146946 -0.828433 -0.345389 -0.960727 -0.218918 0.050094 0.094615 -1.062642 0.477736 -0.978671 -0.607162 0.346072 0.529884 0.118675 0.219864 0.030838 0.340545 0.567944 -0.423464 -0.043311 -0.266679 0.764152 0.571801 0.249069 0.137812 0.215796 0.491249 -0.331357 0.045691 -0.164319 -0.071349 0.392072 -0.559911 -0.656936 -0.947510 0.149880 -0.339408 0.043490 0.385565 0.401351 0.577828 0.287410 0.394316 0.043245
495 -0.382659 0.440418 0.149700 0.188365 0.048197 -0.609307 -0.150700 -0.040719 0.095320 -0.058003 0.380414 0.379135 -0.499680 0.370457 0.404907 0.171386 -0.043106 -0.385177 -0.646030 -0.125159 -0.019703 -0.193824 -0.064553 0.396637 0.022966 0.448025 0.275459 0.299586 0.018972 0.116996 -0.163573 0.021646 -0.527665 0.072543 -0.053526 -0.379100 0.269443 0.025090 0.794525 0.027198 -0.277910 0.786445 0.625848 0.115393 -0.606196 -0.182810 -0.215284 -0.057115 -0.428715 0.010688 0.259437 0.094427 0.232618 0.426472 0.502479 -0.345027 -0.266069 -0.447287 0.118441 -0.217439 -0.077587 0.169417 -0.611808 -0.802284 -0.113836 -0.050875 -0.145132 -0.040235 0.009598 -0.300428 0.082331 0.380833 0.501985 -0.582868 0.083197 0.307879 0.083317 0.654948 -0.631564 0.265040 0.625936 0.257463 -0.876205 0.060651 0.278395 -0.604172 0.024009 0.038204 0.148241 -0.574076 0.197694 -0.486274 0.027908 -0.953892 0.040451 0.158590 0.151421 0.076697 0.421127 0.472410 0.236989 -0.348616 -0.589240 0.016036 -0.290577 0.103458 0.596853 -0.437585 -0.905737 -0.125806 -0.113891 -0.156064 -0.377378 -0.349851 0.092116 0.217666 -0.153335 -0.616964 0.171491 -0.024637 -0.021548 -0.034085 -0.210644 -0.386123 -0.969030 0.343169 0.129400 0.868572
447 -0.119144 -0.592035 -0.512677 -0.590769 -0.778555 -0.154081 -0.196167 0.076666 0.157000 0.506830 -0.383203 -0.495101 0.123155 0.441784 -0.210693 -0.266241 -0.362903 -0.944869 -0.166797 -0.289201 -0.332375 -0.509144 -0.422004 1.086422 -0.128119 0.410659 0.082234 -0.113723 0.128466 -0.697345 0.329754 0.316338 0.035078 -0.335553 -0.023168 0.176579 0.316965 0.725898 0.205765 0.382440 0.023452 -0.000517 0.333255 0.388013 -0.297489 -0.309795 -0.079269 0.341350 -0.255335 -0.002672 0.032025 0.854593 0.223335 -0.258137 0.321575 -0.450145 -0.297527 -0.435803 0.002080 -0.320407 -0.101969 0.686338 -0.017410 1.137339 -0.291050 -0.619975 0.201340 -0.142982 -0.318828 -0.253055 0.518880 0.464173 -0.437779 0.337620 0.007634 -0.342068 -0.442082 0.699337 -0.502956 -0.498035 0.022523 0.164354 -0.370153 -0.313269 -0.306775 -0.470557 -0.248320 -0.326160 0.069007 0.329736 0.070072 -0.522453 0.449941 -0.580476 -0.470901 -0.111601 -0.119348 -0.551532 -0.247168 0.082957 -0.148526 0.570643 -0.425215 -0.020283 0.321345 0.238238 -0.136558 -0.057314 -0.343488 -1.093023 0.150497 0.053825 -0.013838 0.089815 0.330494 0.029321 -0.057462 -0.101905 0.553119 0.204942 0.408909 0.150863 0.261517 0.180824 -0.735996 -0.086085 0.027533 0.347253
441 0.060637 0.429365 -0.146780 0.059222 -0.731668 -0.257556 -0.554645 0.098590 0.518900 -0.457582 -0.169995 -0.651310 -0.371340 -0.183813 0.070222 0.081950 -0.252659 0.558056 0.055512 0.405319 -0.473198 0.046643 0.245017 0.296837 0.149008 0.484452 0.035396 0.302828 -0.266262 0.899933 0.591531 0.168399 -0.435458 -0.310937 -0.348450 -0.428839 0.127067 -0.557807 -0.039929 0.028456 0.330479 0.335347 0.016470 0.119300 0.020689 0.122137 -0.429277 -0.632554 -0.655790 -0.322852 -0.095590 0.360683 0.475366 0.359096 0.066700 -0.286437 -0.532273 0.354762 0.369435 -0.422120 -0.147303 0.314334 -0.157347 0.508274 0.041489 0.310401 0.280529 -0.068122 0.001541 -0.791792 0.118876 -0.014166 0.216143 0.326243 0.616575 0.251092 0.183701 0.150777 -0.140031 -0.769743 0.113058 -0.443812 -0.170434 -0.528928 0.044870 0.167741 0.057596 -0.226850 0.344278 -0.477152 -0.453111 -0.246610 0.632813 0.031513 -0.123034 0.022256 0.143555 0.204596 -0.483773 -0.124680 -0.018908 0.152977 -0.190470 -0.314996 -0.336912 0.368380 -0.179300 -0.082046 -0.317966 0.241454 0.173057 0.225745 0.183821 0.046535 -0.161854 0.008301 -0.222006 -0.362740 0.117404 -0.504409 0.339415 0.226892 0.182265 0.191998 0.053682 -0.198508 -0.703897 0.549360
1168 0.201020 0.574014 -0.135630 0.364990 -0.606013 -1.161013 1.038309 -0.201815 0.467535 -0.034512 -0.136828 -0.316392 0.367295 -0.148369 0.328788 -0.095772 -0.476413 0.174129 0.432609 1.051353 0.096839 -0.794856 0.229218 0.059621 -0.536293 -0.595812 0.397094 0.223925 0.380125 0.013152 0.143015 0.434012 0.096193 -0.587825 -0.561753 0.544260 0.036278 0.707575 -0.019257 -0.016039 0.309637 0.285447 -0.121193 0.281457 0.041374 -0.039082 -0.189152 0.908269 -0.071620 0.021773 0.307104 0.117307 0.154965 0.426127 0.468152 -0.594632 -0.508208 -0.536481 -0.451860 -0.566431 0.056645 -0.289043 -0.905748 0.675065 -0.127362 -0.321205 0.029618 0.305275 0.116319 -0.374924 0.425311 0.413455 0.543453 -0.113634 -0.129603 -0.373465 -0.495043 -0.289283 0.139453 -0.126137 -0.446361 -0.280001 -0.673105 0.407885 0.845711 -0.123069 0.034679 0.456251 -0.197541 0.142719 0.177200 -0.890578 -0.133728 -1.072575 -0.006559 -0.317154 0.145167 0.312824 -0.310583 0.256527 0.422785 -0.425941 -0.416721 -0.549016 -0.442383 0.509066 -0.620139 0.026074 -0.052559 0.068359 0.303751 -0.004028 -0.030703 -0.280189 0.117227 -0.296489 -0.898745 0.265741 -0.244075 0.219702 -0.144559 -0.000851 -0.073333 -0.373885 -0.388416 0.405651 -0.215399 -0.185432
483 0.332313 -0.165627 0.232290 0.374980 -0.718252 -0.023033 -0.101582 -0.047056 0.115109 -0.035615 0.066250 -0.185506 0.330740 0.333349 0.254595 -0.214499 -0.064863 0.231424 0.038151 0.282149 0.024787 -0.117385 0.032847 0.354635 -0.699274 0.102620 0.537052 -0.217422 0.193430 0.308919 0.256439 0.244021 -0.049544 -0.069596 0.038237 0.105658 0.234949 -0.292832 0.401211 -0.096599 0.204898 0.079475 -0.022439 0.296315 0.380562 0.506020 -0.187144 0.110665 -0.345338 -0.066302 -0.230548 0.203912 -0.179657 0.071870 0.070264 -0.562521 0.475895 -0.122985 0.175280 -0.143134 0.110717 -0.018331 -0.237797 0.711711 0.044345 0.020715 0.010325 0.487990 -0.325491 -0.105314 0.122384 0.181073 0.102926 -0.017759 0.075113 -0.078142 -0.243052 0.171001 -0.289348 -0.186336 0.223132 -0.260998 -0.503700 -0.412302 -0.278012 -0.328837 -0.028577 0.389492 0.467068 -0.245082 0.291012 -0.263571 0.064919 -0.029661 -0.490071 -0.171847 -0.353324 0.229147 0.067257 -0.100782 0.363479 0.452761 0.240840 -0.283679 0.334163 -0.067187 -0.189743 -0.375050 -0.055197 -0.203908 0.191657 0.342107 -0.429977 0.359750 0.535067 -0.133846 -0.276823 0.150438 -0.510642 -0.373001 -0.111048 0.471678 -0.152602 -0.357886 0.028866 0.374421 -0.082099 -0.406096
685 0.079732 0.172320 -0.138582 0.310118 -0.457426 -0.056891 -0.619786 -0.153192 -0.046484 0.044070 -0.095648 -0.325367 0.159827 -0.185157 0.388528 -0.224592 -0.311533 -0.049002 0.090001 0.566996 0.450113 0.154880 -0.113745 0.419295 -0.005562 0.433117 0.578283 -0.146308 -0.154816 0.387474 -0.293961 -0.102322 -0.065494 -0.322822 0.015791 -0.025314 0.060750 0.115251 0.021641 -0.295862 0.220815 -0.390948 0.209688 0.255582 0.183132 0.032133 -0.134172 0.308757 -0.006708 -0.350485 -0.619278 0.493460 0.227250 0.228183 -0.102190 -0.476171 -0.061608 0.420036 -0.056014 -0.295130 0.202114 -0.231867 0.581841 -0.127184 0.099911 0.146981 -0.010532 0.123824 -0.020122 -0.013996 0.192310 0.106018 0.224232 0.118298 0.282764 0.401851 -0.478833 0.758794 -0.153564 -0.007880 -0.066254 -0.207004 0.039730 -0.000017 -0.002918 0.189026 -0.215012 -0.110737 0.224391 -0.101385 0.621635 0.324468 0.401250 -0.167166 -0.062362 -0.009847 -0.091884 -0.002441 -0.325215 0.432164 0.036599 0.212954 0.012767 -0.420852 0.440043 0.560631 -0.118554 -0.443140 -0.109433 0.103510 0.440187 0.240647 0.095030 -0.278479 0.155191 -0.101150 0.093013 0.145640 0.192624 0.379631 -0.230967 0.830502 -0.111422 -0.583333 -0.284163 -0.084320 -0.215495 -0.413283
1374 -0.341644 -0.122627 -0.531696 0.382646 -1.474404 -0.719593 0.210618 -0.462771 0.204806 0.323476 -0.287644 -0.270963 -0.276105 0.040530 -0.047665 0.446638 -0.172666 0.161589 0.451926 0.288476 0.323902 0.349821 0.195612 0.527291 -0.155762 -0.494338 0.397049 -0.025323 -0.416937 -0.015198 0.537458 0.176884 0.354381 -0.465255 0.314844 -0.770489 0.041762 -0.043057 -0.102266 -0.048700 0.370506 -0.236172 0.542971 0.926577 0.439905 -0.705299 0.004402 0.510298 -0.424125 -0.136587 -0.110686 0.592827 0.018766 0.096309 0.194839 -0.984798 -0.023454 0.020324 -0.325566 -0.356923 0.170555 0.042884 -0.086638 -0.362674 0.489092 -0.369912 0.725974 0.014878 0.309891 0.278939 -0.190121 0.301975 0.029054 -0.497960 0.087466 0.034236 -0.150771 -0.240466 -0.369799 -0.124084 -0.056603 -0.061819 0.445407 -0.368285 -0.904009 -0.715892 -0.227896 -0.755566 0.057345 0.035216 -0.167405 0.281868 0.424858 -0.020996 -0.051575 0.210763 -0.019140 0.146948 -0.272399 -0.022224 1.097900 -0.087303 -0.056184 0.110579 -0.522166 0.170054 -0.378034 0.005709 0.058008 -0.320206 0.090395 0.482644 0.299258 0.190649 -0.094794 0.270762 -0.759082 -0.390137 0.429339 0.018971 -0.335069 -0.133171 0.113624 -0.648163 -0.548315 -0.171912 0.150204 -0.077522
1759 0.158584 0.462526 -0.792760 0.331436 -0.513300 -0.195918 0.015695 0.050489 0.193915 -0.916938 0.218867 -0.572856 -0.339856 -0.659212 -0.372976 -0.690655 -0.907633 0.201858 -0.519690 0.766690 1.592406 0.146638 0.005013 0.763155 0.124976 -0.382461 -0.013609 0.220178 -0.597350 0.649093 -0.665157 0.011860 -0.937439 -0.909905 0.626509 0.560041 0.331130 0.915464 0.092471 0.083925 -0.259195 -0.032937 0.445310 1.205705 0.216808 -0.277800 0.256105 0.376131 -0.723819 0.459837 1.154341 0.217997 1.028037 0.377313 0.075331 -0.756678 -0.300454 -0.488672 -1.172142 -0.649519 0.405836 0.247636 -1.032246 -0.051538 0.861902 -0.092544 1.424875 -0.456433 1.004531 -0.543850 0.187882 1.100958 1.453924 0.195296 0.605378 -1.179374 0.035117 0.494326 -0.835449 -0.045118 0.019373 -0.549861 -0.290063 0.590063 -0.585593 -0.043272 0.697539 -0.602453 0.428040 -0.346143 0.255026 0.044221 0.058517 -0.707206 -0.180017 -0.341929 -1.216991 0.362097 -0.027629 0.720166 0.953958 0.190326 0.618201 -0.205471 1.351507 1.339484 0.317692 -0.125182 0.513579 -0.702647 0.171216 0.408438 0.029466 0.156173 -0.352477 -0.204748 0.364049 -0.302701 0.393210 -0.615464 0.009966 -0.297444 0.731224 0.583594 -0.168214 -0.520562 0.036422 1.061701
522 -0.055868 -0.180084 -0.275944 0.467904 -0.687689 -0.505716 -0.275525 -0.379122 0.360099 0.054166 -0.377825 -0.269467 -0.504580 -0.153279 -0.208810 0.451372 -0.092019 0.178236 0.325682 0.312503 0.279713 0.248917 -0.131904 0.442996 -0.253987 -0.500620 0.504717 -0.436111 -0.335632 0.355646 0.496014 0.119367 -0.081413 -0.247283 0.546120 -0.302127 0.346635 -0.298421 -0.225279 -0.024864 0.178717 -0.072831 0.297226 0.779208 0.028673 -0.056173 -0.507463 0.416625 -0.026660 0.389870 -0.392485 0.338627 -0.151915 0.714712 0.068242 -0.662464 -0.003563 0.049590 -0.198229 -0.125752 0.206521 0.133143 -0.079539 -0.036466 0.289750 -0.050299 0.309507 -0.121126 0.562916 0.319733 0.363589 -0.063773 0.250253 -0.086069 0.201197 0.046782 -0.099233 0.364685 -0.129283 -0.193886 -0.020088 -0.111115 -0.204259 -0.211675 -0.586015 -0.322331 -0.064172 0.203476 0.197095 -0.308798 0.292957 0.045046 0.192861 -0.150634 -0.375488 -0.053424 -0.133616 0.121578 -0.304404 -0.013164 0.359142 -0.211933 0.348293 -0.128775 -0.217258 -0.054926 -0.059469 -0.129424 0.156163 0.063994 -0.042177 0.236520 0.155387 0.394819 0.193602 0.308118 -0.676599 -0.197692 -0.069897 -0.138500 -0.127320 0.321278 -0.040470 -0.407928 -0.409844 -0.049821 -0.027226 -0.102396
1637 0.947101 -0.393957 -0.678485 0.084511 -0.158142 -0.516183 -0.287851 -0.929363 -0.494882 0.389678 -0.121898 0.147728 -0.142420 -0.508357 0.959960 0.027621 -0.259376 0.624253 0.464369 0.498413 0.208362 -0.237944 0.120185 0.467762 -0.284830 0.292079 -0.297493 0.271827 -0.143903 0.625239 -0.085428 0.770214 0.009943 0.752421 0.094285 0.833612 0.018704 0.406405 1.265618 0.699472 0.991048 -0.581870 0.567033 -0.004113 0.019832 0.506806 0.031537 0.243820 -0.299978 0.597212 -1.156461 -0.009922 0.676464 0.267204 -0.025199 -0.293950 -0.016789 -0.693748 -0.056415 0.249790 -0.201553 0.058049 -0.623083 -0.336031 1.027799 -0.287907 -0.423633 -0.763128 -0.100602 0.162191 0.048113 -0.282611 0.026937 -1.008341 0.328812 -0.414081 0.738136 -0.468224 0.615017 -0.752122 -0.145722 -0.457749 -1.035882 0.099441 0.528474 -0.018302 0.288259 0.328608 1.002462 -0.597107 -0.312692 0.011345 0.261847 -0.389225 -1.085622 -0.499871 -0.571394 0.387547 -0.469212 -0.417829 0.478660 -0.311598 -0.107269 -0.168881 -0.241886 0.589802 -0.106503 -0.994146 0.576105 -0.218961 0.464518 -0.718955 0.362009 -0.538851 0.709046 -0.650073 -0.496975 0.316926 -0.484566 0.519855 -0.592747 -0.900541 -0.633581 0.100360 -0.162587 -0.703442 0.512569 0.242127
1500 -0.268972 0.019086 -0.514767 -0.522218 -0.733199 0.923070 -0.066584 -0.402365 0.150492 -0.520420 0.189823 -0.436801 -0.566009 -0.036841 0.333761 -0.316349 0.091716 0.410528 0.226764 0.244841 -0.063588 -0.281769 -0.335723 -0.152741 0.045041 0.831787 -0.271825 0.485378 -0.454057 0.568013 0.063082 -0.671890 -0.622669 0.136224 -0.564875 -0.293821 0.579900 -0.657245 -0.576901 0.551442 0.353992 0.187268 0.262599 0.515795 0.103262 -0.090341 -0.400540 -0.089985 -0.808885 0.138418 -0.092743 -0.321921 0.008612 0.503875 0.176471 -0.747978 -0.270083 0.502780 0.201253 0.015940 -0.197072 -0.826041 -0.566381 0.523684 0.412017 0.184907 0.656126 0.101665 0.315406 -0.941928 -0.094460 0.327016 0.431743 0.434232 -0.558522 -0.143230 -0.141519 -0.149498 0.185537 -0.180830 -0.044617 -0.347228 -0.406848 -0.165871 -0.051978 0.049436 -0.258669 -0.011217 -0.153442 -0.692973 -0.909872 -0.071808 1.300203 -0.261607 -0.402195 -0.686551 -0.080201 0.346210 -0.721334 0.475817 0.364125 -0.009183 -0.292047 -0.129704 0.126384 -0.152447 -0.481224 -0.570796 -1.026045 -0.337061 0.469260 0.027084 0.473678 -0.512594 0.208715 -0.392585 -0.361938 -0.378931 -0.072180 -0.130517 0.423862 0.444370 -0.470678 -0.066813 -0.408882 0.440618 -0.401153 -0.240951
40 -0.226913 -0.077955 0.242474 0.178248 0.174856 -0.355379 0.277633 0.320192 0.100991 -0.382208 0.748456 0.310835 -0.726524 0.313488 0.450278 -0.217559 -0.259295 -0.226390 -0.384723 0.030947 0.122192 -0.181236 -0.222931 0.466986 -0.016101 -0.108505 0.500294 0.113876 -0.166731 -0.121260 -0.017694 -0.086569 -0.504683 0.116478 0.259092 -0.376107 0.039764 -0.576079 0.962745 0.276860 -0.120081 -0.098567 0.661963 0.039401 -0.308442 0.233762 -0.129867 0.114758 -0.890287 0.113192 0.461532 0.031680 0.443744 -0.089194 0.305788 0.015850 -0.204582 -0.145547 -0.146735 -0.345736 -0.459658 0.208222 -0.005245 -0.127746 0.435712 -0.312216 -0.577002 0.175957 0.315740 0.189747 0.022068 0.551225 0.293784 -0.215178 0.676377 -0.130926 0.342018 -0.175047 0.176898 0.350423 0.656379 0.365647 -0.559711 0.222016 0.375896 -0.404966 -0.405361 -0.273359 0.584832 0.329687 -0.297278 -0.319533 0.133224 -0.247399 -0.389895 -0.036483 0.322031 0.028111 -0.030499 -0.114459 0.067598 -0.251028 -0.641390 0.125820 0.132576 0.661294 0.475985 -0.162660 -0.308863 0.346166 -0.175937 -0.553339 0.235668 0.154546 0.635199 -0.369724 -0.293488 0.329022 0.550229 -0.173793 0.185730 0.376780 -0.393970 -0.062360 -0.611875 0.224668 0.594363 -0.055834
1811 -0.217853 0.358713 0.003903 0.122856 -0.192222 -0.822846 0.345508 -0.038692 -0.160814 -0.642375 -0.025885 -0.432771 -0.474843 -0.212631 -0.057405 -0.268400 -0.701293 -0.244880 0.880065 0.409488 -0.018946 -0.050519 -0.166084 0.434664 -0.518649 0.200671 0.375260 0.194204 0.041856 -0.438411 0.453577 -0.231741 -0.389245 -0.209274 -0.174466 0.033932 0.366349 -0.025873 0.154097 1.051407 -0.019582 0.471496 0.308017 -0.064786 0.139308 -0.155010 -0.048069 -0.108125 0.006297 0.499723 -0.190456 0.168197 -0.216472 0.258713 1.118144 -0.088185 -0.028429 -0.505176 0.210937 -0.187423 0.033518 0.547969 -0.387525 -0.677622 0.475044 0.502533 0.790703 -0.341255 0.203513 -0.852871 -0.524916 0.301018 0.249737 -0.343485 0.257359 -0.365754 0.069664 -0.723952 -0.443890 -0.464482 -0.176027 -0.358201 0.251306 0.123645 -0.055089 -1.130491 -0.223433 -0.243027 0.090965 0.102455 0.917566 -0.376101 0.349812 0.115612 -0.425707 -0.202664 -0.343225 0.328373 -0.271699 0.137435 -0.217176 0.135314 -0.346365 0.595180 0.132975 0.129031 -0.318559 -0.320529 0.496720 0.037691 0.471479 0.629192 0.627813 -1.343836 -0.572285 0.215508 -0.486958 -0.008678 0.383794 0.182726 -0.570666 0.068936 -1.072749 -0.377795 -0.333382 -0.484737 0.525119 -0.758791
429 0.234901 -0.054380 -0.756139 0.337551 -0.705696 -0.151850 0.601171 -0.112339 0.088145 0.255764 0.271762 0.070615 -0.273533 0.243845 0.459499 -0.093731 -0.963267 0.325806 0.552355 0.423453 -0.280595 -0.242042 -0.327638 0.306795 0.384368 -0.118504 0.529585 0.070950 0.802842 0.045478 0.062674 -0.315058 0.492923 -0.167621 0.343479 -0.001847 0.280428 0.183266 0.039288 0.028286 -0.026139 -0.241228 0.127552 0.139165 0.283467 0.701099 0.379972 -0.299291 0.230100 0.043909 -0.112237 0.010562 0.518784 -0.036336 0.027947 0.373604 0.055173 -0.183916 0.049014 -0.164861 0.342018 -0.449869 0.251362 0.068920 -0.072281 -0.123978 -0.134320 -0.161457 0.232941 -0.093574 0.510544 0.122896 -0.151650 -0.103969 -0.424571 -0.188506 0.271468 0.261591 -0.359621 -0.457940 -0.202576 -0.331685 0.018827 -0.462322 0.529865 0.031458 -0.249771 0.413423 0.014807 -0.390969 0.353571 -0.419562 0.302580 -0.785286 -0.590393 -0.926890 0.222586 -0.213667 -0.208233 0.238651 0.068650 0.041688 -0.351508 0.457690 -0.418540 0.234512 0.125353 -0.594145 0.035735 -0.153931 0.726290 -0.269954 0.454503 -0.336142 0.487084 -0.414059 -0.333038 -0.081800 0.552892 0.015949 -0.653561 -0.211906 0.234946 -0.624541 -0.315789 -0.211906 -0.639965 0.328559
1727 -0.416124 0.553682 -0.057863 0.173784 -0.562803 -0.621531 0.392313 0.063098 -0.042439 -0.343519 0.351648 -0.439759 -0.723773 0.244447 -0.253316 -0.048718 -0.957700 0.068567 1.028069 0.391135 -0.396875 -0.100869 0.250651 0.382019 -0.531799 -0.119841 0.434057 0.140319 -0.206005 -0.464914 0.137908 -0.337657 -0.391092 -0.353110 -0.240597 0.012975 0.110573 0.286867 0.204396 0.277504 0.145387 -0.046956 0.701018 0.134710 0.401752 -0.563792 0.245824 -0.249673 -0.245544 0.465649 -0.014065 0.116465 -0.032471 0.340572 1.117786 -0.184163 0.267950 -0.621070 -0.371598 -0.616059 0.211801 0.193242 -0.601902 -0.419781 0.080841 0.088403 0.767054 -0.062091 0.076505 -0.616592 -0.594034 0.465522 0.475842 -0.115618 0.103721 -0.500460 0.396539 -0.995975 -0.615465 -0.771588 -0.018565 -0.103483 0.098324 0.442008 0.098636 -1.099282 -0.074109 0.088022 -0.016471 -0.017662 0.827216 0.003788 0.120835 -0.335610 -0.275296 -0.532025 -0.326991 0.082151 -0.685405 0.184446 0.236191 0.134865 -0.096757 0.553027 -0.055234 0.210160 -0.581517 -0.048418 0.168369 -0.425349 0.595417 0.380750 0.354210 -1.094174 -0.196417 -0.251434 -0.852448 -0.317648 0.778357 -0.056763 -0.460701 0.004012 -1.048285 -0.590655 -0.162973 -0.302574 0.400611 -0.682876
506 0.019503 0.265072 -0.592971 0.009211 -0.059414 -0.365471 -0.020898 -0.672968 1.269112 -0.376147 0.293647 0.974373 -0.228629 -0.016657 0.368421 -0.532224 -0.462020 -0.656482 -0.296930 0.087142 0.476438 -0.351558 0.004045 0.419898 0.303378 -0.477644 0.394111 -0.056274 -0.508060 0.263855 -0.022713 -0.478720 0.123249 0.054325 0.297763 0.025349 0.397172 0.011381 0.183327 0.071502 0.201924 0.350602 1.046029 0.438720 0.011719 0.298520 -0.038095 0.072569 -0.434608 -0.034630 0.199897 -0.198616 0.859551 -0.028335 0.940905 0.118748 0.183999 0.500258 -0.709769 -0.175064 0.008072 -0.167660 0.063157 -0.516019 0.083445 -0.132038 -0.273775 0.108353 -0.605909 -0.416041 0.040422 0.495672 0.365727 -0.300948 0.438964 0.180684 0.099554 0.182365 -0.134526 0.561371 0.103864 -0.122300 -0.273202 0.544071 0.082037 -0.195584 -0.121924 -0.292550 0.477672 -0.197732 -0.071614 -0.713757 0.397564 -0.530282 -0.487119 -0.180929 -0.372470 0.393648 -0.080552 -0.002700 0.446140 0.061868 -0.282149 0.463533 0.523243 0.415363 -0.162323 -0.579874 -0.417491 -0.014121 -0.441771 -0.294527 -0.174565 -0.200544 0.293338 -0.171736 -0.026427 0.080884 0.502319 -0.206144 0.573089 -0.481786 -0.037396 0.683548 0.053532 0.487665 0.231910 -0.529396
57 0.154211 -0.482283 0.062933 0.106985 -0.428992 0.562988 -0.236418 -0.328042 -0.254950 -0.331693 0.302495 -0.455340 0.067218 0.162724 0.079325 0.064252 -0.481102 0.348890 0.170716 0.534832 -0.279531 0.208768 -0.660843 -0.487000 0.096610 -0.302681 0.317328 0.093445 0.318909 -0.328695 -0.524248 -0.209867 -0.338743 -0.002309 0.842007 0.359695 0.164060 -0.926765 1.014324 0.498111 -0.363413 -0.069803 0.045407 0.158947 0.039176 0.286972 0.332510 0.687985 0.175665 0.141345 0.635017 0.213974 0.600269 0.410634 0.258637 -0.497036 0.123418 0.560163 -0.199472 -0.897490 -0.254971 -0.042803 -0.563807 0.309600 0.490545 0.021398 0.483092 -0.787702 -0.909497 -0.077892 0.568262 0.354718 0.793466 -0.441843 0.522631 0.087954 -0.114929 0.772054 -0.123545 0.042081 -0.063288 0.215421 -0.232666 -0.211964 0.693738 -0.270974 -0.496699 -0.088536 -0.115201 -0.193275 -0.136050 -0.100187 -0.066915 0.203124 -1.187016 -0.413932 -0.029560 -0.263236 -0.006582 0.295720 0.491046 0.052101 -0.250038 0.192079 0.641804 -0.144712 -0.659058 0.029967 -0.405589 0.119179 0.427607 -0.455427 0.497819 0.032837 -0.684183 0.576399 0.015793 0.093367 -0.060092 0.042503 -0.117138 0.169727 -0.644449 0.753060 0.174842 -0.225380 -0.126248 -0.179667
1083 -0.216035 0.303719 -0.316055 -0.156884 -0.754264 0.284104 0.099182 -0.300720 0.466519 -0.632410 -0.220822 -1.298050 -0.161844 0.012913 -0.352379 -0.030794 -1.216489 0.269493 0.224346 0.998902 -0.159509 -0.552728 0.016013 0.764591 0.133597 0.486912 0.129507 -0.128458 -0.070440 0.767748 0.028400 0.193298 -0.368632 0.210925 -0.316762 -0.223103 0.251819 -0.494763 -0.331219 -0.082685 0.004867 -0.080854 0.202314 0.974480 -0.445447 -0.417073 -0.262954 -0.472037 -0.429606 0.530504 0.802079 0.490206 0.713026 -0.126061 -0.135107 -0.594345 -0.479118 -0.172612 0.053127 -0.278635 -0.570671 -0.768222 -0.128255 0.215984 -0.100421 0.055218 -0.548759 -0.315062 -0.156906 -0.266633 -0.606155 -0.231643 0.139886 -0.417574 0.132910 0.483241 0.071011 0.054281 -0.128138 -0.118859 0.002437 -0.737301 -0.870742 -0.399364 0.024107 0.100089 -0.293620 0.132975 0.710124 -0.240226 -1.117934 -0.682998 0.477566 0.309389 0.081477 0.354998 0.439485 -0.228548 -0.337345 0.223140 0.381693 0.176835 -0.127448 0.298240 -0.142210 0.414451 -0.723230 -0.618249 -0.387133 0.184086 -0.155027 -0.334933 -0.251752 0.123087 0.024308 0.118808 -0.277366 -0.108179 0.498490 -0.156304 -0.323880 -0.502288 -0.944695 0.292176 -0.107821 -0.091482 -0.508043 -0.176419
1980 -0.182275 0.400695 0.066284 0.259271 -0.371190 0.422746 0.135639 0.207209 0.765856 0.365732 0.053843 -0.221461 0.298367 -0.318043 -0.271806 0.832709 0.093815 0.015495 0.171573 -0.228621 1.162540 -0.238563 -0.245933 -0.687884 -0.067716 0.128223 0.595505 -0.091617 0.013477 -0.361650 -0.088483 -0.005554 0.009900 0.286936 -0.811846 -0.935798 0.663173 0.484483 0.806530 0.359819 -0.441625 -0.048451 0.374517 0.290961 0.255899 0.277612 -0.269569 0.631003 -0.008900 -0.494827 -0.007508 -0.334212 -0.031779 0.220613 0.659269 0.310494 0.059556 -0.198266 -0.186109 -0.350486 -0.388221 0.103602 -0.042717 0.289179 0.480818 -0.271232 0.135669 -0.408619 -0.213874 -0.689452 -0.219117 -0.550986 0.413110 -0.285210 -0.126668 -0.558454 -0.069642 0.462596 0.093667 -0.606186 0.131652 0.041176 -0.534028 -0.173792 0.206409 0.101509 -0.385336 -0.321034 0.541297 -0.341183 0.336394 -0.212561 0.667217 0.096672 -0.421155 -0.042300 0.273357 -0.372710 0.200609 0.434255 0.594622 -0.040517 0.012077 0.204343 0.389660 -0.302884 0.010670 0.038728 0.444975 -0.259144 0.689789 0.071426 -0.517483 -0.505658 -0.108447 -0.182017 -0.899819 -0.197805 0.034656 -0.193571 -0.237960 -0.300449 -0.195363 0.103892 0.259867 0.316214 0.355917 0.356708
3043 0.016951 -0.657513 -0.750273 0.350895 -1.026033 -0.267448 -0.330753 0.020166 0.027438 -0.262629 1.099994 0.259181 -0.444119 0.747782 0.394480 0.404571 -0.324369 0.059139 0.237873 0.449961 -0.076999 -0.207174 -0.009351 -0.414941 0.317254 0.154856 1.395732 0.158550 -0.213285 0.827777 0.571702 0.008647 0.125410 -0.880642 -0.347215 -0.189611 -0.218933 0.682426 0.591485 0.459903 0.647634 0.276722 -0.391509 -0.503503 0.363940 -0.991123 0.205759 0.740405 0.549874 1.288824 0.839555 -0.079642 -0.439129 -0.402069 0.000284 -0.039400 -0.207506 0.365732 -0.276635 -0.717959 -0.526802 -0.074972 0.105631 0.027342 0.116887 -0.833623 -0.300443 -0.247759 -0.116844 -0.416506 -0.212451 -0.654880 -0.026295 0.092993 -0.418686 0.408379 0.361940 1.425973 0.004301 -0.061967 -0.716962 -0.056316 -0.248200 -0.438500 -0.083370 -0.564559 -0.466798 -0.306137 0.146397 -0.129086 0.836882 -1.004680 0.437173 -0.107316 -0.604439 -0.086896 -0.011107 -0.150220 -0.185540 0.319922 -0.775917 -0.211963 0.186744 0.056278 0.273605 0.392357 0.737950 -0.235327 -0.164125 0.465173 1.069427 -0.376326 0.085679 -0.600402 -0.242694 -0.264826 -0.183705 0.104105 0.496177 0.002326 -0.562220 -0.615325 -1.436345 0.311451 0.112721 0.492766 -0.117644 -0.109891
1634 0.298003 0.396082 -1.127536 0.092209 -0.372531 -0.562711 -0.729901 0.062992 0.270206 -0.044711 0.075388 -0.490428 0.008791 0.854093 0.915456 0.241585 -0.181257 -0.378066 0.275059 -0.131722 -0.459643 0.771066 -0.155525 0.457537 0.210783 0.255116 0.405037 0.187041 -0.156689 0.343825 0.628440 -0.466482 -0.656549 -0.732004 -0.299981 -0.069222 0.693151 -0.191355 -0.277540 -0.444785 0.536865 -0.548012 0.233631 0.450971 -0.414437 -0.243521 0.293961 0.276661 -0.323420 0.106527 0.093821 0.442269 0.576406 0.302193 0.346309 -0.008815 0.342762 -0.107771 0.387899 0.063001 -0.363288 -0.228811 0.251414 0.442982 0.025115 0.213081 0.054639 0.368242 0.319631 -0.381355 -0.115423 0.208228 0.398673 -0.000560 0.725095 -0.330516 -0.412263 0.227436 -0.175596 -0.329305 -0.143612 -0.325867 -0.442372 -0.322689 0.009250 0.741149 -0.736958 -0.444281 -0.002446 -0.717776 0.202543 -0.194250 0.495325 -0.021334 -0.442465 -0.120213 0.090705 0.261934 -0.345858 0.385869 0.841481 -0.595886 -0.315022 0.180875 0.037109 0.442977 0.070740 -0.269540 -0.431424 0.426310 -0.171493 0.177978 -0.141834 0.342584 -0.278240 -0.316036 -0.155043 -0.096664 -0.123234 0.296205 -0.207649 0.145807 0.429157 0.103966 -0.186779 0.059314 0.163252 0.285242
2006 0.287111 0.164259 -0.610595 0.223458 -0.295095 0.730183 -0.220320 -0.285932 -0.111051 0.111324 -0.004069 -0.220018 -0.094532 -0.730982 -0.482468 0.573776 -0.307493 -0.352288 0.551657 0.061243 0.429883 0.318608 -0.019443 -0.015198 -0.269811 -0.352186 -0.279871 0.254980 -0.356592 0.163261 -0.467985 0.002757 0.101315 0.336102 -0.864697 -0.850020 -0.197915 -0.270812 1.264382 0.721153 -0.084765 -0.045951 0.677400 0.021582 -0.123326 0.169129 -0.560862 0.451363 -0.086410 -0.772056 0.426621 -0.020010 0.508998 -0.123209 0.313713 0.493225 0.169622 -0.277709 -0.169205 -0.561059 -0.860519 -0.234432 -0.120129 0.033666 0.477394 0.078839 -0.035664 -0.362100 0.227093 -0.553916 -0.012924 -0.337887 0.156493 -0.242911 -0.127056 -0.717852 -0.100573 0.629369 -0.192030 -0.784940 -0.152060 0.057910 -0.303084 -0.704786 0.115459 -0.034480 0.042164 -0.265602 0.546712 -0.427703 0.346545 -0.803649 0.527832 -0.000822 -0.207452 0.088434 0.432528 0.077257 0.648378 0.377377 0.808125 0.078289 0.047646 -0.272770 0.359803 -0.075016 0.223779 0.332771 0.724431 -0.046383 0.446502 0.243905 0.529226 -0.330307 0.064778 0.167940 -0.766329 -0.509871 0.347233 0.283615 -0.091276 -0.099073 -0.261111 0.105573 0.210359 0.452348 0.267761 0.238326
810 -0.686556 0.082405 0.136413 0.237995 -0.830111 0.148770 -0.311755 -0.084954 -0.009365 -0.302341 0.497605 -0.014621 -0.243806 0.156810 0.941691 -0.294152 -0.591746 -0.467441 0.884040 0.287952 0.097709 -0.055548 -1.110002 0.483552 0.371231 -0.754557 -0.220715 0.101894 0.349737 0.613288 -0.325564 0.416451 -0.385044 0.147331 -0.162701 -0.140562 0.140239 -0.032769 0.623736 -0.143175 0.433522 -0.411312 0.624459 -0.315764 -0.194032 -0.132805 -0.573000 0.406556 -0.097762 0.483279 0.473567 -0.181971 -0.193890 -0.298457 0.149775 0.368810 -0.314512 0.581438 -0.537425 -0.868124 0.008446 0.012020 0.625266 0.319403 0.509024 -0.366588 -0.203939 0.040599 -0.079393 0.259939 -0.669673 -0.274381 0.278971 -0.533889 0.425880 -0.035036 0.199543 0.393827 0.035600 0.582071 -0.017441 0.025229 0.715911 0.201283 0.091729 -0.407095 0.046791 -0.116033 0.253561 -0.797720 -0.076054 -0.182231 0.648522 -1.168027 -0.928412 0.232967 0.182654 0.392656 0.343625 0.482114 0.341534 -0.088696 -0.209503 0.268372 -0.018425 0.408878 0.286248 -0.599299 -0.056669 -0.305341 0.033254 -0.566073 -0.323607 0.064458 0.078066 -0.538978 -0.117590 0.105750 -0.131398 -0.437465 0.448428 -0.176517 -0.302604 0.418153 -0.656413 -0.407123 -0.595537 -0.366587
855 -0.533733 0.099063 -0.072481 -0.045863 -0.096988 -0.794630 -0.567282 0.848704 -0.093232 -0.664872 -0.284671 -0.588760 -0.436469 -0.210484 0.563120 -0.835970 -0.307471 -0.548927 -0.593642 -0.099408 0.240313 0.100377 -0.194642 0.268788 0.337253 0.517428 0.182078 -0.154023 0.880483 0.151484 0.532726 0.485917 0.756156 -0.227990 0.155783 -0.242897 -0.054523 0.133427 0.333239 0.826060 0.601839 -0.325797 0.532432 0.263628 0.153975 0.177090 -0.253505 0.076393 0.018672 1.035849 0.944569 -0.345895 0.617233 0.406415 -0.485199 0.275543 -0.032243 0.237920 0.169723 -0.188918 -0.281784 0.145194 -0.069696 0.034518 0.540473 0.184968 0.135842 -0.684666 -0.092143 0.141137 0.019888 0.141180 0.520985 -0.117934 -0.413472 0.616411 0.041563 0.166290 -0.253813 0.069546 0.164419 0.619075 -0.490907 0.122713 0.782675 -0.363542 -0.074467 -0.546618 0.571909 0.168655 0.023641 -0.059821 0.229153 0.224509 -0.268470 -0.540318 -0.061936 0.956873 -0.258692 0.272210 1.195109 0.011395 0.049762 0.025990 -0.450975 0.197842 -0.151352 -0.342227 0.372037 -0.040369 0.050218 0.234060 -0.144318 -0.505113 -0.222974 -0.542872 -0.830373 -0.265941 0.104299 -0.355586 0.048255 0.088694 -0.218756 -0.451864 -0.481623 0.290056 -0.352030 -0.199718
769 -0.397744 -0.121577 -0.367675 0.886411 0.049528 0.008129 -0.465114 -0.121796 -0.315348 0.036876 -0.036355 -0.349817 -0.116331 -0.040491 0.035094 0.303481 -0.775972 -0.085394 -0.034611 0.967590 0.166375 -0.108624 0.372492 0.513351 0.081021 0.186027 0.401648 -0.462524 0.153405 0.316383 -0.053839 -0.056495 -0.409425 -0.431522 -0.143524 -0.009912 0.074579 0.173093 0.096685 0.027607 0.262248 -0.382820 0.185988 0.636916 -0.136181 0.234544 -0.305172 0.307105 -0.003786 0.030399 -0.314628 0.453797 0.020819 0.337376 -0.074476 -0.509518 0.271518 0.560305 -0.009957 0.051515 0.032733 0.327454 0.353926 0.045109 0.024116 0.483085 -0.060649 0.490229 -0.102462 0.142073 -0.012655 0.242580 0.121260 0.115184 0.538466 0.047813 -0.604449 0.819819 0.112568 -0.017813 -0.006828 -0.378627 -0.194132 -0.317083 -0.197525 0.364053 -0.033297 0.324972 0.661681 0.009858 0.149297 0.157588 0.436357 0.252949 -0.480728 0.162415 -0.047479 -0.234333 -0.065195 0.321773 0.288467 -0.081350 -0.204889 -0.143174 0.104835 0.293160 0.093296 -0.473813 -0.712710 0.166521 0.636731 0.152076 -0.175012 -0.273692 -0.024373 -0.217503 0.160243 0.627719 0.174859 0.267588 -0.077141 0.531747 0.282420 -0.383508 -0.209536 0.035918 0.197689 -0.186596
608 0.647748 -0.373016 0.036176 0.214309 -0.765879 0.033262 0.028538 -0.205768 0.752241 -0.072963 -0.467028 -0.127343 0.048332 0.341912 0.438610 -0.043907 0.113044 -0.156217 -0.382198 0.185405 -0.168538 0.450869 0.227672 0.408787 0.158972 0.246073 0.213651 -0.274727 0.641872 0.048276 -0.091213 0.373157 0.576515 -0.164705 -0.171875 -0.223520 -0.070861 -0.215903 0.543186 0.201122 0.306533 -0.140999 -0.418500 0.877030 -0.046355 0.148710 -0.251442 0.068683 -0.470265 0.432801 -0.325722 0.168210 -0.403249 0.266745 0.096146 0.006249 0.434318 -0.012973 -0.005931 -0.291252 0.565301 0.045338 -0.501905 0.584119 -0.291310 -0.209102 0.502668 0.128996 -0.347864 -0.556915 -0.139888 0.379895 0.154142 0.011672 0.170082 -0.035200 -0.541627 0.467428 -0.461198 0.093977 0.000330 -0.047194 -0.539200 -0.230398 -0.406798 -0.619951 -0.095992 0.335086 0.669622 -0.423590 0.135517 -0.260021 0.271250 -0.428950 -0.346190 0.000005 -0.041021 0.145648 0.213402 -0.133786 0.123881 0.201270 0.035161 -0.198695 0.455581 0.110641 0.222765 -0.035486 0.053869 0.003917 0.065858 0.117811 0.220837 0.259919 0.474809 0.133356 -0.384082 -0.032379 -0.849112 -0.478883 -0.274395 0.385841 -0.891939 -0.531020 -0.101100 -0.060792 0.386356 -0.418982
2137 0.480142 0.095143 -0.165460 0.875389 -0.987871 -0.518834 -0.314352 -0.914958 0.185580 -1.133144 0.655941 -0.322771 -0.618842 -0.011668 -0.090963 -0.554063 -0.189567 0.407416 0.046758 0.143410 1.175435 0.136699 0.875134 -0.382570 0.803024 0.628186 -0.410074 0.031378 0.385809 0.526637 0.462097 0.052259 0.795153 -0.236425 0.259703 -0.440166 0.222674 -0.221092 0.423935 -0.947597 0.084992 0.273643 -0.356121 -0.367853 -0.411514 0.510514 -0.078448 0.137047 -0.249906 0.379035 0.483698 -1.261706 0.907434 0.421088 -0.548677 -0.062599 0.407754 0.564349 -0.156813 -0.495277 -0.588052 0.270143 0.545636 0.049996 0.339311 -1.297801 -0.776285 0.513723 -0.309403 -0.902536 0.001881 0.884276 0.508730 -0.690555 0.593581 -0.930211 -0.025365 1.078029 -0.208341 -0.296162 -0.028481 -0.225469 -1.054969 0.544239 -0.637602 -0.731209 -1.289717 0.389633 0.045917 -0.635748 0.036607 -0.516504 0.257699 -1.183581 -0.341375 -0.005004 -0.097174 -0.129431 0.054595 0.411032 0.939506 0.780354 -1.273255 -0.027606 0.429556 0.422736 -0.863109 -0.629291 -0.183320 0.742834 1.046939 0.054640 -0.528114 -0.422826 0.584702 0.724258 -0.441317 -0.420328 0.029541 0.483927 0.068029 -0.229704 -0.848146 0.136218 0.284131 0.625858 0.005058 -0.509291
916 0.099654 0.172747 -0.500256 -0.236000 0.093512 -0.526051 0.218979 -0.776995 0.210301 -0.257771 0.338942 0.177887 0.288337 -0.134433 0.247281 0.300332 -0.213827 -0.368645 -0.186842 -0.082077 0.313319 0.171219 -0.193404 -0.618258 0.258464 0.270797 0.068383 -0.277093 -0.129502 0.020837 0.285220 0.065010 -0.056993 -0.320910 0.316779 0.160975 0.240195 0.101700 0.863232 0.378711 -0.278040 -0.507419 0.247421 0.732269 0.253389 -0.074431 -0.443863 -0.079219 -0.683014 0.477058 0.415597 -0.360342 -0.094903 -0.303131 -0.024211 -0.254669 0.305661 0.385839 -0.699683 -0.227394 -0.567688 0.609184 -0.951985 -0.122030 0.314761 -0.012601 -0.026278 -0.206367 -0.214370 -0.044367 -0.369262 0.487521 0.160165 -0.142267 0.894860 0.418043 0.061970 0.049436 -0.024330 0.080084 0.786768 -0.373933 -0.209633 -0.054444 0.701287 -0.104873 0.169930 0.182722 0.441186 -0.626692 0.379828 -0.029474 0.455908 -0.598340 -0.334361 0.276066 0.172115 0.516721 0.107863 -0.335136 0.398985 0.217268 -0.972237 0.114598 0.465629 -0.288537 -0.036315 -0.322856 0.117355 0.080064 0.651529 0.225201 -0.390888 0.183261 -0.022187 0.389103 -0.891332 -0.323710 0.658755 0.291996 0.285545 -0.036325 -0.085521 -0.047389 -0.550395 0.718105 0.155768 0.024519
51 0.259167 -0.676598 0.181337 0.319437 -0.685006 0.100017 -0.078253 -0.505480 0.194881 0.281753 -0.353959 -0.246900 0.009580 0.347965 0.169598 0.001262 0.083882 0.072468 -0.079907 0.114623 0.178732 0.058753 0.364681 0.121275 -0.622685 -0.055191 0.365645 -0.269818 0.060957 0.319170 0.482708 0.015036 -0.277058 -0.406684 -0.328691 0.339096 0.085637 -0.199638 0.280831 0.207025 0.307654 -0.048412 -0.034803 0.599758 0.170779 0.364798 -0.025465 0.209516 -0.174640 0.005464 -0.474284 -0.052702 0.130916 0.303612 0.160914 -0.211835 0.170134 -0.353946 0.417074 -0.159353 0.188930 0.492658 -0.116454 0.572530 0.081673 -0.067320 -0.095712 0.165096 -0.041879 0.147384 0.096735 0.069172 0.317695 0.308611 0.322337 -0.085373 -0.223845 -0.022571 -0.285336 -0.001560 0.084171 0.227457 -0.533968 -0.099386 -0.364346 -0.573392 -0.286923 0.270770 0.364925 -0.478750 0.333991 -0.330922 0.617304 -0.214495 0.026705 -0.335781 -0.446277 0.101462 0.222769 -0.165122 0.497740 0.317175 0.456844 -0.197659 0.309173 0.309192 -0.160279 -0.425720 -0.066119 -0.150455 0.258817 0.455773 -0.263119 0.209675 0.518916 -0.079392 -0.439928 0.207418 -0.305044 -0.178458 -0.260967 0.390966 -0.169552 -0.240165 -0.261575 0.038253 -0.173892 -0.175225
