80 128
0 -0.264346 0.040076 -0.131215 -0.061324 -0.052050 0.390662 0.358017 0.062926 0.037281 0.076735 -0.077420 -0.144514 0.047554 0.177621 0.174160 0.413925 0.154450 0.088488 -0.091353 -0.116872 -0.290643 -0.073708 0.130403 0.347344 -0.117278 -0.074349 0.317583 -0.382488 0.207866 -0.568135 0.430651 0.352564 -0.025477 0.089645 0.210802 -0.117281 -0.123114 -0.145007 0.106053 -0.084022 0.125252 -0.198482 -0.341764 -0.142478 0.151111 -0.000599 0.239731 0.085878 0.122827 -0.132894 -0.186838 0.028083 0.168877 -0.348735 0.160023 0.304068 0.092960 0.053091 -0.057209 -0.279205 0.293754 -0.213673 0.083864 0.031963 -0.120643 -0.363135 0.352027 0.114433 0.271574 0.082149 0.015794 0.220982 0.345397 0.021264 0.057496 -0.155780 -0.005671 0.140375 -0.448898 -0.075459 -0.255016 -0.073712 -0.232881 -0.155167 -0.227684 0.084815 0.067613 -0.147652 0.084994 -0.165137 0.050600 0.033503 0.264154 0.024152 0.042317 0.024340 0.267920 -0.412350 -0.081956 -0.435173 0.208343 0.057425 0.156048 0.098081 -0.172516 0.314710 0.475014 -0.116973 -0.157539 0.133821 0.179353 -0.278861 -0.070640 -0.111665 -0.151613 0.346989 -0.587067 -0.107245 -0.174959 0.118413 0.067608 0.246012 -0.133415 -0.316634 0.255604 -0.103278 0.143985 0.199427
1 0.235955 -0.156853 0.028860 -0.052474 0.195190 0.035500 0.068847 -0.062264 0.384083 0.401986 0.074239 -0.101240 0.059713 0.176694 -0.119463 -0.069834 0.000994 0.000526 -0.068146 -0.267206 -0.038690 0.021596 -0.080647 -0.018728 0.450599 -0.041932 -0.105916 -0.063480 -0.024100 -0.229877 -0.146896 0.382246 0.045965 -0.122185 0.220902 -0.049862 -0.017122 0.118041 0.314031 -0.282575 -0.252408 -0.184867 0.142790 0.012097 -0.053418 -0.118678 0.029140 -0.159238 0.123515 0.064434 -0.009667 0.094613 -0.066898 0.244147 -0.335955 0.013864 -0.133386 -0.235072 -0.257320 0.241303 -0.051329 -0.189121 -0.019876 0.003471 -0.254532 0.306466 0.314367 0.114447 -0.127551 -0.175001 -0.358967 -0.050002 0.019937 0.024506 -0.104874 -0.110420 0.216201 0.060262 0.164119 0.010482 -0.090624 0.291284 0.130591 -0.322141 -0.164840 0.083620 0.005665 -0.089291 -0.428268 0.156564 -0.062030 0.306547 0.078212 0.025694 0.370413 -0.399256 -0.106297 0.021813 0.072597 -0.215391 -0.138493 0.302476 -0.052540 -0.085285 -0.035835 0.024097 -0.109120 -0.046949 0.259237 0.127738 0.144940 0.249631 0.073931 -0.373056 -0.280314 0.119860 -0.253911 0.061310 -0.102764 0.062658 0.059081 0.190184 -0.127505 -0.099032 0.117949 -0.290622 -0.146219 0.210778
2 -0.069643 0.181681 -0.558224 -0.005072 0.256182 0.092817 -0.454793 -0.212151 -0.094191 0.237087 -0.075735 0.000541 0.261466 0.192524 -0.049620 0.345033 -0.047023 -0.051489 0.071378 -0.265983 0.103353 0.013784 -0.214089 -0.071792 -0.172194 0.044476 -0.533784 -0.103479 -0.150879 0.077128 0.099333 0.031130 -0.291433 0.147297 0.071128 0.143846 0.080879 0.224220 -0.064873 -0.224117 0.081083 -0.184128 -0.078641 -0.091927 0.103793 -0.136714 0.372526 0.115594 0.247790 0.263554 0.057332 0.242382 -0.253417 -0.231906 -0.014359 -0.297113 -0.038072 0.118827 0.170002 -0.195781 0.175949 -0.005906 -0.010558 0.090958 0.163968 0.015529 0.302384 0.424608 -0.065568 0.217582 0.119452 0.068140 0.004947 0.141509 0.237636 0.235669 -0.011676 0.055283 0.199705 -0.020002 0.031880 -0.489878 -0.225392 -0.196860 0.013348 0.079198 -0.045425 -0.157348 -0.199103 0.014567 -0.132506 0.223946 -0.071363 -0.193588 -0.263013 -0.155086 0.149328 -0.410622 -0.285287 0.048287 -0.087834 -0.124441 -0.138109 -0.160811 0.390450 -0.110199 0.003888 -0.070577 0.369435 -0.105284 -0.262479 0.004097 0.053751 -0.025975 -0.065416 -0.082688 0.051017 0.007768 0.183902 0.200744 0.111662 0.094190 -0.131045 -0.214074 0.096487 0.136717 0.084706 -0.428153
3 0.072349 -0.258366 0.164063 0.191728 0.164034 0.018196 0.274938 -0.099968 -0.123176 -0.194984 -0.266390 0.073852 -0.061822 0.148309 0.010840 -0.049045 0.008737 0.194053 0.126421 -0.112044 0.036760 0.081100 -0.367390 0.130038 0.235310 -0.181859 -0.102917 -0.137918 0.007197 0.215354 0.025110 0.083967 0.312335 0.152948 -0.284855 -0.035075 -0.242008 0.254861 0.033084 0.020357 0.055979 0.016317 -0.140654 -0.134584 0.145735 0.028885 -0.005728 0.066690 0.107335 -0.063323 0.227715 0.090565 -0.151517 -0.312733 0.248525 -0.125356 0.039745 -0.155418 0.092259 -0.013053 -0.196937 0.169790 0.295017 -0.040784 0.098521 0.058951 -0.078423 -0.022548 0.064364 -0.151435 0.127158 0.259805 -0.072684 -0.124029 0.092174 -0.023257 0.054815 -0.017077 -0.148132 0.156258 0.169506 0.132776 0.328757 -0.144886 -0.015452 -0.015179 0.099748 0.077674 -0.112975 0.283404 -0.008273 0.319123 -0.018498 0.142471 -0.169988 -0.351733 0.324358 -0.210584 -0.145399 -0.011561 0.256774 0.009650 -0.173481 0.265847 0.148688 0.123760 -0.367001 0.121144 0.018415 0.209595 0.054028 -0.039558 0.106256 -0.102090 0.058026 -0.044658 -0.024038 -0.006833 -0.142751 -0.372789 0.232669 -0.110876 -0.066671 0.001233 -0.345187 0.349166 0.214973 -0.070198
4 0.107694 0.129005 0.145624 0.182485 -0.075350 -0.026392 -0.061043 0.158552 -0.191177 -0.168013 -0.128672 -0.173044 0.182563 0.210868 0.134547 0.191270 0.017805 -0.216738 -0.011369 -0.273804 -0.318843 -0.166744 -0.138865 0.031412 -0.162219 -0.172225 -0.188716 0.001215 -0.068552 -0.055022 0.071782 -0.413111 0.086944 0.095061 0.315577 -0.173001 0.028316 -0.028332 0.069562 0.034228 0.081446 -0.149217 0.327823 -0.184131 0.254482 -0.196786 0.149385 -0.083482 -0.181980 0.064679 -0.154741 0.096410 -0.032456 0.035031 0.129471 -0.073532 0.116003 -0.216757 -0.268227 0.175068 -0.130226 -0.132351 -0.033705 0.047283 -0.030660 0.098831 -0.084792 0.080401 0.030483 0.077353 -0.160298 -0.156647 0.086870 0.117252 0.306278 -0.227085 -0.119544 -0.331186 -0.086896 0.113633 -0.056800 0.233053 -0.051180 -0.032946 0.171060 -0.167272 -0.089685 0.195995 -0.194667 -0.035923 0.204814 0.011597 0.151014 -0.156369 0.152577 -0.138534 -0.322876 0.213656 0.027770 -0.023533 0.105680 0.249868 0.080907 0.136310 -0.099741 0.094112 0.083374 -0.096271 0.123414 -0.022244 -0.043868 -0.078197 -0.243359 0.059398 0.034771 -0.251792 0.055650 0.130867 0.100310 -0.145985 0.336168 -0.194478 0.080926 -0.105602 0.184429 0.141440 0.073969 0.033784
5 -0.003530 0.248825 0.000101 0.085268 0.245044 -0.070722 -0.078022 -0.220332 -0.164010 0.111902 0.128374 0.022865 -0.199387 -0.098948 -0.019362 -0.323649 0.091308 0.039838 -0.348431 -0.475801 -0.453615 -0.033548 -0.019219 0.174921 -0.101078 -0.124766 -0.188919 -0.044171 -0.083720 0.149733 -0.337877 -0.080575 -0.044100 -0.120025 -0.231112 0.018611 -0.075624 -0.181293 0.171682 -0.011049 0.004124 0.063278 -0.037396 0.097751 -0.346274 0.170384 0.099476 0.333067 0.265685 0.004288 0.005385 -0.085205 0.132938 -0.124555 -0.099079 0.425660 -0.035280 -0.129542 0.242993 -0.011627 0.038647 -0.048135 0.034794 0.018410 -0.111998 -0.001280 -0.181106 -0.146473 0.162895 0.129879 -0.073194 0.558587 -0.065748 -0.132861 0.072356 -0.245638 -0.216756 0.282843 0.096843 -0.086243 -0.131876 -0.331219 0.285996 -0.047025 0.166920 0.070823 0.003386 0.333047 -0.107313 -0.245761 0.070984 -0.133990 -0.129810 -0.131921 0.004373 0.033944 0.058995 0.179953 -0.248245 -0.378200 -0.009390 -0.025712 -0.026686 -0.013479 0.012885 0.363061 0.195569 -0.119499 0.170057 0.008960 0.166012 0.158390 -0.028682 -0.155047 -0.364939 0.136622 0.039398 0.202028 0.146080 0.361017 0.081634 0.027075 0.005433 -0.148762 -0.158668 0.158345 0.250718 -0.054044
6 0.145200 -0.086100 0.010839 -0.270346 0.012658 -0.054065 -0.115236 0.076743 0.104809 -0.198313 0.303654 -0.115364 0.217814 0.103246 0.016161 -0.009723 -0.002153 0.238388 0.079281 0.115252 -0.234999 -0.123366 -0.077745 -0.026605 0.207598 -0.212649 0.413128 -0.165759 -0.073828 -0.038290 -0.268125 -0.340874 0.115757 -0.020111 -0.238906 -0.332103 -0.110522 -0.134387 0.300445 -0.106787 0.082114 -0.080593 0.189748 0.016214 0.016528 -0.217978 -0.035226 -0.120080 0.271079 0.173860 -0.340308 0.162739 -0.038721 -0.436444 0.190351 -0.109672 -0.059929 0.120877 -0.066267 -0.042539 -0.162150 0.317577 -0.102890 -0.006264 0.303663 -0.053314 -0.081811 0.146408 -0.134024 0.130852 0.159435 -0.142128 0.106611 0.132499 -0.039687 0.215679 -0.099136 0.044397 0.015038 -0.297546 -0.453008 -0.089308 -0.309830 0.149181 -0.033719 -0.052406 0.078382 -0.035611 0.255303 -0.131828 0.122294 0.141022 -0.031329 0.100856 -0.103876 -0.272983 0.496806 0.062548 0.118271 -0.180566 -0.091990 0.021397 0.341316 -0.148149 0.212750 0.030827 -0.167515 -0.085478 -0.182392 0.013340 0.254222 0.014639 0.170375 0.031064 -0.279021 0.019170 0.168376 -0.102042 -0.111980 0.079984 0.236798 0.106331 0.216672 0.257745 -0.043976 -0.076912 -0.087803 0.096130
7 -0.111302 0.094946 0.301651 0.068585 -0.207394 -0.142627 0.054599 -0.033379 -0.061102 0.297812 0.211352 0.102106 0.408653 0.098615 -0.014095 0.022426 -0.099431 -0.200811 0.103960 0.265769 -0.122240 0.047523 -0.175365 0.365480 -0.229760 -0.433235 0.037782 -0.182589 0.065215 0.003070 0.014253 0.002673 0.101878 0.340033 0.025599 -0.056354 0.167122 -0.428059 -0.045683 -0.263160 -0.196108 -0.011192 0.254123 -0.054550 0.182703 0.077804 0.203409 0.060387 -0.222386 -0.098795 0.205157 -0.083248 -0.133971 0.335829 -0.269238 -0.089857 0.142996 0.017245 0.234898 -0.199688 -0.112662 0.175517 0.027952 -0.005568 0.314218 -0.124558 0.069253 -0.046837 -0.145964 -0.185317 0.117283 0.014527 0.003360 0.157050 -0.102115 -0.120290 0.001126 0.206313 0.205084 0.119780 0.060952 0.022708 -0.130187 0.052965 0.152868 0.003536 0.097020 0.215327 0.006191 0.088189 0.045122 0.188615 -0.012714 -0.014888 -0.130657 0.008880 0.025921 -0.155932 -0.035386 -0.008931 -0.318439 -0.299741 -0.231192 -0.132784 -0.057764 0.208427 0.027343 -0.049138 0.064486 -0.377700 0.146002 0.066146 -0.002518 0.152682 0.058587 0.023469 0.030019 0.041380 -0.412216 -0.042531 -0.163636 -0.214173 -0.170373 0.121767 0.247876 -0.012782 0.084344 0.323604
8 0.156617 -0.462458 -0.001152 0.030490 -0.350462 -0.097332 -0.052751 0.102667 -0.024639 -0.027049 0.060357 0.248734 0.256647 0.237300 -0.110012 0.049038 0.019499 -0.128542 -0.295411 0.091167 -0.120510 -0.045731 0.069039 -0.052947 -0.121636 -0.215871 -0.236796 -0.071826 -0.089392 0.204121 -0.033714 -0.113760 -0.005557 -0.054365 0.294070 -0.214181 0.117660 -0.176799 0.100066 0.074650 -0.117636 0.312447 -0.291747 0.072673 -0.178821 0.019118 -0.149374 -0.083472 0.144076 0.174265 0.285617 0.231263 0.064889 -0.292259 0.095374 -0.009024 -0.221553 0.205017 0.098584 0.106426 0.290506 -0.111545 -0.009939 0.180836 0.167604 -0.127349 -0.318421 -0.029235 0.126058 0.160488 -0.112108 -0.193862 0.027396 -0.214302 0.123757 0.137861 0.000504 -0.012554 0.373366 -0.382797 -0.145095 0.228640 0.035853 -0.010254 0.249902 0.160636 -0.117541 -0.203780 -0.050847 0.208226 -0.156052 -0.083408 -0.046657 -0.061650 0.125527 -0.069993 0.066952 -0.000657 -0.194428 -0.164478 0.151022 0.154421 -0.142950 0.235073 -0.041745 0.122495 0.044019 -0.011792 0.039670 0.298526 -0.112422 0.004057 -0.018400 0.117827 0.021778 0.106119 -0.034569 -0.071154 -0.272146 -0.076019 -0.085907 0.028518 -0.356648 0.057879 -0.067791 0.115176 0.083195 -0.074706
9 0.085945 0.094215 -0.078915 -0.358526 0.050191 0.048858 0.026236 0.194084 0.182222 -0.034648 -0.137854 0.313493 0.044818 0.060089 0.075177 -0.107771 0.186217 -0.230013 0.174619 -0.179726 -0.139028 -0.087019 0.074172 0.149650 0.121498 -0.041468 -0.135064 0.032985 -0.033999 -0.090823 -0.014656 -0.051696 0.220889 -0.062906 -0.088841 0.163742 0.395686 -0.148434 0.038343 0.185307 -0.001274 -0.091625 -0.003918 -0.052896 0.082021 0.136743 -0.021381 0.076633 0.234434 -0.054418 0.233526 -0.212620 0.075821 0.233571 0.224394 -0.077293 0.153562 -0.113683 -0.130111 0.145175 -0.092809 -0.050991 0.275299 -0.037733 0.270159 0.018777 -0.096624 -0.361800 -0.210077 0.086810 -0.011027 0.135234 0.303501 0.024469 0.107982 0.323992 0.107458 0.149706 -0.301988 -0.127791 -0.282897 0.144664 0.135639 0.285524 -0.077558 0.306956 -0.079035 -0.219699 0.250618 0.155127 0.088428 -0.107115 -0.011946 -0.138444 -0.249251 -0.207095 -0.277607 -0.165084 -0.096337 -0.131385 -0.036701 -0.134292 -0.462883 -0.010084 0.167358 0.093090 -0.066521 -0.170547 -0.134361 -0.202474 0.042116 0.125417 0.273260 0.225390 0.096261 0.361376 -0.115633 -0.133278 -0.041274 -0.043641 0.053716 0.051061 0.139027 -0.101034 -0.033456 -0.172877 -0.214354 -0.256703
10 0.184305 0.004791 0.134269 -0.346028 -0.002576 -0.064074 -0.380677 -0.128413 0.306569 0.108194 0.121698 -0.018949 0.092787 0.065967 0.186275 -0.029566 -0.129935 0.321697 -0.233353 -0.305941 -0.145823 0.301431 -0.113627 0.013487 -0.086230 0.092046 -0.243965 -0.313237 0.417124 0.137355 -0.103893 0.165657 0.172664 -0.108582 0.291756 0.030338 0.007517 0.082427 -0.072019 -0.106954 0.255192 0.231882 0.085453 0.123098 -0.275461 0.368926 0.029656 0.066507 -0.015334 -0.188616 0.011040 -0.335681 -0.227618 0.091492 0.220694 0.100322 0.151423 0.037536 -0.445995 -0.143965 0.051733 -0.294948 -0.160442 0.142457 -0.188183 -0.249616 -0.100032 -0.048678 -0.184874 0.103440 -0.059216 -0.374488 -0.036329 0.026745 0.213667 -0.053655 0.219576 0.021367 0.247003 -0.133204 0.256626 -0.223110 -0.234037 0.051812 -0.146343 0.173945 0.056298 0.268613 -0.055297 -0.168901 0.168644 -0.056382 -0.090027 0.348106 0.115295 0.051777 0.172519 -0.083585 -0.232697 0.177491 0.124637 -0.044270 0.069667 -0.076371 0.100211 -0.106609 -0.244693 -0.083194 -0.416458 0.006650 -0.415203 -0.140950 -0.044164 -0.187484 -0.228432 0.161207 0.172430 0.246543 0.007464 -0.190891 0.227576 0.003770 -0.068806 0.039244 0.186847 0.100441 -0.010640 -0.065610
11 0.185464 -0.402817 -0.036230 -0.000882 -0.066455 0.414523 0.030338 -0.031311 -0.103209 0.091221 -0.196593 0.070778 -0.096147 0.167879 0.120906 -0.026854 0.103022 0.083016 -0.100319 0.274117 0.007872 -0.096578 -0.221643 0.394116 -0.259099 -0.208577 0.257278 -0.038167 -0.002771 0.189080 -0.156208 -0.132794 0.124265 -0.062742 -0.196316 0.131606 0.173882 0.094081 -0.162473 -0.019822 0.150214 -0.103384 -0.111510 -0.253469 -0.078153 0.094227 0.108863 0.085327 0.238853 0.033812 0.035803 0.002041 -0.154361 0.105426 -0.217152 -0.002783 -0.033577 -0.306025 0.016977 -0.020843 -0.199235 -0.048772 0.461471 0.163580 0.109500 0.019549 -0.123208 0.127049 -0.246137 -0.117066 -0.186526 -0.157602 0.038222 -0.018524 -0.035770 -0.312770 -0.299619 -0.036239 -0.126202 0.193249 0.217098 -0.247344 -0.022815 0.241073 -0.027978 0.051465 -0.192288 -0.507466 0.085930 -0.368525 -0.132004 0.219530 0.204717 0.138960 -0.018361 -0.326742 0.085905 0.165301 -0.188137 -0.238862 -0.148430 -0.219601 0.216330 0.167937 0.097721 -0.006242 0.056917 0.049202 -0.013505 0.308884 -0.214052 0.342930 0.172136 -0.246590 -0.087913 -0.109726 -0.030028 0.050502 0.005562 -0.001150 -0.359136 -0.105425 0.335614 0.040088 -0.033040 0.152105 -0.142104 0.021429
12 -0.167222 -0.065630 -0.317164 -0.028733 0.031483 0.227077 0.037741 0.054063 0.084435 0.012948 0.105533 0.367825 -0.063874 -0.145389 0.230130 0.282608 -0.186554 -0.124108 -0.063711 -0.099236 -0.170153 0.089723 0.146082 0.019263 -0.050741 -0.127902 -0.034115 -0.213039 0.047947 0.279002 -0.043990 -0.057231 0.139695 -0.252170 0.258100 -0.314283 -0.159868 -0.458494 0.125138 0.189976 -0.072809 0.098388 0.266438 0.004426 0.046169 0.045611 0.012026 -0.159204 -0.174438 -0.059096 -0.096038 -0.134451 -0.101337 -0.036868 -0.472956 -0.309127 -0.094378 -0.115014 0.363094 0.231454 -0.264383 0.598637 0.027169 0.037674 -0.221408 -0.052966 0.064566 -0.233273 0.072086 -0.075637 0.051237 0.024257 0.191268 0.265981 -0.015210 -0.071278 -0.001645 0.074658 -0.210263 0.106254 -0.104301 -0.137816 -0.186921 -0.150565 -0.082950 -0.261487 0.017974 -0.181964 0.055626 0.189944 -0.081596 0.104924 0.233378 -0.118140 -0.190891 0.007235 -0.186946 -0.191775 -0.112577 0.122457 -0.308354 -0.183050 0.046894 0.237351 0.025185 -0.038244 -0.148500 0.171984 -0.324483 -0.165559 0.168214 -0.037613 -0.224606 -0.029391 -0.201150 0.037223 0.048939 -0.030903 -0.149537 0.028115 -0.130432 0.049687 -0.299762 -0.064783 -0.372658 -0.002568 -0.133599 0.125471
13 -0.065170 -0.143827 0.000255 0.113727 -0.262783 0.093135 -0.162643 -0.186937 0.105916 0.012430 0.188496 -0.193053 -0.019934 0.021664 -0.125264 0.138161 -0.267648 0.347907 0.219078 0.028562 -0.166504 0.151821 0.043541 0.154529 -0.179920 -0.052384 0.147142 0.162483 0.265550 0.174279 -0.161431 -0.022753 -0.002102 -0.120891 -0.062681 0.362530 -0.011835 -0.170183 0.166440 -0.014680 0.234363 -0.017715 0.042933 0.017585 0.006853 0.131787 -0.037132 -0.193523 0.207560 -0.058813 0.206208 0.216453 0.167076 0.102069 -0.087829 0.007182 0.277282 0.295522 0.058095 -0.159088 0.102016 0.075760 -0.031631 0.142344 0.032440 0.068389 -0.079373 -0.084885 -0.264474 0.032046 -0.306746 -0.015348 -0.111140 -0.020618 -0.040943 0.159573 0.024103 0.126365 -0.099642 0.106057 -0.186997 -0.164501 0.212518 -0.029713 -0.122187 -0.060433 0.132821 0.086918 -0.091447 -0.005792 0.004895 -0.203503 0.032293 -0.269212 0.061296 0.053872 -0.096139 -0.110692 -0.248625 0.052985 -0.044091 0.291478 0.149548 0.160933 -0.040945 -0.062130 -0.356433 -0.062364 0.039330 0.187288 -0.062396 0.061927 0.108427 0.048157 0.120583 -0.208304 0.084633 0.311655 -0.037756 -0.269226 0.347060 0.305611 -0.093541 -0.095416 0.377454 -0.173595 -0.031342 0.166447
14 -0.251633 -0.085992 -0.076470 0.123064 -0.015248 -0.115223 -0.293681 0.072451 0.187646 0.115193 -0.141546 -0.058553 0.109273 0.123548 -0.092757 -0.046703 0.079112 -0.041624 0.122995 -0.082006 -0.128417 -0.038428 -0.011908 0.194492 -0.087246 0.328278 -0.061085 -0.454359 -0.104007 -0.091777 -0.265195 0.058789 -0.085824 0.020463 0.144249 0.113609 -0.142573 0.020779 -0.179709 0.273765 -0.060395 0.088785 0.229369 -0.173974 0.188445 0.109887 -0.115618 -0.215240 -0.282521 -0.024389 0.053815 0.161244 0.084217 -0.001958 -0.066386 -0.016825 0.019034 -0.190140 -0.108745 -0.016139 -0.174979 -0.259997 0.071056 -0.028202 -0.073897 0.089796 -0.216227 0.176689 -0.145734 0.420528 -0.148974 -0.085135 -0.119543 -0.048643 -0.170795 0.114801 0.017452 0.166192 -0.012505 0.107144 -0.231491 -0.188482 0.002999 0.029287 0.199348 -0.017191 -0.152296 0.036500 0.239537 0.023623 -0.008313 0.059746 -0.236296 0.003186 0.281047 0.086420 0.057975 -0.111957 0.212412 0.071682 0.266835 -0.019111 -0.110415 0.038086 0.027110 0.140088 -0.277468 -0.203439 0.058285 0.239631 0.149823 -0.011541 -0.372526 -0.029342 0.036035 -0.014684 0.203933 -0.235123 -0.069216 0.118172 -0.186570 0.075560 0.114808 -0.263818 -0.072575 0.160976 0.063554 0.371707
15 0.229915 -0.207479 -0.196849 -0.209412 0.049281 -0.103059 0.085900 -0.109375 -0.038596 0.123485 -0.239595 0.090052 0.040558 0.133501 -0.193951 -0.068503 0.162756 -0.244673 0.264140 0.069131 -0.094755 0.078831 -0.070691 0.167836 0.000010 -0.076093 -0.294230 -0.026014 -0.230463 0.227825 -0.052115 0.236153 -0.074027 -0.194383 0.069780 0.089465 0.055860 -0.311653 -0.075482 0.008767 0.062911 0.052051 -0.080116 0.040223 0.018914 -0.010583 0.076526 -0.296503 -0.057804 0.204451 -0.065754 0.107498 0.054787 -0.015201 0.196244 -0.199300 0.094729 0.100681 -0.188567 -0.008256 -0.146682 0.003600 -0.090705 0.045989 -0.021423 -0.119604 -0.100973 -0.045730 0.012324 0.162077 -0.035019 0.100965 -0.049610 0.304061 -0.119552 -0.019000 0.141337 0.004057 -0.266092 0.023542 0.122610 0.033183 -0.035916 -0.030886 -0.025513 -0.007949 -0.184498 0.292138 -0.320061 -0.097607 0.084762 -0.184841 -0.027409 0.226433 -0.023595 -0.026052 -0.194794 0.070245 -0.014176 -0.067626 0.122539 0.126395 0.055664 0.110959 0.122870 0.029026 0.150460 -0.102327 -0.167451 0.101252 0.307254 0.091571 -0.042875 -0.128653 0.018567 -0.223174 0.330927 -0.303730 0.247183 0.158021 -0.027775 -0.248250 0.059010 0.199651 0.381210 -0.092681 -0.049653 0.265408
16 -0.116883 0.043862 0.259622 -0.045439 -0.215378 -0.170197 -0.029765 -0.160809 0.143612 0.032151 0.161190 -0.215450 -0.058437 0.064364 0.019194 0.158950 0.000799 0.060808 -0.109047 -0.169573 0.138980 -0.207364 0.280883 -0.031696 0.078494 -0.105122 -0.047761 0.161721 -0.091828 0.363245 -0.045225 -0.123463 -0.036420 -0.118627 -0.028144 0.151749 -0.087071 -0.110172 -0.040547 0.127950 -0.329908 -0.308166 -0.048009 -0.072741 -0.048366 -0.102330 0.197145 -0.124187 -0.106731 0.166480 0.163393 0.044045 0.075807 -0.161356 0.125151 -0.173004 0.252807 -0.016757 -0.242402 -0.119152 -0.175092 0.028924 -0.097903 -0.136910 -0.114319 -0.167896 -0.114548 -0.007933 -0.069950 0.114764 -0.252577 0.267557 0.115750 -0.067396 -0.091723 -0.206006 0.085519 0.208977 -0.027754 0.150770 -0.166874 -0.076388 -0.157559 0.084395 0.264102 0.012695 -0.062419 -0.102912 0.042574 -0.063559 -0.208439 0.178524 0.109034 0.340571 -0.003493 -0.032129 -0.059740 -0.060094 -0.174296 0.001030 -0.160292 0.240942 -0.115864 -0.093804 -0.099467 -0.082671 0.005332 0.379230 -0.112846 0.107536 -0.161522 0.091346 -0.123250 -0.121942 0.336700 0.046879 0.035980 -0.061134 -0.182669 0.074050 0.205816 0.091930 0.044702 0.018071 0.189171 0.292034 0.029141 0.045872
17 0.159541 0.235787 0.102611 0.032144 0.199084 0.166132 0.078823 0.329374 0.263023 0.143601 0.318069 0.043524 0.219395 -0.120797 -0.042841 0.420968 0.030928 -0.293445 0.006584 0.023132 -0.107171 0.029268 0.128864 -0.103881 0.049814 0.335510 0.076227 0.002069 0.017312 0.221883 -0.069155 0.329792 0.049570 -0.079873 -0.359989 0.011730 -0.341861 0.088287 0.323544 0.041596 0.012246 0.237483 0.003498 0.128623 -0.164886 -0.186086 0.124987 0.341226 -0.074195 0.200987 0.238197 0.147470 0.025532 0.078398 0.151424 -0.080623 0.210878 0.046090 -0.203156 -0.068789 0.050617 0.031223 0.268237 0.023697 -0.234959 -0.047406 0.309881 -0.287825 0.134736 0.034227 -0.019043 -0.211512 -0.002013 0.131577 0.461231 0.025993 0.026566 0.152306 0.080150 -0.015841 0.016461 0.017708 0.280778 0.120080 -0.071778 -0.101714 -0.370724 0.054185 0.021684 0.033505 0.026578 0.013394 0.252034 -0.185538 0.567208 -0.326445 0.569673 0.196904 -0.212378 -0.143609 -0.175910 0.046456 -0.135531 0.242030 0.030142 0.087239 -0.076056 0.000475 0.130555 -0.030221 -0.284638 0.261409 -0.123812 0.088522 0.120217 -0.159346 0.395811 -0.182414 0.087862 0.002470 -0.404988 0.182411 0.038576 -0.119924 0.106476 -0.189594 0.280321 -0.083552
18 -0.013908 0.003556 -0.101747 -0.082059 -0.027603 0.047368 0.059737 -0.361421 0.070355 -0.002603 -0.047221 0.031124 0.102368 0.016600 0.067503 -0.048603 -0.095821 -0.226901 0.215656 0.109353 0.058445 0.078952 0.038037 -0.148029 -0.095852 -0.007954 -0.002189 0.194120 -0.023399 -0.105272 0.053150 -0.079474 -0.020156 0.026456 -0.205343 0.171928 0.107497 -0.274392 0.092138 -0.166454 -0.199845 0.001173 0.213903 -0.227759 -0.327730 -0.243919 0.193050 -0.027918 -0.131980 0.090105 0.256630 0.135631 0.026157 0.046680 -0.056062 -0.024318 -0.021038 0.134113 -0.332182 -0.002983 -0.122516 -0.050900 0.302397 0.257934 -0.175602 0.042194 0.055947 -0.161690 0.067901 0.282264 0.067455 0.046888 0.312819 -0.173747 0.112563 -0.033766 0.025728 -0.040281 0.069349 0.021667 -0.066246 0.190981 0.109382 -0.166779 0.025059 -0.307854 -0.036884 0.027734 0.012099 -0.069680 -0.064604 -0.100659 -0.257741 0.187313 -0.041586 0.121779 0.095453 -0.044096 -0.168085 -0.085589 0.418280 -0.252427 0.047875 0.076732 0.037722 -0.221321 -0.074472 -0.236314 -0.082205 0.242626 0.114965 -0.113151 0.003192 -0.011212 -0.200327 -0.038135 -0.146155 0.317836 -0.128477 0.267793 0.044451 -0.210946 0.135429 -0.024522 -0.126575 0.175542 -0.012967 0.336983
19 -0.204093 -0.369290 0.179666 -0.025482 0.087512 -0.026808 -0.030351 0.026922 -0.040170 -0.159944 0.121305 -0.181066 0.295833 -0.022966 0.079326 -0.108108 -0.060212 -0.252771 0.209337 -0.012535 -0.058477 -0.109466 0.162419 -0.032531 0.013146 -0.095251 -0.025643 -0.067449 -0.087959 -0.165911 0.058708 -0.070311 0.016553 -0.003968 0.040200 -0.008959 -0.285017 -0.160475 -0.280667 0.059050 0.151948 0.067915 0.061951 -0.163572 -0.152120 -0.005324 0.206526 -0.158489 -0.328576 0.052221 0.126567 -0.198435 -0.056141 -0.208881 -0.201557 -0.297958 0.246842 -0.220292 0.158342 0.283743 -0.164522 0.051570 -0.227955 0.199020 0.429885 -0.049416 0.177780 -0.135832 0.100303 -0.163577 0.067600 -0.012740 0.024818 -0.062875 -0.178190 -0.023928 -0.294901 -0.037738 -0.063154 0.068349 0.024920 -0.227123 0.149338 -0.077157 -0.265262 -0.003933 -0.084645 -0.007380 -0.130340 0.108546 0.397124 0.080476 -0.032625 -0.508044 0.002279 -0.021152 0.136694 -0.033591 -0.198378 -0.155642 -0.116996 -0.081044 -0.192939 -0.040134 0.069849 -0.416863 -0.041245 0.113760 -0.262693 0.053715 0.103631 0.272105 -0.192093 -0.075205 -0.093499 0.229294 -0.018430 -0.055580 -0.215836 0.133286 0.076881 -0.189411 -0.057696 0.087556 0.120493 -0.165845 -0.208731 -0.202272
20 0.068946 -0.029376 0.258621 0.010718 -0.127906 0.126075 -0.131633 0.219470 -0.162732 0.089022 -0.153690 -0.266909 0.047166 -0.026620 0.034847 -0.099080 0.111436 0.026026 0.323279 0.183969 -0.030594 0.363762 -0.103073 -0.167958 0.211966 0.023178 0.005272 -0.070952 0.357565 0.425568 -0.274272 0.068498 -0.209866 -0.065519 0.041131 0.182940 0.037174 -0.074055 -0.030137 -0.050884 -0.104937 -0.120006 0.137763 0.044163 -0.125247 0.054421 -0.055219 0.284716 0.213080 0.070070 0.123272 0.117878 0.052264 -0.130138 -0.120952 0.036013 0.354732 0.100734 0.018902 0.170581 -0.058327 -0.108825 0.003444 -0.057611 -0.099098 -0.171653 0.236493 0.137839 -0.043238 0.166233 -0.140983 0.095207 -0.004497 -0.155831 0.376367 0.266346 0.073263 -0.167436 -0.204213 -0.087406 -0.107599 -0.033498 -0.022229 0.017829 0.061935 0.212459 -0.032764 -0.029516 -0.057635 -0.017056 -0.085774 -0.125995 0.078777 -0.058824 0.306585 -0.201649 0.011776 -0.139879 0.028519 0.328909 -0.155502 0.231102 0.042108 0.083997 -0.165827 0.123564 0.206121 -0.007581 -0.038485 -0.159111 0.159964 -0.191859 -0.115394 -0.385895 0.007872 -0.012639 0.019831 0.105339 -0.360711 0.340170 0.098155 -0.149209 0.149886 -0.147695 -0.174658 0.042153 0.026989 0.116789
21 0.172782 -0.105992 0.012753 0.108007 0.397459 0.196741 0.053016 -0.310811 -0.177168 -0.092740 0.059494 0.172492 -0.163491 0.203312 -0.024511 -0.202270 0.069264 0.422941 0.060060 0.092890 0.052965 -0.159228 -0.097221 0.169772 -0.117250 -0.279922 0.374064 0.043022 -0.137277 -0.006505 -0.091527 0.279080 0.301220 -0.192040 -0.202532 0.181630 -0.054853 0.248506 0.037574 -0.044674 -0.017406 0.030985 -0.123299 -0.215478 0.225215 0.311293 -0.035177 0.177010 0.048915 -0.014859 0.128369 -0.216251 0.185323 -0.027905 0.054807 -0.114268 0.014941 -0.225361 -0.095482 0.141685 0.160692 0.098137 -0.000434 0.147091 0.066695 -0.260734 -0.038488 0.010469 -0.010451 0.116406 0.011466 0.211721 0.011521 0.046861 -0.009611 -0.060780 0.098054 -0.284392 0.003799 0.014726 0.078606 -0.188530 -0.083042 0.052045 0.349925 -0.379335 -0.200824 -0.273756 -0.225912 0.200987 -0.295281 0.070667 0.163490 -0.328593 0.024798 -0.313739 0.086039 -0.129938 0.048949 -0.225086 0.140880 -0.258970 -0.126155 0.000774 0.012669 -0.057153 0.192202 -0.132867 0.032958 0.086882 -0.069713 0.027535 -0.177137 -0.120109 0.108530 -0.062203 0.168963 0.214798 -0.065338 -0.033811 -0.119193 -0.066021 0.015872 0.031157 -0.124033 0.223124 -0.385712 0.193784
22 -0.109849 0.141401 -0.059791 -0.022688 -0.013744 -0.263774 0.126829 0.336619 0.238761 0.151444 -0.072062 -0.245387 -0.086538 0.422765 0.172622 -0.010842 -0.068085 0.072231 -0.195618 0.181788 0.014398 0.039847 0.001025 0.200026 0.020258 -0.060244 0.144522 -0.073070 -0.067297 0.165694 -0.128887 -0.472269 -0.253978 -0.108962 0.077741 0.097063 -0.294709 0.258772 0.149329 -0.114922 -0.050046 -0.234845 -0.160294 0.070855 0.262486 0.254650 0.209952 -0.435218 -0.060000 0.040090 0.010013 -0.094449 0.564528 0.194386 0.235179 0.004492 0.207726 -0.021577 -0.056665 0.155072 0.061609 0.026865 0.074791 -0.000280 0.141731 -0.012856 -0.000127 -0.029781 0.007589 0.024703 -0.189901 0.033905 -0.004772 -0.076941 0.119087 0.082596 0.029575 0.098555 -0.081583 0.008952 0.082904 -0.075410 0.041648 -0.139736 -0.053080 0.056831 0.371049 -0.233008 -0.310176 0.163196 -0.096221 -0.230782 0.064735 -0.014870 0.120718 0.056318 0.181833 0.073660 -0.201782 -0.129080 0.235144 -0.020105 0.033490 -0.027325 0.366521 -0.212480 0.013172 -0.312655 0.046439 -0.164817 -0.060948 -0.007585 -0.001384 -0.021045 -0.298835 -0.206967 0.037539 -0.049324 -0.288998 0.156719 -0.057859 -0.027706 -0.166315 0.305260 -0.081813 0.238130 0.148611 -0.087726
23 -0.039268 0.006067 0.404890 -0.045624 0.315251 -0.035032 -0.036226 -0.157528 -0.067334 -0.118910 0.034333 0.148582 0.185445 0.093355 0.288171 0.125577 -0.326841 -0.132673 -0.075461 0.228040 -0.000525 0.097563 0.311994 0.076534 -0.077454 0.321459 -0.329779 0.138696 0.164932 0.176333 0.042655 0.003119 0.231640 -0.277646 -0.082041 -0.222330 -0.031727 0.144933 0.066877 -0.234385 0.074413 0.065629 -0.468132 -0.340680 -0.169675 0.028357 -0.150478 -0.113157 -0.025179 0.061557 0.153610 0.197816 0.272898 -0.064682 0.028928 0.145041 -0.026291 -0.089094 -0.113054 0.103142 0.008886 0.224484 -0.131812 0.039818 0.199999 -0.268481 0.195834 0.040616 -0.404886 -0.104747 -0.093879 -0.036755 0.121348 0.448691 -0.079879 -0.229930 -0.092379 -0.268160 -0.014926 -0.401819 -0.032400 -0.241821 -0.097946 -0.189524 -0.083553 -0.075607 -0.180355 -0.053091 0.044309 -0.269343 0.055535 -0.018616 -0.137333 -0.135293 -0.227171 0.083369 -0.170258 -0.077181 0.415158 -0.063411 0.036201 -0.046587 -0.294711 0.059006 0.186436 0.293004 -0.191368 -0.169372 0.187137 -0.101259 0.195298 0.109117 0.137438 -0.243054 -0.040626 0.289083 -0.420866 0.083248 0.085254 0.073052 -0.068013 0.374076 0.140298 0.203126 -0.223475 0.096038 0.394701 0.156282
24 0.007230 -0.240671 0.183049 0.047218 0.021740 0.105956 0.041593 0.289513 -0.228621 0.094921 -0.106040 0.001547 0.077835 -0.002063 0.059007 -0.091410 0.272416 0.225051 0.142815 -0.188345 0.178721 -0.310526 0.000232 0.123608 -0.253633 0.092144 0.016159 -0.305975 -0.044571 0.254654 0.225538 -0.050945 -0.246345 -0.460546 0.122859 0.049709 0.123062 0.023914 0.014993 -0.295652 0.100383 -0.217609 0.328117 -0.192162 0.222898 0.052220 -0.005356 0.039297 0.041280 0.164868 0.396655 0.030091 -0.010463 0.037192 -0.067580 0.072755 -0.216647 0.070405 0.092450 0.158853 0.252721 0.285297 0.097505 -0.188733 -0.142131 0.022615 0.032811 -0.343464 0.101093 -0.196845 -0.000662 -0.028548 -0.081479 0.127889 0.057300 0.121271 0.056536 -0.151626 0.032186 0.048405 -0.074075 0.193347 -0.122401 0.043249 0.316913 -0.007124 0.068511 0.229748 -0.033083 0.035831 0.143625 0.052435 0.040651 0.025251 -0.552423 0.202500 0.130384 -0.241669 -0.012197 -0.042057 -0.010755 -0.036022 -0.076189 -0.098576 -0.032507 -0.189274 -0.065999 -0.095645 -0.083930 0.244928 -0.171908 0.112098 -0.110606 -0.174504 -0.112315 0.246903 0.078507 -0.193847 0.009042 -0.002762 -0.273458 0.307664 0.232352 -0.054115 -0.035689 -0.356774 0.148535 -0.091167
25 -0.256104 0.098620 0.255512 0.233593 0.211260 0.022014 -0.174731 -0.124918 -0.141648 -0.376265 -0.128279 0.257830 0.100565 -0.189046 0.048484 0.047041 0.021138 -0.170370 0.132659 0.107324 -0.457260 0.088290 0.096148 0.061602 -0.030833 -0.242285 -0.045428 0.055528 0.007016 -0.084159 -0.054563 0.244940 0.238328 -0.061576 -0.038791 -0.166983 0.255465 0.076171 -0.152601 -0.014283 -0.015462 -0.110326 -0.000157 0.006882 0.193543 0.384956 0.364156 -0.165897 -0.086023 0.065062 0.043754 0.218441 -0.007954 0.190613 -0.329047 -0.361588 -0.005341 0.245211 0.339171 0.125647 -0.099378 0.023578 -0.027631 -0.175077 -0.031891 0.070262 -0.008205 -0.219506 0.208115 0.049938 -0.186104 -0.028436 0.250588 0.040857 -0.035627 0.013420 0.165218 -0.135229 0.232893 0.069830 -0.293356 0.007140 -0.130767 0.239632 -0.058542 0.147116 0.099537 -0.109138 0.210400 0.066180 0.354090 0.341271 -0.047112 0.101353 -0.085913 -0.077845 0.013243 0.048339 -0.013012 0.006072 -0.014734 -0.056302 0.011202 0.213120 0.195547 -0.104854 0.035442 0.076552 -0.153297 -0.243057 0.033833 0.218689 -0.170648 0.028202 -0.383095 -0.011200 0.021845 -0.120457 -0.108611 -0.081168 -0.114908 0.145103 -0.230779 0.204337 0.197569 0.156844 0.015534 0.070196
26 0.131797 0.113616 -0.013338 -0.120503 0.033164 -0.067483 -0.285107 -0.016446 -0.059295 -0.022270 -0.100509 0.254409 0.029964 0.397213 -0.238859 -0.060516 -0.076181 0.015681 0.185097 0.059460 0.018264 -0.234947 -0.063070 -0.058016 -0.018684 -0.001511 -0.153001 -0.022426 -0.179233 0.215334 0.104311 -0.149735 0.093844 -0.147405 -0.091486 -0.109261 0.020783 0.071470 0.287060 -0.032724 0.202374 0.233921 0.248560 0.146178 0.291106 -0.284072 0.066149 -0.027093 0.251412 0.282440 -0.028084 -0.002906 0.097260 0.260205 0.232173 0.096206 -0.112997 0.041919 0.027152 0.245516 0.043979 -0.050831 0.013571 0.287192 -0.133835 0.021087 0.037621 -0.157681 0.080035 0.155860 0.155145 0.107610 0.061218 -0.140609 0.037477 -0.131650 -0.042387 0.010213 -0.062960 0.062428 0.110107 -0.035104 0.305993 0.052771 -0.072981 0.140345 -0.296360 -0.281986 0.150834 0.071161 0.149709 0.182668 0.015324 0.009525 -0.229024 0.232477 0.231637 -0.214405 0.073543 0.128673 0.089614 0.252421 -0.149446 0.066428 -0.328586 0.289609 0.028995 -0.006588 -0.114766 -0.031986 0.131100 0.099760 -0.108751 -0.205779 0.185218 -0.038104 -0.374171 0.096534 -0.327268 -0.241266 -0.033224 -0.165018 -0.286551 0.063527 0.062938 0.151640 -0.199372 0.003078
27 0.000967 -0.345002 -0.068980 -0.497607 -0.361919 -0.083796 -0.111752 0.173624 -0.210781 0.201059 0.241545 -0.187892 0.057370 0.347037 0.168601 -0.259255 0.154228 0.080106 -0.173042 -0.173673 0.025056 0.087472 -0.075796 0.182241 -0.192343 0.201845 0.172802 0.026984 0.492475 0.022729 0.468829 0.092253 -0.004492 0.157962 -0.066743 -0.021342 0.371494 0.418079 0.098282 0.202510 0.024792 0.110640 -0.141643 -0.279102 -0.105562 -0.029810 -0.233861 0.058218 -0.107286 0.241630 0.106214 0.109806 -0.186008 -0.211693 -0.008476 0.103324 0.130254 -0.159944 0.094748 -0.033679 0.396213 0.396267 -0.192218 0.026762 -0.243716 0.139039 -0.088657 -0.082701 -0.172068 -0.117510 0.063296 0.385430 0.248971 0.204053 -0.172911 -0.004632 0.050797 0.208924 0.130687 0.097291 -0.310683 -0.120799 -0.015914 -0.123520 0.107854 0.053921 -0.110183 -0.178144 -0.121801 -0.143641 0.301782 0.127943 -0.238404 0.149256 0.078997 -0.134994 0.174618 0.263860 -0.064513 0.233036 0.318224 0.037603 0.137396 0.110921 0.083422 0.118260 -0.298730 -0.218510 0.109500 -0.368667 0.250354 0.092073 -0.305379 0.046082 -0.120204 -0.503543 -0.075500 0.135813 -0.129486 0.046868 -0.035898 0.054873 -0.175239 -0.144903 0.123434 0.036971 -0.059909 -0.358892
28 0.207949 0.025645 -0.166505 -0.023396 0.013541 -0.245540 0.319896 0.140277 0.202204 0.061709 0.334863 0.099939 -0.054977 -0.080664 0.071764 -0.039815 -0.166251 -0.069966 0.079960 -0.156977 -0.134223 0.035526 0.160173 -0.405097 -0.194619 0.097439 -0.013406 -0.364242 0.028797 0.164721 -0.017921 -0.001167 -0.000498 0.151387 0.505225 0.042307 0.138829 -0.049649 0.047887 -0.312364 0.210864 -0.117911 -0.160953 -0.179364 -0.244060 -0.059075 0.235526 -0.014661 -0.093897 0.221824 0.002977 0.377707 0.076488 0.270784 0.013548 0.263562 0.238142 0.112456 0.108578 0.033228 -0.136380 0.209557 0.028404 -0.202858 0.144033 0.050221 -0.063869 0.173876 -0.332411 0.193214 0.452724 -0.108429 -0.187958 -0.251696 -0.197783 -0.161677 -0.086449 -0.298854 0.185351 0.144952 -0.278755 0.101497 0.123516 0.068094 0.124025 -0.025710 0.096352 -0.072200 -0.016291 0.088543 0.117760 -0.040714 -0.055274 -0.113901 -0.042144 -0.057627 -0.067475 0.029494 -0.164418 -0.000451 0.312048 -0.094434 0.000763 0.256104 -0.091502 0.009105 0.037886 0.218250 0.068669 -0.159201 0.078442 0.030862 0.114271 -0.150916 0.293441 -0.082460 -0.024984 -0.248838 -0.038236 -0.126370 0.080674 -0.094292 0.204292 -0.077865 0.152059 0.204102 -0.013629 0.126588
29 -0.061439 -0.080561 -0.161839 0.118260 -0.139050 -0.070181 -0.177107 0.351913 0.024849 0.129451 0.071566 -0.231781 -0.041548 0.264169 -0.371439 -0.209973 -0.096159 -0.460011 -0.037937 0.027559 -0.090019 -0.034182 -0.123316 0.128051 0.221068 0.068605 0.100916 -0.079185 0.102431 -0.193011 0.119700 0.207056 0.346260 -0.363009 0.065139 0.218780 -0.113351 -0.216342 0.072396 -0.196185 -0.094653 -0.002158 -0.167536 0.229305 -0.006959 -0.083114 -0.015611 0.266357 -0.058491 -0.169202 -0.268574 -0.055744 -0.196376 0.220349 -0.088496 0.036514 0.040751 0.015934 -0.331450 -0.037734 -0.252038 0.020269 -0.158607 -0.330101 0.111487 -0.142745 -0.038098 -0.291940 -0.355661 -0.061488 -0.088915 0.105148 0.041282 0.158839 0.059301 0.104075 -0.481843 -0.310190 0.146628 -0.006094 -0.028193 -0.267730 0.071817 0.266259 0.189468 0.227196 -0.096765 0.172631 -0.008103 -0.202913 -0.219588 -0.159994 -0.078854 0.210507 -0.047386 -0.026877 0.313354 -0.204360 -0.082353 0.335359 0.183548 0.157825 -0.190116 0.353181 0.094625 -0.187867 0.131626 0.152224 0.000086 -0.017104 -0.053701 -0.354854 -0.179000 0.116239 0.038336 0.081705 0.113635 0.443788 0.159354 0.041852 0.046143 0.229908 -0.103444 0.055049 -0.241329 0.061570 0.068959 -0.144775
30 -0.044989 -0.024281 0.063258 0.127927 -0.202824 -0.213628 -0.287140 0.035818 -0.294055 0.103608 0.075969 -0.087729 0.008263 -0.072092 0.040115 0.128361 -0.293201 0.146226 0.024853 -0.082701 -0.126891 -0.085270 0.224244 -0.036035 0.173901 -0.133538 -0.140810 0.118328 -0.094185 0.057381 -0.029299 -0.126504 -0.007750 -0.005792 0.167012 0.141358 -0.019180 0.212311 -0.008482 -0.348685 0.398919 0.380210 -0.163666 0.296272 -0.228455 0.088836 0.161981 0.059119 -0.110290 -0.097308 -0.080394 -0.061109 0.215476 0.060475 -0.213641 0.102960 0.189153 -0.015480 -0.182286 0.085738 0.174271 -0.080209 0.115969 0.278872 0.174473 0.439131 0.044012 0.055931 -0.016820 -0.012098 -0.112413 0.229367 -0.067372 -0.044510 0.027660 0.023937 0.211417 0.281144 -0.224704 -0.141793 -0.281475 0.209685 -0.153357 0.015778 0.135710 -0.136582 -0.330967 -0.028912 -0.040263 0.021349 -0.380189 -0.100647 0.015573 0.271581 -0.181167 -0.330299 0.002396 -0.122978 0.004318 0.070873 0.087958 0.005088 -0.022967 0.195335 -0.041271 0.077526 -0.190598 -0.129073 -0.355090 0.209653 0.056739 0.151369 -0.094655 0.107973 -0.048501 -0.145543 -0.209771 -0.122079 -0.145822 -0.045940 -0.087608 -0.146321 0.144132 0.136128 -0.022376 -0.102235 0.085714 -0.194513
31 0.189847 0.032615 -0.082261 0.276745 -0.095710 0.049198 -0.127569 0.035429 -0.181255 0.176563 -0.101873 0.029037 -0.058872 -0.157067 0.179938 -0.198503 -0.385546 0.040793 -0.051823 0.013167 0.158221 -0.162320 0.054025 0.017746 0.157507 -0.281536 0.049671 0.105479 0.029477 0.060229 -0.148970 -0.095288 -0.423825 -0.147721 0.232499 0.145366 -0.273748 -0.151930 0.041474 0.031220 0.218766 0.250479 -0.117703 -0.091424 0.032969 0.008376 0.327854 -0.028675 0.192748 -0.129887 -0.066353 0.118858 0.047981 -0.162650 0.126540 -0.041744 0.119054 -0.025847 -0.352615 -0.020548 0.125742 -0.054570 0.299679 -0.091655 0.058400 -0.022427 -0.029355 -0.144626 0.003708 -0.149297 -0.104034 -0.085192 0.043074 -0.245596 -0.287375 0.237217 0.121371 0.297299 0.030741 -0.220831 -0.362416 -0.368777 0.061437 0.098339 -0.031091 -0.345097 -0.044477 -0.065847 -0.423250 0.064058 0.499938 0.180027 -0.157928 0.108794 0.120012 -0.159614 -0.242919 -0.225327 -0.034926 0.255004 0.038984 0.075408 0.035652 -0.033157 -0.040608 0.191846 -0.034473 -0.190084 0.012996 -0.093175 -0.166470 -0.137842 0.217080 0.067386 0.016706 -0.141973 0.013925 -0.007140 -0.188879 -0.138568 -0.085486 0.294947 -0.118561 0.274447 0.074930 0.030704 0.237054 -0.083471
32 0.338451 -0.086186 0.242089 -0.136493 0.003947 -0.143373 0.090045 -0.262891 -0.055027 -0.144161 -0.054719 -0.144814 0.009205 -0.226964 0.453563 0.007718 -0.148175 -0.000634 0.295102 -0.067780 -0.123694 -0.165108 0.109141 -0.083352 -0.188932 0.054509 -0.024900 -0.198448 0.170918 0.180491 0.185957 0.101765 -0.202513 -0.307169 0.170265 -0.052074 -0.292080 -0.205783 0.437891 0.068060 -0.179122 -0.034458 0.076460 -0.068915 0.056872 0.305177 -0.295382 0.073227 -0.156919 0.178555 0.016557 0.112722 0.171094 0.199384 0.239811 -0.279568 -0.045642 -0.208792 -0.004880 -0.058285 -0.126383 0.105124 0.316025 -0.036564 0.332344 0.174224 -0.228185 -0.027722 0.007760 -0.440298 0.184376 0.068861 -0.032554 -0.047262 0.009333 0.159029 0.010208 -0.159485 -0.070354 -0.165369 0.040232 -0.159152 -0.317423 0.170641 -0.069213 0.319802 0.179473 -0.085734 -0.053259 -0.116009 -0.219960 -0.081065 0.023896 -0.045524 -0.182923 -0.008347 0.112043 -0.080327 0.161086 -0.100355 0.070986 0.019525 -0.017054 -0.171469 -0.229801 -0.173529 -0.080021 -0.023397 0.215782 0.317236 0.170227 0.190761 -0.244074 -0.029084 -0.193600 0.085748 -0.028439 0.252340 -0.029475 0.031301 -0.480725 0.015593 -0.203940 -0.197504 0.138791 0.050190 0.239837 -0.321008
33 0.046495 -0.086834 -0.197667 0.134571 -0.138505 0.064624 0.298402 -0.143303 0.077341 0.058678 0.047978 -0.196607 0.171955 -0.173775 -0.236901 0.465483 0.171849 -0.305238 0.106981 -0.129003 0.107034 0.097905 0.089886 -0.063348 -0.059349 -0.037397 -0.055344 0.045626 0.047721 0.171117 -0.096403 -0.100874 0.183223 0.067607 0.038983 0.175950 -0.069224 -0.270600 -0.040905 -0.140387 0.202364 0.099794 -0.079209 -0.136609 0.070423 0.239987 0.039117 -0.370659 0.332084 -0.197196 -0.093207 -0.031584 0.113826 -0.093973 -0.202233 0.000027 0.069224 -0.053817 -0.088996 0.456737 0.113987 -0.220355 0.208049 -0.146021 0.034268 -0.043804 -0.168898 -0.013242 -0.094132 -0.040564 0.355214 0.318707 -0.017240 0.094334 -0.173354 0.049881 0.158354 -0.161307 0.232926 0.219750 0.021045 0.012984 -0.022936 0.124845 0.051512 -0.197157 -0.038143 0.025020 0.164214 -0.208989 0.083392 0.188585 0.270398 0.057026 0.125160 -0.049131 0.105165 0.071197 -0.055524 0.097757 0.063090 0.129326 -0.045775 -0.300330 0.011956 0.122218 -0.085780 -0.211428 -0.108961 -0.086463 0.042958 0.142958 -0.163376 -0.000619 -0.033968 0.013331 -0.015807 -0.047685 -0.071586 0.044500 0.139353 -0.006581 -0.165966 0.181012 0.031519 -0.042271 0.107940 -0.090255
34 -0.176104 -0.117925 0.086789 0.165317 -0.046966 0.207342 -0.084696 -0.109399 0.289001 -0.049767 -0.130059 -0.191082 0.012254 0.195831 0.159510 -0.261031 0.010413 0.108924 -0.067366 -0.031772 0.178749 0.027714 -0.173595 0.056955 -0.047465 -0.006804 -0.181751 -0.021832 -0.018152 -0.114500 0.029755 -0.140475 -0.033938 -0.019115 0.064988 0.049632 0.045312 -0.281464 0.087831 -0.152115 0.078486 0.017227 -0.011158 0.234490 -0.083445 -0.003895 0.097725 -0.057587 0.054558 -0.309735 -0.123066 0.142600 0.043907 0.038448 -0.003856 -0.243154 0.184026 0.082956 -0.058404 0.143583 0.069277 0.091750 0.032821 -0.124057 -0.075574 -0.261921 -0.000724 -0.035436 0.194294 0.340828 0.032448 0.112486 -0.069774 -0.170984 0.197141 -0.182564 -0.137138 0.034225 0.009631 -0.276083 -0.175771 0.049810 -0.196755 0.227211 0.002938 -0.150083 -0.062908 0.020951 -0.147312 -0.087595 -0.075143 -0.076482 0.076294 0.104199 0.145783 0.122161 0.009082 0.302709 -0.037259 0.199681 -0.135915 -0.015307 -0.266768 0.090048 -0.023836 -0.002851 -0.288318 0.056638 0.161295 0.096849 0.302037 0.106007 -0.127148 -0.342159 0.154089 -0.201531 0.002528 -0.031978 0.033848 -0.298447 -0.013252 0.112531 0.122142 -0.062097 0.203772 0.053751 -0.033320 0.067340
35 0.140387 -0.099268 -0.237482 -0.092197 0.025965 -0.273406 0.262486 0.259383 -0.217211 0.022175 -0.060648 0.179740 -0.085457 -0.019764 0.217949 0.178352 0.245390 0.092796 0.122108 -0.099359 0.014031 0.032119 0.299799 0.188208 0.333445 -0.130775 0.034533 0.102431 0.198363 -0.052539 -0.093928 -0.213847 0.342976 -0.004133 -0.152368 0.018034 -0.176838 0.143373 0.134856 0.133572 0.123221 -0.129659 0.051891 -0.287891 -0.211118 -0.169784 0.218469 -0.013385 -0.112973 -0.011803 0.081410 0.266090 -0.235311 0.245664 -0.181570 -0.049286 -0.298481 -0.123189 0.079188 0.074874 0.235928 -0.137591 -0.159889 0.061306 0.301477 -0.020180 -0.274760 -0.041887 -0.076738 0.291459 -0.054752 0.077163 -0.184613 -0.024307 0.061823 0.258829 0.170029 -0.008131 -0.070317 -0.188010 -0.041769 -0.148336 -0.156055 0.069008 -0.154680 -0.073726 -0.191209 -0.095241 -0.233017 -0.066436 0.273854 0.074579 0.053985 0.198223 -0.179805 0.150609 0.254255 -0.098923 -0.115290 -0.048513 -0.137401 -0.143381 -0.073953 -0.087821 -0.079502 0.039382 -0.007447 0.110047 0.248781 -0.275732 -0.107404 0.028467 -0.311452 -0.148538 0.074338 0.115151 0.035442 0.211736 0.071184 -0.290509 -0.144958 -0.214192 -0.168604 -0.131960 -0.038012 -0.114447 -0.036676 0.405342
36 -0.183781 -0.222466 0.012923 0.120179 0.030935 -0.225408 0.184124 0.106141 -0.176819 -0.085759 -0.080470 -0.113952 -0.052496 0.154732 -0.032120 -0.207469 0.239134 0.018663 -0.234261 -0.028841 0.216696 0.137766 0.274662 -0.286121 0.009720 0.018945 -0.084259 -0.184513 0.045712 -0.198608 -0.187401 0.044215 0.002594 -0.373053 -0.414338 -0.027762 0.083571 -0.016617 0.130771 -0.186076 0.287651 0.194227 0.158890 -0.095350 0.068469 0.183975 0.019845 -0.070840 0.088013 -0.220878 0.108702 0.270973 0.011184 0.061808 0.084032 -0.304706 0.122142 -0.259741 -0.075497 -0.091437 -0.242756 0.076752 0.181852 0.302008 -0.015468 -0.110463 0.077741 -0.037250 -0.228982 0.254133 0.110435 0.046573 0.070847 -0.017664 0.081902 -0.087404 0.262452 -0.053781 0.308320 -0.024703 0.056380 -0.116179 -0.089296 -0.095025 0.110890 0.015529 0.254566 -0.092955 -0.112461 -0.072292 0.015615 0.081208 -0.034759 -0.045747 0.053597 0.006965 -0.068832 -0.052385 0.095826 -0.017174 -0.017511 0.298471 0.184474 0.114038 0.044916 0.119526 0.102467 0.163930 -0.290962 -0.071264 0.058075 0.115937 0.169190 0.225922 0.170086 -0.197695 -0.114934 0.056267 -0.142431 0.234916 -0.051932 -0.098196 -0.074045 -0.188297 0.142873 -0.180432 0.163013 -0.077649
37 0.028144 0.051611 -0.008373 -0.304221 -0.036334 0.566861 -0.002112 0.156685 -0.129662 -0.188318 0.281492 -0.093755 -0.169514 -0.006576 0.164243 -0.139671 0.049065 -0.125310 -0.013367 -0.055077 -0.160279 -0.129804 0.383461 0.004413 0.369163 -0.106051 -0.396053 -0.141283 0.181417 0.040385 -0.121990 -0.176966 0.082219 0.001731 -0.020292 -0.019457 0.163660 0.125696 0.021418 -0.122974 -0.137129 0.284633 0.195055 0.088200 0.030650 0.005522 0.089911 -0.324122 0.147366 -0.156563 0.248725 -0.036191 -0.039704 -0.240153 0.176411 -0.119784 0.027697 -0.030783 0.277288 -0.005855 0.019067 -0.288002 0.076786 -0.197304 0.207954 0.047012 0.225352 0.433489 0.050026 -0.071657 -0.060666 -0.032046 -0.106197 0.233738 -0.145594 -0.021228 -0.155151 0.006961 0.097731 0.026180 0.029704 -0.128947 0.128908 0.061791 0.012861 -0.123356 0.061981 0.047388 -0.081824 0.163915 -0.036875 0.148009 0.157932 0.295575 -0.247953 0.309866 -0.000218 0.027351 -0.067854 -0.120087 0.083246 0.193376 -0.356142 0.167279 -0.319341 -0.074477 -0.178038 -0.145501 0.065561 -0.052719 -0.083272 -0.173650 -0.223527 -0.028601 -0.035529 -0.337548 0.215854 0.041174 -0.097664 0.326286 -0.054922 0.004268 0.325434 0.057532 0.260828 0.086821 -0.061603 0.057637
38 0.107107 -0.026185 0.016006 0.109979 0.097594 0.057418 -0.126784 0.118833 0.048485 0.329404 -0.025116 -0.346998 0.196706 -0.018090 0.157936 -0.269208 0.082719 -0.032613 0.021053 -0.173679 -0.007032 0.034143 0.279380 0.050843 -0.204076 -0.017095 -0.160194 -0.073084 0.120929 0.030685 0.296018 -0.127752 0.145362 0.245386 -0.332450 -0.185580 -0.151054 -0.139730 -0.092697 -0.057851 -0.037862 -0.245656 -0.140742 0.096898 0.051668 -0.003522 -0.160373 -0.282028 0.138452 0.334447 0.092006 0.184370 -0.022807 0.065309 -0.019864 -0.230135 -0.186749 -0.248786 0.061104 -0.109150 0.116512 -0.129516 0.233161 0.100320 -0.259320 0.184170 0.177213 -0.065897 -0.142582 -0.036124 0.047181 -0.136230 -0.351742 0.114009 -0.168219 0.036959 0.196627 -0.034153 -0.051086 -0.146757 -0.045385 -0.016117 0.029562 0.163278 -0.026095 -0.017302 -0.072364 0.014840 0.051571 0.137895 0.038215 -0.145164 0.146194 -0.113443 -0.350437 -0.262656 -0.130104 -0.146173 -0.066499 0.038743 -0.106250 -0.301096 -0.112849 0.114526 0.091174 -0.005442 0.455357 0.137307 -0.301937 -0.061939 0.230012 0.074036 -0.195416 0.082575 -0.198019 0.021855 0.053440 0.097182 -0.213675 -0.220267 -0.038915 0.150227 -0.052508 0.313872 0.017164 0.106510 0.015812 0.167578
39 -0.074437 0.136279 -0.120579 -0.204149 -0.044293 0.004377 0.328082 -0.111831 0.051842 0.124855 -0.022544 -0.197993 0.475058 0.098464 -0.008443 -0.069290 0.095595 -0.170185 0.120836 -0.173661 0.073402 -0.281535 0.335886 -0.147151 0.037747 -0.095723 -0.099179 -0.137187 -0.045645 0.073672 -0.083772 0.045375 -0.088806 -0.149218 0.094199 -0.089979 0.342361 -0.160786 -0.043128 0.115508 0.203347 0.170102 -0.025289 -0.089321 -0.111595 0.162414 -0.078738 0.062804 -0.182388 0.093493 -0.217293 -0.080893 0.039157 0.013448 -0.036207 0.228357 -0.118936 0.011676 0.112439 0.115587 -0.124586 -0.017213 0.195641 -0.044146 0.055272 0.267772 0.093979 -0.152537 -0.057641 -0.057590 -0.367346 0.086435 -0.035205 0.002062 0.046969 -0.157698 0.045925 -0.381162 0.014909 0.205599 -0.050685 -0.041619 -0.163051 0.174896 -0.124014 -0.365321 0.341660 0.059985 -0.033523 0.072459 0.059201 -0.097413 0.021759 -0.133546 0.012371 -0.017245 0.278737 -0.162664 -0.022827 0.378355 -0.024907 -0.036336 -0.036527 0.174792 0.142849 0.194464 0.081933 0.181908 0.238885 0.073263 0.110424 0.345115 0.106442 0.007807 -0.001057 -0.151997 0.050171 -0.093167 -0.123314 -0.180490 0.282947 -0.040618 0.042050 -0.098640 0.103889 0.032955 -0.142156 0.104330
40 -0.059159 0.032454 0.066355 0.115168 0.063756 -0.079716 0.219511 0.072106 -0.024266 -0.095725 -0.172517 -0.173822 -0.113429 -0.124801 0.104902 0.107305 -0.049653 -0.157948 0.263197 0.001868 0.099634 -0.040077 0.339990 0.027378 -0.125474 -0.130391 -0.313146 -0.162526 0.028117 -0.085838 -0.009753 -0.126251 0.223387 0.048197 -0.006746 -0.030829 0.215171 -0.148785 0.192084 0.053019 0.004956 0.069785 0.070142 -0.079932 0.065667 0.003918 0.085144 0.166869 -0.020801 0.083002 -0.157385 -0.100230 -0.064404 -0.127932 -0.216256 -0.130929 0.105463 0.141200 -0.030066 0.240968 0.097147 -0.002450 -0.026839 0.060551 0.182066 0.108896 0.349656 -0.258157 -0.122185 -0.142459 0.157746 -0.066996 0.086983 0.166123 -0.445412 0.335902 -0.341724 0.271054 0.151564 0.010307 0.083400 0.069109 -0.088652 0.028811 0.063358 0.353287 0.257022 0.131638 0.080133 0.107665 -0.286881 -0.046394 -0.094205 -0.156093 0.021397 -0.092373 -0.076668 0.171474 -0.174693 -0.143636 0.167322 -0.262978 0.206712 0.194160 0.099057 0.305789 -0.156395 0.256377 0.096711 -0.241633 -0.076936 0.070003 0.002132 -0.445700 0.013431 -0.061419 0.164354 -0.041190 -0.194118 -0.224121 -0.187317 -0.168974 -0.098241 0.053500 0.043121 0.054939 -0.045168 0.386292
41 -0.145111 -0.192169 -0.255755 0.195042 -0.250718 -0.039099 -0.140755 -0.203715 0.092362 -0.019900 0.062422 -0.027198 -0.007425 -0.033354 -0.180900 -0.100505 0.202003 0.232721 -0.033722 0.373171 -0.107557 0.033407 0.080475 -0.091624 -0.117481 -0.131790 -0.202517 0.219332 -0.121971 0.060918 -0.236917 -0.179070 0.002424 -0.116373 0.060511 -0.094876 -0.261318 0.010825 0.015101 -0.070670 -0.033997 -0.042730 0.030980 -0.351412 -0.124733 0.092412 0.004620 0.157385 0.209650 0.095697 0.078319 -0.046010 -0.021178 0.068675 -0.008274 0.066504 -0.072448 -0.237689 -0.131602 -0.196383 -0.159475 -0.167687 -0.190600 -0.178309 -0.007402 0.095277 0.474317 -0.259146 0.033597 0.054341 0.221721 0.014704 -0.045912 0.156954 0.128142 -0.207580 -0.033658 -0.056647 0.030299 0.143970 0.035164 -0.139234 -0.118254 0.195119 -0.052133 0.016112 0.120154 -0.107843 0.065962 0.117781 0.234186 -0.234101 0.288259 0.081629 -0.343418 -0.333409 -0.152627 0.024914 -0.070159 -0.088939 0.326995 -0.010811 -0.103412 -0.175708 -0.100222 0.053532 -0.214022 -0.048544 0.304318 0.044710 0.207159 -0.040226 -0.238672 0.072295 -0.027498 -0.004136 -0.006035 -0.319548 -0.228078 -0.092962 -0.052542 -0.088117 -0.262432 -0.193588 0.074284 0.017850 -0.046159 0.000357
42 0.272739 0.113544 0.101910 -0.239960 0.017682 0.069984 -0.235205 0.362559 0.066076 0.013693 0.119623 0.187403 0.241569 0.205415 -0.200283 0.128684 -0.355590 -0.069414 -0.244851 0.006164 -0.003844 -0.121891 0.017770 -0.294757 0.015944 -0.340946 -0.052519 -0.113246 -0.190057 0.021868 0.225888 0.268011 -0.051714 -0.134249 -0.088126 0.106532 -0.168042 -0.000506 0.041625 0.091245 0.312205 -0.157572 0.087886 -0.317523 0.188266 -0.091967 -0.127385 -0.165867 0.296087 -0.054154 0.297336 -0.097746 0.032524 -0.097477 -0.276501 -0.204833 0.321644 -0.252830 0.115459 0.093174 0.113898 -0.102880 -0.090839 -0.218142 -0.082056 0.030727 0.041291 0.043667 0.131748 0.270144 -0.266764 0.237127 0.072410 -0.088730 -0.199341 0.000268 0.238252 -0.015101 -0.126570 -0.166598 0.307681 0.203494 0.118797 -0.172847 0.020718 0.010307 0.149256 -0.152795 0.310836 -0.170534 0.033086 -0.057469 -0.023249 -0.089807 -0.136968 -0.103967 0.015379 -0.012910 -0.193684 0.029435 0.211266 -0.211976 -0.012890 -0.017566 -0.061081 0.148683 -0.139177 0.335345 0.371785 0.159006 0.159947 -0.024752 0.079384 0.054459 -0.339898 0.122225 0.050788 0.210817 0.099404 -0.085258 -0.371929 -0.208300 0.179110 0.086894 0.082796 -0.049914 0.210970 0.047182
43 0.056396 -0.144154 -0.105498 0.115372 0.007532 0.033507 0.026621 -0.045332 -0.132895 -0.287055 -0.078988 -0.063679 0.209258 0.119030 0.042964 0.093658 -0.061828 -0.043066 -0.252177 0.047959 0.335908 0.068389 -0.115436 0.119246 -0.195959 -0.010579 -0.117171 -0.090862 0.214337 -0.185355 0.118305 -0.050203 0.435404 -0.151067 0.376205 0.419957 -0.214745 0.153995 0.411773 0.000163 -0.285297 0.012626 0.097951 0.012636 0.009549 0.071879 -0.027714 -0.338870 0.152932 -0.019898 0.201501 0.078390 0.077678 0.095138 0.060972 0.150413 0.282003 -0.025301 0.297006 0.066855 -0.272491 0.047579 0.057951 0.120731 -0.200084 0.270460 0.203285 -0.076032 -0.014939 -0.065139 -0.049099 0.428054 -0.068308 -0.112686 0.075162 0.118748 -0.128546 -0.054404 0.141886 -0.251217 -0.096414 0.104017 -0.147288 -0.226177 -0.250715 0.163874 -0.152522 0.032127 -0.051096 0.103586 0.387877 -0.297144 -0.058496 0.191787 -0.041315 -0.426251 0.407567 -0.180327 0.078657 0.017408 -0.165088 -0.002052 0.064198 -0.246899 -0.084434 0.301785 0.127633 -0.014244 0.036609 0.067359 -0.309139 -0.068188 -0.028263 0.170477 0.147428 -0.063790 0.260234 -0.167645 0.142538 -0.045946 -0.029007 -0.003143 0.386914 0.108108 -0.014177 0.239045 -0.213128 0.081300
44 -0.036379 -0.038691 -0.036656 0.377849 -0.033866 0.145665 -0.079606 -0.126882 0.377752 -0.072261 -0.191082 0.216571 0.037510 -0.105075 0.142447 0.017550 0.012843 0.133334 0.086145 0.076570 -0.250843 -0.127943 0.054393 -0.127848 0.099956 -0.052846 -0.035766 -0.217064 0.004303 0.061928 0.003916 -0.062501 0.064749 0.053619 0.110009 0.159165 0.015096 -0.207462 0.123775 0.002448 0.062754 0.159080 -0.105869 -0.273275 -0.191419 -0.005782 0.329006 -0.068021 0.072140 -0.095612 -0.042613 0.047512 0.103403 -0.211590 0.453427 -0.004506 0.169199 -0.120027 -0.133099 0.036910 0.105977 -0.036575 -0.247256 -0.110436 0.071898 0.317661 -0.025091 -0.262609 -0.442872 0.150879 -0.202059 -0.065064 -0.013340 -0.085345 -0.281569 0.158270 0.233133 0.189068 0.002857 -0.144414 0.316043 -0.191051 -0.089769 -0.106288 0.053592 -0.100051 -0.212490 0.120357 -0.326520 -0.030761 0.095878 0.030836 -0.101652 0.224666 0.129178 0.111502 0.072384 0.130858 -0.017460 0.110234 -0.374147 0.010635 0.129748 -0.136741 0.071663 -0.082999 0.257150 -0.199645 0.119853 0.081954 0.056092 -0.241768 -0.068780 0.213457 -0.042821 -0.395969 -0.199304 -0.032915 -0.507202 -0.220446 -0.111838 0.284205 0.162569 0.000693 -0.280442 -0.288324 0.055705 -0.303798
45 -0.005041 0.256542 0.068142 0.135663 0.084797 -0.380771 0.051405 0.208214 0.132455 -0.091333 0.162158 -0.088225 0.191029 0.279492 -0.046803 0.161145 0.299859 0.170207 0.062658 -0.035393 0.235217 -0.211098 0.137493 0.020767 0.127407 0.017386 0.030345 -0.102420 0.019455 0.380501 -0.107677 0.192721 0.160168 -0.264196 0.246239 0.327236 0.324122 -0.231334 0.238127 0.134730 0.028803 -0.091484 -0.087620 -0.128746 -0.019169 0.128171 0.345755 -0.187710 0.044182 -0.164603 0.130866 -0.045529 -0.047396 -0.196259 -0.106259 -0.010608 -0.393802 0.058271 -0.064727 -0.246259 -0.191778 -0.172928 0.190960 -0.006517 0.041564 0.123195 0.211314 0.150479 0.042571 -0.153736 0.129696 -0.113055 0.164026 -0.056948 -0.082735 -0.081370 -0.059453 -0.014822 0.024674 0.277924 -0.078120 0.041036 -0.118770 0.019133 -0.328426 -0.070331 -0.007739 0.132633 -0.169509 -0.189559 -0.025099 -0.078527 -0.368543 -0.397790 -0.066117 0.025703 0.029035 0.263743 0.112363 0.098549 0.077318 -0.206618 -0.125127 0.272161 -0.120002 0.120025 0.048276 0.123290 -0.046094 0.009925 0.212288 0.037407 -0.131231 0.053869 -0.005893 -0.357273 0.016588 -0.162698 -0.016681 0.014218 0.142585 -0.084147 -0.107698 0.014895 0.019606 0.006513 -0.034271 -0.056923
46 -0.166672 -0.097900 -0.138539 -0.072886 0.111255 -0.107176 -0.247932 -0.053760 0.091855 -0.089153 -0.254890 -0.067765 0.204290 -0.023309 -0.396893 0.034497 -0.071452 -0.201755 -0.005140 0.027704 -0.122602 0.124788 0.150084 -0.048228 0.133348 0.048876 -0.008164 -0.187568 0.197886 0.052245 -0.136992 -0.156288 0.056179 -0.404818 0.183833 -0.341335 0.072482 -0.008341 -0.003922 0.218757 -0.029603 -0.107718 0.063241 0.028182 0.240173 -0.291181 0.313657 -0.075295 -0.132070 -0.310003 0.389938 0.195495 -0.055763 -0.098163 0.055000 0.075375 0.201786 -0.085089 -0.177690 -0.027636 0.234911 -0.096722 0.161663 -0.041620 0.052332 0.123497 -0.142633 -0.062366 0.069622 -0.318773 0.019855 0.026935 -0.214219 0.139153 0.119336 -0.187424 0.136428 -0.081597 -0.069667 0.084967 -0.114243 0.042784 -0.116530 -0.041671 0.130919 -0.025038 0.011240 0.168958 0.226392 -0.030340 0.061917 0.073698 0.193928 -0.292634 0.008608 -0.054294 -0.108398 0.090124 -0.019947 0.050903 -0.150430 -0.167988 0.185045 -0.092569 -0.028998 -0.139446 0.138424 -0.217582 0.224575 0.063196 0.112145 0.067078 -0.117423 -0.150157 0.209192 -0.292711 -0.132016 0.003706 0.144513 0.068024 0.137061 -0.340928 0.036469 0.070186 0.155992 0.407037 -0.020893 0.162318
47 0.170065 -0.034455 0.169660 -0.027795 0.102352 -0.115976 0.131234 -0.094029 0.149006 0.219237 -0.256380 0.064181 0.285311 -0.020617 0.139385 -0.017421 -0.328292 -0.305782 -0.146411 0.116213 0.045382 0.077425 0.256267 0.262724 -0.086904 -0.055952 -0.211602 -0.059246 0.138745 0.086492 -0.370902 0.053821 0.222662 0.327822 0.044522 -0.166513 0.207120 0.081161 0.137670 0.307551 0.296716 0.052999 0.106852 -0.333529 0.346328 0.011123 0.177048 -0.130951 0.197111 0.108413 -0.080515 -0.063035 -0.158258 -0.013661 -0.390131 0.075996 -0.026326 0.109279 0.112616 -0.130580 -0.021848 0.069047 -0.024302 -0.101715 -0.048334 -0.287875 0.014030 -0.264539 0.284760 -0.013415 0.048333 0.169802 -0.111931 0.085092 -0.031072 0.042445 -0.309197 -0.062202 -0.090910 -0.139761 -0.002756 -0.065923 -0.204192 -0.069622 0.269363 0.076930 0.228342 0.089062 -0.114022 0.014694 -0.128554 0.107161 -0.140150 -0.130803 -0.225614 -0.285005 0.089820 0.101693 0.075136 -0.040649 -0.059715 0.063882 -0.240251 0.032777 -0.354763 -0.663088 0.072693 0.011370 -0.229591 -0.125427 0.152636 0.029360 -0.051579 0.072929 -0.060669 -0.008432 -0.179470 -0.125191 -0.028279 -0.115776 -0.241789 0.055140 0.037971 -0.100704 0.026640 -0.295665 -0.081718 0.187993
48 0.019107 0.263800 -0.019851 -0.092970 -0.048328 0.004977 0.202107 0.022296 -0.281704 -0.227636 0.110311 0.117330 0.022150 0.419354 0.202208 0.093761 0.010709 -0.214518 -0.047697 -0.038904 0.156814 0.426526 -0.105671 -0.066094 -0.089576 -0.160002 0.116123 -0.179621 -0.311012 0.021071 -0.190453 0.097348 0.001015 -0.261759 -0.100726 0.128705 0.025434 -0.012218 -0.288454 -0.080066 0.039350 0.179689 -0.111623 0.173102 0.067855 0.218401 -0.000685 -0.035676 0.130999 0.050060 0.155692 0.121516 -0.114065 -0.146972 0.024441 0.117234 -0.041672 -0.010895 -0.161127 -0.170252 -0.298871 -0.026165 -0.008393 0.089779 -0.163876 0.393101 -0.069646 -0.102293 -0.042769 0.023178 0.011848 0.028737 -0.026203 0.175957 0.001025 0.128627 -0.153048 0.078345 0.068844 0.011080 -0.200606 0.045747 -0.319689 0.025355 -0.156006 -0.079855 0.016273 0.162642 0.149924 0.116303 0.166074 -0.208269 0.203964 -0.200124 -0.007500 -0.056059 -0.091610 0.127972 -0.221094 0.035474 -0.031920 0.072662 -0.118609 -0.223779 -0.115272 -0.336718 -0.037340 0.012405 0.099063 0.073300 0.063610 0.085798 -0.246847 -0.441963 0.275161 -0.184546 -0.307877 0.166706 -0.129262 -0.148093 -0.010377 0.025269 -0.083739 0.073986 -0.151889 -0.080060 0.111782 0.138802
49 0.024926 0.120905 -0.039861 0.058326 -0.161104 -0.004245 0.010246 -0.320356 0.243290 -0.357048 0.056883 -0.210166 0.246159 0.010026 0.221511 -0.165180 0.156216 -0.099829 0.009273 0.116819 0.280121 0.094774 -0.106645 0.306290 0.155028 0.053850 0.122286 -0.020398 -0.105068 0.034490 0.144871 -0.368379 -0.154534 -0.309540 0.225417 0.249896 0.019116 -0.116119 -0.101060 -0.258624 0.080300 0.123757 0.128890 -0.231625 -0.137589 -0.154563 0.030732 0.049586 -0.009316 0.123936 0.080008 0.037505 0.045452 0.152037 -0.234900 0.037617 -0.075946 0.332884 0.188199 -0.075617 0.078711 -0.019328 0.101335 -0.060231 -0.148031 -0.084273 -0.268546 -0.015492 -0.008313 0.083772 0.095779 -0.092992 -0.044894 0.185457 -0.002144 -0.082809 0.459000 0.211528 -0.129692 -0.054195 0.083253 -0.231081 0.240184 0.169077 0.139054 0.063861 -0.114556 0.298346 0.093563 -0.008526 -0.149806 0.087710 0.172553 0.026830 0.197839 -0.431350 0.088125 -0.281656 -0.058837 -0.165060 0.399274 0.092443 -0.060461 0.179544 0.116805 0.048903 0.091290 0.387349 0.129734 -0.170176 0.110737 -0.209910 -0.154973 -0.097968 0.089522 -0.032616 -0.223333 0.200683 0.107656 0.096666 -0.042635 -0.041293 0.217087 0.189430 -0.065686 -0.072414 -0.181039 -0.066743
50 0.141044 -0.023801 -0.253099 -0.113671 -0.019584 0.174554 -0.051641 -0.285079 0.123887 -0.022649 0.214172 -0.392955 0.044116 0.055261 -0.072638 -0.257935 0.068099 0.131672 -0.157977 -0.117746 -0.101151 0.020374 -0.058701 0.121662 -0.098361 -0.185136 -0.081199 0.129615 -0.119153 0.271412 -0.105651 -0.266572 0.108903 -0.031332 0.297087 0.023711 -0.016594 0.003857 -0.058552 -0.170588 0.096475 -0.031823 -0.166979 0.073007 0.394891 -0.272655 0.066042 -0.088092 -0.374143 -0.115305 -0.224019 -0.047468 -0.190127 -0.062921 -0.189906 -0.178173 0.260410 -0.010972 -0.042622 -0.252236 -0.160765 -0.015724 0.237917 -0.029999 0.271676 -0.059524 -0.021475 -0.150111 -0.083314 0.252615 -0.229744 0.089257 0.116578 -0.007766 0.017087 0.218202 0.229330 -0.110778 0.060115 0.107730 0.116076 0.187340 0.078469 -0.039789 -0.150639 0.019068 -0.145553 -0.165825 0.201172 0.277814 0.228123 -0.085515 -0.043998 -0.110384 -0.082442 0.161965 0.125720 0.209283 0.370720 -0.180631 0.002401 0.004298 -0.151314 -0.020192 -0.303686 0.104136 0.242566 -0.147520 -0.213398 0.104969 0.003248 0.018152 0.054537 -0.412200 0.140793 -0.214489 0.129203 0.029729 0.182675 0.059637 0.102581 0.018130 -0.053943 -0.332424 -0.228378 -0.048708 0.602633 0.112912
51 0.055152 0.029367 -0.114705 0.027483 0.217272 0.360248 0.116747 0.287271 0.315739 0.047303 -0.126669 -0.100960 0.375551 -0.210122 -0.262833 -0.276131 0.016805 0.146002 -0.086193 -0.116931 -0.075271 0.322843 -0.023338 0.330800 -0.236247 -0.121316 -0.161434 0.205499 0.141744 0.018595 -0.008236 -0.059979 0.181311 -0.175655 0.079069 0.113458 0.104638 -0.222110 -0.074678 0.300299 0.258598 0.045477 0.208460 -0.230590 0.033797 0.288907 0.058500 0.237576 0.053797 0.080636 0.016869 0.232273 0.159438 0.042928 0.148865 0.123968 -0.118236 -0.020574 -0.156488 0.022936 0.242729 0.259967 -0.257448 -0.148797 -0.055498 0.144702 0.333886 0.347004 -0.137688 0.029738 -0.237707 0.229037 -0.307710 -0.218846 0.108730 -0.013800 -0.158031 -0.173284 -0.260477 0.038452 -0.097621 -0.108706 -0.260225 0.085023 -0.193787 -0.229720 -0.280483 0.277385 0.093677 0.253377 -0.152136 0.231920 -0.323252 0.134122 -0.069214 -0.044012 0.109045 0.125613 -0.111471 -0.388120 0.031483 0.277247 0.205320 -0.148943 -0.131724 -0.153670 -0.192310 0.154632 -0.114564 -0.219617 0.021567 -0.203745 -0.032538 0.157591 0.152301 0.262626 -0.277745 0.029161 -0.015645 0.078800 -0.319237 -0.254279 -0.256444 0.189307 0.036595 0.260436 0.245570 -0.249553
52 -0.044632 -0.038799 -0.243669 0.056164 0.019334 -0.032849 0.049388 -0.105641 -0.017151 -0.162303 -0.224747 0.158603 0.036023 -0.358756 -0.121143 -0.313184 -0.194276 -0.008636 -0.055758 -0.239361 -0.115141 -0.289607 -0.015896 -0.084531 -0.227566 -0.102026 0.201182 -0.228814 0.015215 0.141547 0.001178 0.111039 -0.270267 -0.033273 0.074899 -0.256020 -0.084138 0.152531 0.131159 -0.438291 -0.141716 -0.154325 -0.433081 0.038498 0.175019 -0.086912 -0.003825 -0.149157 0.285793 -0.089976 0.247769 -0.011130 -0.087167 -0.172563 -0.116031 0.056391 -0.293450 -0.161518 0.052104 0.062127 -0.181290 -0.032954 -0.023303 0.161450 0.089588 0.140165 0.130548 -0.047425 -0.353167 0.278305 -0.333237 -0.022337 0.018455 0.309543 0.282282 0.158999 -0.082747 0.034541 -0.319085 -0.158270 0.100936 -0.008877 -0.062911 -0.212249 -0.132863 -0.018569 0.049386 0.003490 -0.073959 -0.297554 0.046128 -0.007767 -0.001796 0.079775 0.346821 -0.006132 0.383334 0.214464 0.101163 0.023792 0.144915 -0.383512 -0.183749 0.061369 -0.222998 -0.117034 -0.208782 0.071338 -0.012004 -0.390582 -0.099785 -0.065207 -0.371143 -0.049132 0.246957 0.287119 -0.148412 0.094779 0.027700 0.254552 0.226666 0.016865 -0.046009 0.196462 0.425030 -0.065112 0.041778 -0.091717
53 0.125535 0.095786 0.107796 -0.151494 -0.154435 -0.211778 -0.386756 -0.235156 -0.078994 0.171420 0.083370 -0.407677 -0.094422 -0.115792 -0.006472 0.321708 0.145289 0.113325 -0.016606 0.143870 -0.095145 -0.087039 0.043996 -0.165140 -0.241644 0.288690 -0.057346 0.085047 0.088421 -0.081878 -0.174118 -0.044970 -0.133096 -0.183034 0.086734 -0.122595 0.235075 -0.348721 -0.003426 0.154853 0.115486 -0.100112 -0.168201 0.063257 0.308870 0.125543 0.202189 0.017546 -0.088669 -0.196041 0.289485 0.079813 -0.117298 0.030181 0.187932 0.292498 0.072446 -0.108723 0.032320 0.020456 -0.059886 0.032041 0.107042 -0.018081 0.062431 0.108659 -0.111963 -0.160414 -0.045961 0.375824 0.215638 -0.131207 -0.082016 0.059679 -0.084225 0.037296 -0.027579 -0.244875 -0.194097 0.028254 -0.196016 0.194813 0.003624 -0.260104 -0.288527 -0.170209 0.031126 0.096885 -0.133285 0.172653 0.031929 0.018417 0.073564 0.263124 0.210051 -0.180455 -0.061005 0.158623 -0.092431 -0.114584 0.042310 0.322026 -0.332293 0.139372 0.272426 0.100193 -0.117477 0.130298 0.037211 0.016001 -0.122347 -0.156869 -0.046449 -0.196485 -0.083992 -0.133868 -0.064000 0.161251 0.018745 0.023016 -0.132500 -0.186220 0.028779 0.021561 -0.012076 0.017420 -0.087487 0.132429
54 0.075156 0.119415 -0.088530 0.076791 -0.036865 -0.072095 -0.135896 -0.129457 0.167753 0.158492 0.167651 0.203303 -0.189798 -0.134763 -0.272088 -0.177965 0.078030 -0.136920 0.057797 0.079119 0.235361 0.140970 0.161574 0.040538 0.113879 -0.004924 0.025814 -0.076542 -0.011798 0.095857 0.017459 -0.260153 0.136196 -0.199388 0.016120 -0.203580 0.239694 -0.087498 -0.437537 0.353182 0.132343 -0.242200 -0.082380 0.261099 0.172037 -0.106881 0.095989 -0.288459 -0.262439 -0.140868 0.235588 0.036233 -0.033973 -0.064328 -0.024030 0.099296 0.157168 0.010118 -0.109432 0.288155 -0.146384 0.261656 -0.051948 0.060315 0.138724 -0.058558 0.105902 0.173144 0.042307 0.014196 0.298478 0.022168 0.072149 0.101096 0.375718 -0.147529 0.120402 -0.070392 -0.144856 -0.017347 -0.035056 -0.043995 -0.152700 0.159107 0.082491 -0.013702 -0.224386 0.071874 -0.191739 -0.067578 0.063922 -0.102161 -0.131776 0.177091 0.208028 -0.148264 -0.036476 0.019371 -0.008188 -0.045438 0.344639 0.004829 0.040691 -0.244302 0.059947 0.161463 0.150441 0.152355 0.063832 0.436413 -0.140331 0.076542 -0.155112 -0.140785 -0.121832 -0.226589 0.002083 0.306260 -0.117953 -0.051318 0.240043 0.138075 0.094770 -0.230914 0.318625 -0.015480 0.230466 0.236997
55 -0.056142 0.264971 0.016429 0.298397 -0.255715 -0.034871 0.151847 -0.011611 -0.095427 -0.047300 -0.175481 0.147671 -0.025196 0.235231 0.000590 -0.134542 -0.084148 -0.082122 -0.063393 -0.099098 0.290972 -0.185475 0.250014 0.155603 -0.027935 0.150467 -0.249874 0.069149 0.167952 -0.238392 -0.131377 0.252336 -0.043929 -0.080059 0.147096 -0.082885 -0.005472 -0.075184 0.171985 -0.039848 0.055571 -0.006784 -0.127278 -0.111938 -0.040739 -0.197343 0.139084 -0.138542 0.085370 0.165529 0.169678 0.033458 -0.050452 -0.043191 0.092544 -0.045143 0.397402 0.143689 0.052764 0.053806 -0.006632 0.113766 -0.017942 -0.042234 0.171559 0.139664 -0.192060 -0.165162 -0.112333 0.270291 0.060889 0.097426 -0.243646 0.141207 0.095025 0.112322 0.004143 -0.108453 0.187126 0.231695 0.136975 0.181305 -0.133337 0.510331 -0.280460 -0.078960 -0.110451 -0.013511 0.079290 0.092690 -0.221152 0.232326 0.009891 -0.122708 0.021634 -0.159980 -0.143488 0.024343 -0.116228 -0.066497 0.149136 -0.120551 0.213387 -0.089744 -0.176925 0.094572 -0.099647 -0.105744 -0.185614 -0.075733 0.031344 0.003121 0.040663 -0.228698 -0.254567 0.166825 0.146465 0.106279 -0.237850 0.091155 0.013286 -0.063480 -0.023444 -0.074163 -0.060234 -0.040043 -0.059589 0.035516
56 -0.159036 -0.019494 0.218873 0.078758 -0.114214 0.019221 0.312244 -0.014385 -0.046533 0.254029 0.114349 -0.062273 0.041616 -0.135441 0.084968 0.048818 0.075719 -0.267381 0.177206 -0.170473 0.026975 -0.102589 0.118259 0.072576 -0.035567 0.087686 0.022873 -0.343190 0.069734 0.198567 -0.219186 -0.060923 -0.048606 -0.344522 -0.006990 0.037746 0.015345 0.089985 -0.038601 -0.093189 -0.177401 0.147936 -0.072425 0.014197 0.061620 0.056967 0.132585 -0.311955 0.029994 0.176748 -0.029162 -0.062956 -0.000076 -0.008832 -0.227729 -0.078152 -0.006303 -0.244551 -0.197682 -0.004837 0.108285 -0.045306 -0.094814 -0.199935 0.155638 -0.004375 0.156599 0.057653 0.186590 0.067813 0.106310 -0.205953 -0.137317 -0.294226 0.087776 0.058332 0.108967 -0.002472 0.051038 0.156417 -0.021392 0.155060 -0.270959 -0.077573 -0.083192 -0.147724 -0.183936 -0.027934 0.219869 -0.007438 0.246764 -0.083451 -0.189523 -0.049466 -0.127025 -0.036064 0.255593 0.311795 -0.053883 -0.042487 -0.124098 0.224666 -0.152333 0.127142 0.053997 0.344459 0.009937 0.015609 0.130797 0.096274 0.204761 -0.278873 0.214579 -0.022872 0.116117 -0.390173 -0.033018 0.232865 0.211982 -0.026204 0.241270 -0.127341 -0.075508 -0.205789 0.086065 0.098904 -0.317193 -0.078298
57 -0.026500 -0.002964 0.006434 0.142186 0.209774 0.031424 0.130506 -0.013696 0.111735 -0.011379 0.037714 -0.264911 0.117225 0.305493 -0.157367 0.284467 -0.313563 -0.024513 -0.022578 -0.139523 -0.247990 0.157374 0.401737 -0.047352 0.252712 -0.049421 -0.004829 0.086048 0.281488 0.218386 -0.176640 -0.261363 -0.385549 -0.058785 0.245553 0.101788 -0.002781 0.044268 0.026968 0.158630 -0.034517 -0.030560 0.042440 0.104530 0.041519 0.145222 -0.220989 0.282033 0.028140 -0.234090 0.117977 0.248816 -0.230377 0.082154 0.179442 -0.262425 -0.044669 -0.075458 0.024195 -0.138325 0.065797 0.021263 -0.227053 0.314031 -0.191089 0.222049 -0.106123 -0.052296 -0.197674 -0.187770 0.100863 0.107237 0.018933 0.022542 -0.013910 0.054061 -0.227318 -0.138255 -0.021257 -0.105953 0.269894 0.189041 -0.028828 0.011011 0.099467 -0.114425 -0.158992 -0.250738 0.089949 -0.267803 0.201091 0.156112 -0.068236 0.017882 0.186241 0.117429 0.124072 -0.221070 -0.386353 -0.181572 0.323194 -0.248499 -0.397143 -0.069641 0.075955 0.272586 0.114432 -0.119334 -0.157377 0.131000 0.013395 -0.171659 0.182504 -0.202410 -0.018246 -0.326746 -0.023004 -0.153473 0.004032 -0.055135 -0.114648 0.151849 0.016495 0.178328 0.106723 -0.131961 -0.120437 -0.075892
58 0.003141 0.035224 -0.085767 0.227246 -0.073179 -0.004428 -0.014917 -0.010488 0.123713 0.234547 0.026220 0.050895 0.242727 0.050330 0.025126 0.317058 0.197532 0.126632 0.076091 0.176337 -0.314021 -0.387812 -0.254449 0.139856 -0.046181 -0.289400 -0.171436 -0.171573 -0.102358 -0.132623 -0.031595 -0.064560 0.069643 -0.231862 -0.201972 0.055210 0.157149 -0.102865 0.067672 0.108626 0.037340 0.092907 -0.380710 -0.033721 -0.099772 -0.082383 -0.101436 -0.111004 -0.088170 0.062095 0.427436 -0.048209 -0.029875 0.066896 -0.066985 -0.388120 -0.050583 0.106985 -0.298836 0.122136 0.006372 0.051825 -0.001376 -0.115325 -0.356409 0.180813 0.044175 0.080645 -0.067515 -0.010983 0.180791 0.268155 -0.346665 0.027699 -0.135048 -0.165792 -0.219754 0.146523 -0.185163 -0.192040 -0.183369 0.171659 0.019709 0.084568 0.075097 0.102732 0.158545 -0.368858 -0.041251 0.150454 0.300903 -0.034018 0.124262 -0.151939 0.165230 -0.071826 0.144532 -0.251589 0.316988 0.261082 0.129909 -0.017284 0.083888 -0.206477 -0.159830 -0.158449 -0.016886 0.145338 -0.236364 -0.204653 -0.139236 0.014613 0.145248 -0.136215 0.076666 -0.215789 0.008710 0.422906 0.269872 0.125474 0.077797 -0.259224 0.187536 -0.188737 -0.094143 -0.014664 0.179480 -0.042596
59 0.048836 0.211852 0.248941 0.225928 -0.264379 -0.029538 0.022902 -0.081544 0.243469 0.143053 -0.219252 0.024099 -0.132262 -0.209462 -0.013523 -0.027037 -0.192592 -0.136673 -0.058569 -0.266468 -0.274999 0.186491 -0.176865 -0.002053 -0.177717 0.176911 0.096594 0.044484 0.101355 0.254521 0.184477 0.015640 0.104664 -0.530234 -0.217024 0.206791 -0.003795 -0.229238 -0.110656 0.058398 0.357020 0.072960 0.353795 -0.076526 0.132734 -0.178639 0.129619 -0.146336 0.011501 0.029429 -0.093338 -0.233564 0.034357 -0.169460 -0.072557 -0.097340 -0.295507 -0.280917 0.057949 -0.192655 0.181288 -0.035902 -0.163554 0.078355 0.430220 0.229324 -0.113674 0.320537 -0.054641 -0.012976 0.065494 0.216431 0.180873 0.243903 0.057006 -0.072496 -0.166841 -0.094120 0.363814 -0.053913 -0.444159 0.166212 0.049628 -0.011285 -0.069166 -0.048101 -0.003576 -0.175721 -0.089239 0.309650 -0.066627 -0.011199 0.381783 0.127273 -0.061617 -0.005220 0.225301 0.067665 0.086709 0.247724 0.290631 -0.216639 -0.120451 -0.115366 0.093074 -0.127967 0.224460 0.098117 0.002347 -0.071911 -0.072866 0.122093 0.219718 -0.102953 -0.013586 -0.088962 0.236251 -0.328971 -0.131741 0.039780 0.049392 -0.080427 -0.078629 -0.100792 0.146961 -0.072939 -0.102854 0.167067
60 0.001061 0.184759 -0.000724 -0.010315 -0.076554 0.001938 -0.045179 -0.082919 -0.224470 -0.077986 -0.417941 0.100849 0.003874 0.068523 0.352811 -0.151930 0.183969 -0.175053 0.002845 0.144752 -0.068031 -0.125362 0.111055 -0.164878 0.084429 -0.169074 0.186409 -0.279647 0.193868 0.183291 0.032515 -0.105818 0.195799 0.218085 0.306500 -0.088233 0.234090 -0.286886 0.020393 -0.193517 -0.018329 0.136978 0.065771 -0.113968 0.192770 0.216135 0.012824 -0.085266 0.008203 -0.030911 0.113828 -0.089985 0.138853 0.011288 -0.330812 -0.162243 -0.183186 -0.061693 0.035735 -0.107503 0.177885 0.094507 -0.136128 -0.150316 0.272632 -0.081462 0.199692 -0.167711 -0.000449 0.115281 0.016317 0.173638 -0.045390 -0.049149 -0.032657 -0.073409 -0.184011 -0.086653 0.121829 0.173020 -0.015325 0.025267 0.218243 -0.000403 -0.069871 -0.060539 -0.228153 0.186868 0.277824 0.087875 0.072385 0.116912 0.096087 -0.022479 -0.077401 -0.121385 -0.072179 -0.216679 -0.087638 -0.080199 -0.165397 -0.018993 0.107446 -0.131131 0.213860 -0.144057 -0.203247 0.119718 -0.215617 0.057151 0.114943 0.426156 -0.062772 -0.018463 0.005567 -0.142708 0.084722 0.018301 0.164061 0.137881 -0.282862 0.215427 -0.280738 0.112450 0.081701 0.026605 -0.040493 0.157656
61 0.135728 0.158917 0.159814 -0.316673 -0.109736 0.159452 0.069573 0.046317 0.032567 -0.451128 -0.004154 -0.021041 0.565160 -0.457402 -0.266710 0.108710 0.116214 -0.180662 -0.229581 0.256237 -0.010443 0.074348 -0.141899 0.130391 0.062418 -0.222107 0.129249 -0.413956 0.264497 -0.271794 0.131593 -0.315573 0.103748 -0.043711 -0.141320 0.252007 -0.378467 -0.115089 0.158253 0.004723 -0.036180 -0.301994 -0.257243 0.213989 -0.056331 0.038877 0.040576 0.007674 0.205572 0.119512 -0.123385 -0.005679 -0.078543 0.081219 0.388355 0.226085 -0.104048 -0.160038 0.018136 -0.210987 -0.137988 0.149644 -0.186585 -0.020311 -0.025416 0.017714 0.166053 -0.091588 0.242899 0.100466 -0.025740 0.074733 -0.189154 0.245659 -0.031467 0.144782 0.219547 0.090219 0.062652 -0.049069 -0.138306 -0.277297 -0.047027 -0.304367 0.232620 -0.218316 -0.263034 -0.337741 -0.232054 -0.269926 -0.156541 0.122246 -0.292024 -0.098928 0.082141 0.149142 -0.263309 -0.062831 -0.003992 -0.059936 -0.011515 -0.152568 -0.094005 0.278562 -0.161382 0.044539 -0.297668 -0.028845 -0.165524 -0.057778 -0.243043 0.296564 0.109722 -0.323274 -0.367876 -0.203721 -0.194868 -0.170717 -0.062878 0.017018 0.092126 0.088772 -0.227583 -0.284769 -0.192421 0.016777 -0.110301 0.191068
62 -0.217424 -0.068885 0.053441 -0.107923 0.318985 0.332369 -0.310737 -0.085983 -0.219614 0.283631 -0.206967 0.090105 0.062152 0.243740 -0.186148 -0.253548 -0.105883 0.125144 0.049313 -0.271367 0.259474 -0.119311 0.017389 -0.121703 -0.151586 -0.127832 -0.064338 0.062633 0.203045 0.108749 0.151591 0.068310 -0.020952 -0.155021 -0.215155 0.153743 0.035208 -0.273881 0.254897 -0.116882 0.165487 -0.219083 -0.170156 0.150274 -0.276214 0.253827 -0.086599 -0.104657 -0.313269 0.102174 -0.062890 0.020151 0.043236 -0.016080 0.040054 0.035302 -0.023925 0.006667 -0.084079 -0.036306 -0.227588 -0.273244 0.003122 -0.207832 0.075528 0.002426 -0.115233 0.180628 0.129300 0.017371 0.150727 -0.002373 0.079152 0.299928 0.401448 0.207553 -0.010102 -0.063364 -0.084122 0.322804 -0.003069 -0.107226 0.238557 -0.027660 0.269287 0.268518 -0.084333 -0.035547 -0.025212 -0.161927 0.273162 0.050002 0.403831 -0.069648 0.174717 -0.187555 0.132587 0.091229 0.118012 -0.453915 -0.064219 -0.103139 0.056454 0.046645 -0.147410 -0.106770 -0.235804 0.118139 0.130816 -0.069178 -0.065213 -0.073879 0.273583 0.247537 0.235797 -0.080582 -0.123146 0.042649 -0.234028 -0.242245 -0.188387 0.054721 0.061601 0.033128 -0.554376 0.034379 -0.235512 0.153620
63 0.289085 -0.235586 0.009876 0.328653 0.257765 0.184578 -0.229851 -0.106937 -0.105310 -0.309906 -0.174918 0.000073 0.202190 0.198086 0.079082 -0.212535 0.257783 -0.107221 -0.155405 -0.207219 -0.020680 0.187235 0.251349 0.154645 0.001121 -0.034143 0.284852 0.106434 -0.034196 0.022281 -0.275713 0.132310 0.148651 0.112716 0.026326 0.347872 -0.105478 0.052287 -0.006510 -0.012858 0.163273 0.159915 -0.246712 0.059816 0.069249 0.181909 0.143005 -0.121247 -0.252110 0.265771 0.339651 -0.170567 -0.172789 -0.170720 0.120434 -0.128153 -0.246003 -0.200358 0.039869 0.076259 -0.115547 0.158660 0.239168 0.136620 0.064458 -0.076785 0.030117 -0.040954 -0.187366 -0.122618 0.207557 0.238160 0.075669 -0.103046 0.023903 -0.101313 -0.154423 0.049864 -0.094379 -0.021872 0.134755 0.224380 0.188351 -0.124530 0.373503 -0.148190 0.096282 -0.310108 0.094753 -0.018101 -0.246443 -0.243845 0.024802 0.082586 -0.224107 -0.081892 0.167987 -0.054856 0.128565 0.058289 -0.104322 0.080139 0.364362 0.043652 -0.008923 -0.011970 0.034730 -0.034277 0.317028 -0.358706 0.125140 -0.115759 0.173117 -0.241729 -0.174327 0.349903 0.089711 0.100127 -0.054405 -0.214056 -0.132363 0.144773 -0.066950 -0.060299 0.314836 0.034613 -0.174485 0.028510
64 -0.114638 0.369788 -0.044558 -0.332999 0.002814 0.000174 0.133369 -0.001140 0.061355 0.029607 -0.134519 0.052613 0.149465 0.220755 0.160782 -0.184703 0.076804 -0.068569 0.022547 0.007049 -0.214372 -0.244013 0.086006 0.176435 0.024228 0.027982 -0.328843 -0.001330 0.056077 0.313235 -0.133386 -0.123324 0.069167 0.111971 0.033990 0.078245 -0.290145 -0.079449 -0.069274 0.022569 0.209594 -0.173093 -0.159692 -0.026397 0.079972 -0.029354 -0.198452 0.175090 0.124033 -0.174345 0.400773 0.232130 -0.056225 -0.017166 -0.213346 -0.280616 0.161669 -0.151274 0.213895 0.108914 -0.120501 -0.057658 0.077253 -0.053615 -0.116885 -0.062548 -0.104566 -0.446428 0.010614 -0.190788 0.224209 -0.139130 0.014464 -0.083213 -0.055209 0.036727 -0.123361 -0.045985 0.291331 0.056866 -0.010410 0.018593 -0.272901 -0.163463 -0.046302 -0.181591 -0.275552 0.023993 -0.178552 0.105224 -0.209227 -0.289637 0.163711 0.155909 -0.078542 0.083665 0.157308 -0.123622 0.432944 -0.175201 0.273241 -0.013188 0.230416 0.013059 -0.115783 0.105595 -0.058797 0.121650 0.271460 0.149287 0.026456 -0.095037 0.087621 0.026956 0.094655 0.040668 -0.164289 -0.093055 -0.247125 0.206848 0.133460 -0.087492 -0.068421 0.214116 0.104641 -0.164231 -0.194090 -0.081890
65 0.007106 -0.050685 0.117920 0.126084 -0.158230 -0.014049 -0.031528 0.096389 -0.052571 -0.026077 0.275383 -0.063995 0.241685 -0.093125 0.147664 0.005692 0.277484 -0.038574 -0.024725 0.116481 0.096448 0.045630 0.296077 0.058114 0.030870 0.080131 -0.150266 -0.052053 0.164073 0.246760 0.036456 0.259911 0.046638 -0.128980 0.072165 -0.332496 0.126664 -0.266258 -0.125529 -0.181719 0.356091 -0.117205 0.089575 -0.071324 0.047476 0.073349 0.146854 -0.051493 0.182969 0.122830 -0.345406 0.141285 0.244737 -0.057135 0.056684 -0.242307 0.097626 -0.052210 0.092662 -0.130210 -0.291473 0.288819 0.215104 -0.195316 -0.011795 0.040241 -0.077817 -0.055099 0.058049 -0.023925 -0.356317 0.042006 -0.150002 -0.165607 -0.053265 0.203674 -0.164427 0.088555 -0.229081 -0.193062 0.014699 0.117908 0.267755 -0.104749 0.274542 0.096157 -0.045799 0.171260 -0.267424 -0.061258 0.039154 0.135268 0.231438 -0.171481 -0.181077 0.184382 0.147228 0.004047 0.107697 0.067895 0.326555 -0.294307 0.050943 -0.542145 -0.007829 -0.007736 -0.146775 -0.176616 0.047217 0.184925 -0.171665 -0.010461 -0.067628 0.021435 -0.022871 0.073372 -0.084849 0.168019 -0.005273 0.072960 -0.167694 -0.079305 -0.048011 -0.049246 0.040585 0.067303 -0.448926 -0.081815
66 -0.018742 -0.208476 0.017968 -0.090820 -0.016882 -0.191696 0.216977 0.076865 -0.030560 -0.170231 0.095610 -0.006490 0.169269 0.081747 0.058665 -0.363658 -0.273219 -0.084891 -0.217802 0.214902 -0.120733 0.024104 -0.292572 -0.214143 0.079067 0.251246 -0.114556 0.269813 0.197987 0.112598 -0.425553 0.078711 -0.283379 0.027468 -0.112565 0.188967 -0.051644 -0.283339 0.025710 0.039175 0.038671 -0.262899 -0.175435 -0.095232 0.163118 0.167611 0.116555 -0.246353 -0.022615 -0.128953 -0.162692 -0.071283 0.222565 -0.200814 -0.006539 -0.171833 -0.079465 -0.170429 -0.334302 0.185342 0.229177 0.096388 0.143193 -0.097833 -0.029903 0.433032 0.165890 -0.035653 0.058372 0.359115 0.184877 -0.036561 0.036460 0.234381 -0.157316 -0.272572 0.043923 0.199787 -0.040080 -0.134226 -0.084882 -0.070581 0.006125 0.212797 0.198121 0.149615 -0.295906 0.119739 0.035660 0.140934 0.104312 0.108681 0.148051 -0.162219 -0.027708 0.003270 0.264604 -0.219533 -0.073200 0.095244 -0.127779 0.023065 0.085635 0.243953 -0.320412 0.100853 0.013889 0.209414 0.130075 -0.030230 -0.462415 -0.123567 -0.047586 -0.039529 -0.088159 -0.033853 -0.161397 -0.027145 0.010300 -0.011826 0.078706 0.018026 -0.011074 -0.134047 0.096587 0.065065 0.054186 0.149527
67 0.220708 -0.219132 0.032587 0.106051 0.500477 0.098544 0.274645 0.154713 -0.230734 0.210338 -0.107693 -0.128395 0.272960 -0.049835 -0.159461 -0.143388 -0.104882 -0.281223 0.031982 0.089709 0.027072 -0.130359 -0.340617 0.018933 0.067286 -0.133473 -0.253586 0.102727 0.111336 0.082993 -0.084708 0.086086 -0.236961 -0.087026 0.056733 0.055154 0.033123 0.010001 -0.175613 -0.076047 0.155137 0.118771 -0.072667 -0.223306 0.006686 -0.183726 0.171611 -0.010031 -0.078961 -0.334427 0.196812 0.046792 0.047142 0.129175 0.243828 0.178805 -0.107351 0.106192 0.042581 -0.393890 0.072691 0.046782 -0.294159 0.119429 -0.228475 -0.043832 -0.033025 -0.047077 -0.276997 -0.109910 0.077716 -0.214844 0.344172 0.032166 -0.055771 0.249460 0.058423 0.147322 0.155449 0.065273 -0.173535 -0.110844 0.079846 -0.048828 -0.041789 -0.061550 0.061958 -0.296064 0.205688 -0.089213 -0.077640 -0.378965 0.369931 -0.112304 -0.064723 -0.130439 0.185634 0.146294 0.010198 -0.143250 -0.003087 0.239532 -0.012549 -0.275157 -0.066296 0.226049 -0.227183 0.229587 -0.214430 0.094864 -0.002452 0.177143 -0.502034 -0.014653 -0.325951 0.145839 0.076299 0.317282 0.128319 0.003714 0.077427 0.141899 0.235257 -0.199916 -0.104583 0.386394 -0.261482 -0.119417
68 -0.045775 0.029461 0.153334 -0.092082 -0.137285 -0.162136 0.321234 -0.178407 0.162978 0.120689 -0.217133 -0.142318 0.073834 -0.107193 0.127517 0.064295 0.030652 -0.111393 -0.371027 0.133221 -0.146933 -0.017163 0.053327 -0.150063 0.202132 -0.197037 -0.164654 -0.105405 -0.150350 0.000442 0.147469 0.138015 0.019896 -0.235643 -0.188781 0.047453 -0.164764 0.006402 0.110261 0.076113 0.022126 0.157486 0.106820 0.172599 0.352261 0.198079 -0.104491 -0.183809 -0.200075 0.028442 0.019132 0.227451 -0.122074 -0.091583 -0.112395 0.108628 -0.092018 0.328487 0.030552 0.088770 -0.047262 0.130388 -0.038318 0.362617 0.164010 -0.277194 0.105478 0.348545 -0.285720 0.135923 -0.050682 0.045721 0.043830 -0.138848 0.052597 0.179978 -0.069795 -0.161581 0.130947 0.436427 -0.204303 -0.153768 0.204216 0.187413 0.156494 0.024566 -0.188766 0.049820 -0.027426 0.148549 0.216715 -0.134154 0.115254 -0.097581 -0.238760 -0.231029 -0.092328 0.198531 -0.152021 0.316982 -0.177646 -0.314689 0.081149 0.044404 -0.113886 0.064477 -0.269191 0.009963 0.044397 0.216269 -0.143024 -0.367774 -0.174587 -0.105955 -0.201925 -0.021026 -0.346222 -0.020975 0.002323 0.189427 -0.120780 -0.130871 0.111845 0.045473 0.065337 -0.158060 -0.186190 0.013386
69 0.006023 -0.290204 0.141257 -0.129622 -0.081545 -0.091608 -0.444213 -0.097429 0.137011 0.046512 0.027445 0.072566 -0.248365 0.058997 0.034627 0.033775 -0.185383 0.026180 -0.314945 0.026858 -0.267707 0.182685 0.101662 -0.025429 0.173270 0.081613 -0.204528 -0.194548 0.121663 0.230778 0.100953 -0.206368 0.014883 -0.175030 -0.262312 0.347128 -0.096159 -0.245230 -0.079128 -0.172421 0.064699 0.191903 -0.173720 -0.305981 -0.011683 0.097820 -0.004843 0.402467 0.015015 -0.114918 0.025351 -0.062016 -0.097945 0.337877 0.251421 0.110788 0.258998 0.203113 -0.174353 0.136608 0.065228 -0.050749 0.023151 -0.120115 -0.149678 0.044879 -0.128681 0.404443 -0.031282 0.115712 -0.128328 -0.233704 -0.016920 0.067746 0.157752 0.226550 -0.058360 0.085603 -0.017180 0.207987 0.113364 0.189405 -0.278601 -0.165065 -0.197955 -0.124154 0.031814 0.261742 -0.179331 0.163074 0.143662 -0.037812 -0.176950 -0.045298 0.178149 -0.057198 0.268867 0.192150 -0.113357 0.145423 -0.027547 -0.047681 0.073749 -0.035062 -0.130411 0.080260 0.069554 0.015929 -0.203873 0.019801 -0.094180 0.119448 -0.099216 0.045934 -0.100912 0.122492 0.123972 0.105568 0.052290 -0.140853 0.013745 0.419758 -0.122982 -0.122031 0.194306 0.045146 -0.158383 -0.008168
70 0.167435 0.240541 -0.092025 0.168885 -0.074931 0.268723 -0.010135 -0.101802 -0.191850 -0.002112 0.134643 -0.056170 0.452541 0.023671 -0.333376 -0.182498 -0.328565 -0.032667 -0.041737 0.085779 -0.124201 0.222715 0.309503 -0.019826 0.247852 0.216169 0.116973 -0.276697 0.043905 -0.100808 0.285572 -0.076490 -0.108985 -0.212977 -0.051986 0.072803 0.092658 0.147721 0.035416 -0.085902 -0.180267 -0.237262 -0.072874 -0.457216 -0.009182 0.100922 0.017874 0.046685 -0.149176 -0.022597 -0.115576 0.158142 0.116216 -0.165489 -0.134933 0.004590 -0.106152 -0.045937 -0.114145 0.137672 0.021933 -0.178690 0.162973 0.042426 0.076479 -0.153491 -0.296085 -0.127701 -0.029026 0.283767 0.157624 0.013850 -0.208875 -0.127004 0.018066 -0.300973 0.002734 0.356589 -0.162928 0.029438 -0.057793 0.045233 -0.001655 0.013304 -0.038750 0.057336 -0.015823 -0.127389 -0.440085 0.098683 0.109824 -0.294365 -0.082633 0.203011 -0.066543 -0.042892 0.013752 0.168580 -0.140074 0.062859 -0.216019 0.158842 -0.001152 -0.146312 -0.052238 0.203544 -0.184203 0.040264 -0.278642 0.064584 -0.131869 -0.061027 -0.070233 -0.192982 0.176978 -0.245005 0.130600 -0.037255 -0.038905 -0.016444 0.186405 0.033336 -0.072743 -0.001863 -0.055239 -0.049757 0.026357 -0.145875
71 -0.069326 0.082847 0.357115 -0.119561 -0.133702 -0.043613 0.104227 0.018361 -0.012223 -0.063059 -0.164756 -0.249311 0.055433 0.045494 0.069868 0.038574 0.048538 0.077334 0.102501 0.106978 -0.091322 0.297297 -0.078107 0.184709 0.075436 0.097060 -0.277386 -0.112925 -0.209759 0.133089 0.079864 0.162394 -0.027992 0.001408 0.336595 -0.077052 -0.081103 -0.186995 -0.086640 -0.119940 -0.032578 0.046158 0.130365 0.185723 0.016996 -0.335023 -0.089765 0.187311 -0.287495 0.071505 0.362736 0.001708 0.050861 -0.193761 -0.067865 0.029025 -0.137463 -0.068455 0.121630 0.158490 -0.046274 -0.179080 0.200958 -0.380110 -0.266048 0.178164 0.153962 -0.115020 -0.224008 0.271001 0.153265 0.090966 0.114090 0.071460 0.024176 0.083680 0.016309 -0.166289 0.073367 -0.169123 0.011678 -0.403454 0.050816 0.127821 0.015479 -0.064411 0.153734 -0.350703 -0.183217 -0.162838 0.011034 0.054737 -0.228424 -0.011951 -0.319301 -0.093837 0.050371 0.267317 -0.171652 -0.157148 0.122182 -0.267739 0.124978 -0.136036 -0.202584 0.107326 -0.032404 0.055353 -0.009959 0.100455 -0.015096 0.133048 0.101793 0.433347 0.181967 -0.148357 -0.098720 0.127765 -0.019408 -0.035959 -0.007144 0.104052 -0.403403 0.153223 -0.098298 -0.186387 -0.269422 0.221257
72 -0.087877 -0.050755 0.014266 -0.059059 0.036847 0.190377 -0.181999 -0.057920 -0.040970 0.118657 -0.049039 -0.020176 0.052586 -0.010225 -0.056187 0.049322 -0.037448 -0.097393 -0.125816 -0.232081 0.136713 -0.036816 0.184936 0.118980 -0.087007 -0.081548 0.024483 0.167789 0.147780 -0.120844 -0.095022 -0.207163 0.111534 -0.019217 -0.099177 -0.056545 0.048432 0.015489 -0.062381 -0.038752 -0.130799 0.047340 0.051025 -0.011282 0.190438 -0.036163 0.072976 0.021603 -0.170284 -0.185757 0.114713 -0.033584 0.276016 -0.043018 -0.058672 0.045976 -0.047167 0.219233 -0.346529 0.053838 -0.349183 0.108889 -0.051641 -0.342705 0.193264 0.094086 -0.181865 -0.045749 -0.182596 0.341353 0.125286 -0.177698 -0.180381 -0.028103 -0.000738 -0.081663 0.018729 -0.083483 -0.048076 -0.118270 -0.053978 0.097760 0.053964 -0.286766 -0.113994 -0.012969 -0.081668 -0.038326 -0.032134 -0.129837 -0.042779 0.055368 0.046919 -0.049372 -0.019158 0.027367 -0.033542 -0.027665 -0.124909 0.229308 0.134768 0.077788 -0.030628 -0.035180 -0.246728 0.161590 0.167755 0.057870 0.087553 0.279960 0.070586 0.047499 -0.272900 -0.225135 -0.068356 -0.345325 0.161222 -0.208872 -0.112282 -0.046518 0.162136 -0.230028 -0.044476 -0.065798 0.233542 -0.058722 0.034938 -0.186085
73 0.164203 -0.284275 -0.008238 -0.181567 0.049498 -0.119506 0.117844 -0.206100 0.044853 0.250145 0.058716 0.276894 0.106492 0.113969 -0.228769 -0.351628 0.370228 -0.178788 0.269800 0.056863 -0.366820 -0.131694 0.113571 0.119106 -0.066921 0.224849 0.082609 0.351974 -0.068330 0.083358 0.317307 0.015787 -0.102081 -0.095805 0.214260 0.180633 -0.298744 0.208322 0.131553 0.170261 0.045741 0.413124 0.194055 0.000176 0.042405 0.181487 -0.005143 -0.152246 0.002451 -0.077035 -0.040090 0.199594 -0.026699 -0.028894 0.131133 -0.003740 0.231177 -0.140192 0.037182 -0.163506 -0.059825 -0.117673 0.168570 -0.139110 0.052992 -0.095671 0.089201 0.254816 0.162643 0.186884 0.011957 0.118834 -0.249509 0.017723 0.135654 0.105916 -0.330448 0.077432 0.215454 -0.237947 0.000452 0.231813 -0.175801 -0.232064 -0.071347 0.002006 0.214672 -0.099229 0.114462 -0.118321 0.076383 0.128804 0.051048 0.014335 -0.286891 -0.234560 -0.136327 -0.021409 -0.065985 -0.105137 -0.010552 -0.415588 0.169278 0.144089 0.180763 0.079299 0.022063 0.315942 -0.022007 -0.282561 -0.262379 0.051740 -0.197076 -0.096013 -0.000551 -0.217574 -0.092493 0.327241 -0.222986 0.203148 0.304601 0.289585 -0.110172 0.111006 -0.173804 -0.280730 0.084279 0.032879
74 0.372009 -0.173735 0.302500 -0.008054 0.017634 -0.265012 -0.410835 0.065415 0.181974 -0.157985 0.152963 -0.048830 -0.135625 0.168936 -0.248459 0.135601 -0.207728 -0.108455 0.069854 -0.143957 0.064280 0.102684 -0.040427 0.026390 0.035130 0.346482 -0.070731 -0.181156 0.198469 0.090916 -0.092355 -0.276657 0.087154 0.082551 -0.170657 0.172245 0.297082 -0.365243 -0.069390 -0.314865 0.160387 0.146991 -0.069838 -0.135159 0.040051 0.286199 -0.197453 0.334974 -0.125572 -0.030787 0.026235 0.035847 0.064889 -0.141062 0.024010 -0.004140 -0.016076 -0.002847 -0.226291 -0.131675 0.145563 0.259088 -0.193877 -0.102899 -0.271300 -0.108940 0.124254 -0.027472 0.075214 -0.013487 -0.323808 -0.049776 -0.289697 -0.041805 0.284769 0.153815 0.233547 0.313572 0.228736 0.173580 0.030852 -0.227013 -0.040337 0.067488 -0.563155 0.085415 0.191388 -0.205955 -0.151111 0.004860 0.108745 0.046255 0.149198 0.400445 0.174111 -0.028412 0.007479 0.077493 -0.071973 -0.092846 -0.066528 -0.121458 0.108931 0.119543 -0.140715 -0.026997 0.014604 -0.184710 0.059476 -0.010553 -0.074988 -0.167516 -0.216589 -0.161618 0.040879 0.048187 0.072015 0.193310 -0.009720 -0.026865 0.188768 -0.063918 0.187924 -0.168758 0.073165 -0.075225 -0.089478 0.000399
75 -0.070409 0.093400 -0.166594 -0.220909 -0.077949 -0.214510 0.085630 -0.070805 -0.052925 -0.300641 0.002312 -0.191072 0.045626 0.073896 -0.330477 -0.154331 -0.149844 0.029660 0.233792 -0.098366 0.037577 -0.060638 -0.117902 0.409000 0.197790 0.045959 0.084934 -0.062839 0.462923 0.143469 0.175654 -0.034783 -0.214864 0.132038 -0.019951 -0.105989 -0.258945 -0.107160 0.069095 0.042145 0.236956 0.461151 0.026601 -0.020593 -0.113670 0.105331 0.248836 0.192828 0.213231 0.096046 0.090097 -0.033489 0.008974 -0.065677 -0.256655 -0.133025 0.021405 0.293262 -0.144892 0.145168 -0.120316 0.125361 0.302645 -0.094319 -0.119381 0.140809 0.158564 0.111475 -0.362926 0.237773 -0.167847 0.022538 0.018971 -0.001264 -0.006759 -0.210378 0.030966 -0.003016 0.204172 0.158172 0.017038 0.137109 -0.220450 -0.020969 0.152135 0.024023 -0.012814 -0.311601 -0.134892 -0.143893 0.189714 -0.232831 0.215175 -0.248699 -0.085989 0.026554 -0.154351 0.181460 0.160444 -0.039231 -0.046361 0.343873 -0.269849 -0.185757 0.293776 0.016322 0.076069 0.251614 0.022925 0.284014 -0.070822 -0.285450 -0.025685 0.049575 -0.095561 -0.038064 0.010912 -0.101715 -0.142288 -0.006011 -0.147485 0.079406 -0.033636 -0.023843 0.034233 0.215136 0.016625 0.053171
76 0.156615 0.071461 0.071724 0.123636 0.386605 -0.037948 0.120509 0.088454 -0.077952 -0.114870 -0.017553 -0.180149 0.101591 -0.148852 0.012950 -0.128690 0.221772 0.096190 -0.072924 0.138092 0.022935 -0.317930 0.080652 0.207787 -0.054971 0.073045 -0.346110 -0.255248 0.069242 0.085630 -0.113509 0.055846 0.114536 0.010479 -0.004399 0.393330 0.073490 0.003442 -0.056200 0.017217 0.155358 0.109402 0.033699 -0.115577 -0.089883 -0.286226 -0.077037 -0.165791 0.017354 0.107152 -0.197244 0.142654 -0.162737 -0.172842 0.011287 -0.047408 0.124747 0.024037 0.105956 0.289039 -0.113767 0.202498 0.008505 -0.255276 0.048657 0.201571 -0.152185 -0.060606 0.041932 0.067939 0.028376 -0.238229 0.106337 0.184451 0.107619 -0.100108 -0.003292 0.048972 -0.107662 0.086135 -0.059320 0.106416 -0.054757 -0.087300 -0.107085 0.114202 -0.004044 0.039783 0.203731 0.058668 0.007923 -0.241485 0.062148 0.142729 0.036780 -0.094964 -0.268747 -0.200761 -0.362002 0.137970 0.049182 -0.142157 -0.137976 -0.028985 0.006014 -0.139711 0.031125 -0.162978 0.015914 0.124993 0.099771 0.117411 0.072278 0.035960 0.136237 -0.038887 -0.038174 0.143762 -0.152312 0.141103 -0.257899 -0.178828 -0.470777 0.168724 0.217190 -0.011941 0.092440 0.262571
77 -0.048725 -0.030480 -0.259760 0.010040 -0.098749 -0.031416 0.286165 -0.036066 0.074202 -0.141514 0.064450 -0.050976 -0.112245 0.021190 0.203646 -0.082996 -0.142062 0.208345 0.027355 -0.023785 -0.006203 0.133594 0.347326 0.059508 -0.154762 -0.170495 -0.036022 0.023651 -0.167226 0.110186 -0.091863 0.182968 0.145617 0.112159 -0.033858 0.037308 0.090861 -0.451568 -0.107400 0.215968 -0.071468 0.247043 -0.041141 -0.186532 0.425776 -0.167925 0.024987 0.024208 -0.184205 0.168901 -0.064808 0.154507 -0.227507 0.313176 0.128539 0.038423 -0.036639 -0.154286 0.080559 -0.152112 0.303350 -0.288364 -0.005561 -0.272830 0.015452 0.169902 0.312707 -0.065302 0.021820 0.132642 0.147057 0.175135 0.011948 -0.005310 0.479688 -0.040359 -0.005353 0.058253 0.074168 0.230514 -0.109139 -0.210654 -0.025840 -0.319918 0.172721 0.219783 -0.067006 -0.129160 0.029499 -0.153223 0.046566 0.048124 -0.028897 -0.198124 0.190576 0.034498 0.140968 -0.119014 0.044359 0.230242 -0.192653 0.054192 -0.060920 0.026091 0.063091 -0.020156 -0.330247 0.102159 -0.132545 0.181549 0.012044 -0.022235 0.096586 -0.191765 -0.276199 -0.103527 0.111077 0.084103 0.009745 0.216744 0.015649 -0.022600 0.182857 0.586839 -0.102940 -0.002469 -0.051430 -0.218295
78 -0.235093 0.161110 0.036379 -0.003108 -0.309917 0.267629 0.095526 -0.294173 0.102605 -0.078229 0.247398 -0.009110 0.065122 0.207377 -0.195353 0.018841 0.103902 -0.009349 -0.009101 -0.117880 -0.101334 0.173169 -0.005544 0.177793 0.027210 -0.182813 0.177610 -0.008747 0.167883 0.199465 -0.315419 -0.006988 -0.218626 0.140592 -0.263310 -0.040835 0.000256 0.056222 0.331512 -0.414805 0.357329 -0.034953 0.313034 0.146175 -0.193139 -0.272905 -0.051323 -0.259874 -0.320821 -0.034490 0.054838 0.298470 -0.056867 -0.129258 0.184752 0.157039 0.023448 -0.240821 -0.132463 0.188391 0.001500 0.172471 -0.073148 -0.245107 0.160289 0.098676 0.031355 -0.069980 0.327137 0.245352 0.020190 0.013906 0.180157 -0.140327 -0.366143 0.182533 -0.071498 -0.045828 0.055722 -0.105821 0.249117 -0.071831 -0.098628 0.187284 -0.048727 0.337627 0.168706 -0.049753 -0.258284 0.178959 -0.121674 -0.251263 0.064098 -0.056624 0.092054 -0.030656 -0.096024 -0.016631 0.035054 0.397638 0.227512 0.022747 -0.046609 0.186355 -0.017030 -0.002835 0.057057 0.051254 -0.057259 0.082664 -0.233203 0.083233 -0.076214 0.093462 0.111236 0.178270 -0.153468 -0.169259 0.265145 0.189156 -0.243352 0.297537 0.007069 0.177915 -0.030707 0.230766 -0.122024 -0.078818
79 -0.168499 0.026693 0.233064 0.032325 -0.325803 0.156694 0.014418 0.093286 -0.026434 0.101136 -0.024871 0.052761 0.196731 -0.210787 -0.318139 -0.046518 -0.074939 -0.073926 -0.289701 -0.167165 0.100930 -0.244268 -0.068908 -0.179474 0.174187 0.116182 0.169339 0.303703 0.069820 0.110977 -0.242060 -0.026709 0.160396 0.026687 0.163430 0.280950 -0.162822 -0.088832 -0.048074 -0.257415 0.044191 0.075018 -0.073120 -0.144169 0.135465 -0.056863 -0.004279 0.040656 0.089963 0.377200 0.091867 0.192866 -0.135875 0.056111 0.092522 -0.116308 0.040776 0.057812 -0.107648 0.163659 -0.028473 -0.124125 0.086303 0.197481 0.071314 -0.053797 -0.039109 -0.048914 -0.403529 0.145135 0.255095 0.154721 0.140632 -0.128700 0.040544 0.017757 0.127888 0.052776 -0.222481 -0.314529 0.065639 -0.101400 -0.225304 -0.053112 -0.137831 0.084120 0.330663 0.255684 -0.070362 0.112520 0.071445 0.102606 0.064682 -0.032612 -0.066815 0.190784 -0.038300 -0.140990 0.146919 -0.172530 0.064975 -0.120980 0.025180 0.119877 0.242674 0.002946 -0.046801 -0.037171 0.003661 0.201840 0.048836 0.127421 -0.114637 -0.072673 -0.031356 -0.392870 0.027459 0.079350 -0.133724 0.009020 -0.252311 0.010845 0.039706 -0.078716 -0.106109 0.134398 -0.004092 -0.065206
